{
  "labels": {
    "labels": [
      "idle",
      "walk_left",
      "walk_right",
      "walk_front",
      "walk_back",
      "jump",
      "crouch",
      "climb"
    ],
    "rows": 8
  },
  "mlp": {
    "layers": [
      {
        "activation": 1,
        "biases": [
          0.23586497829714087,
          0.09484450234253781,
          0.3988284742157385,
          0.5090080515014453,
          0.46795501622239516,
          0.11470132914987274,
          0.2852340315413901,
          -0.019291421610917323,
          0.10610753514436591,
          -0.016752055065596124,
          0.038487825310418895,
          -0.019634251000194135,
          -0.37225877068535096,
          0.5228444972808898,
          0.3292613144788681,
          0.4255760292559007,
          -0.2299843227749126,
          0.2227461046954783,
          0.10175245460506807,
          -0.17315584587756794,
          -0.14828318407645336,
          0.43101046933796483,
          0.17275836931189506,
          0.07647303986311092,
          0.19798453480702458,
          0.015617134029558919,
          0.6606467167790687,
          0.47153455558095414,
          0.3358475136323225,
          -0.3077366824358856,
          0.15741392195066384,
          -0.24937218419986773,
          0.11173959637525656,
          -0.3046630473307834,
          -0.0057438520912104435,
          0.4285255268867806,
          0.26255673018069126,
          0.5874443860801979,
          -0.16580454636693365,
          0.2447862028980516,
          -0.05684153575940026,
          0.3019204408623688,
          0.06814643757506912,
          0.13127264732327149,
          0.753610706618683,
          0.15170141846373925,
          0.16270044791558538,
          -0.33416190562950854,
          0.05726272442977128,
          -0.05445635062378368,
          0.1258609139036736,
          0.0775155796473063,
          -0.3302881332074408,
          0.1665829289454865,
          -0.40296079480941954,
          0.6281678600006138,
          0.3426464637779161,
          0.444630928466355,
          -0.2721668588467986,
          0.25710148734668553,
          0.19549631341719967,
          0.017051588213196616,
          0.27532390806778473,
          -0.16855770606006149,
          -0.1230486701520153,
          -0.052213965800022286,
          -0.3571710067306811,
          -0.17640148874772382,
          0.2739089768438417,
          -0.020630034991341865,
          0.4298208696319472,
          0.004861711587683853,
          0.19363532180592596,
          0.19593836674042497,
          0.19241020292716685,
          -0.24426792306299566,
          0.20553298431016273,
          -0.0395564028381213,
          0.5689772204498004,
          0.025884581419512397,
          0.368105424095123,
          0.18422858043258572,
          0.04149316138821827,
          -0.06530209971458435,
          0.1204573834491988,
          -0.03736395178338372,
          0.43131077607086177,
          -0.14617677715766425,
          -0.042243580077930325,
          -0.3337162212201194,
          -0.0068506691466946055,
          -0.21862292505731984,
          0.3135787317525309,
          -0.028924143238606426,
          0.5079637047608845,
          0.2527554501503914,
          0.16481964855472206,
          0.45876225446575236,
          0.1630101738218565,
          0.1829030992079107,
          -0.05440082222097043,
          -0.02597285275065726,
          -0.037699629658589986,
          0.2683750537764613,
          0.4293733375817519,
          0.250317489655216,
          0.504646699237449,
          0.07336835353546631,
          -0.10973370952847326,
          0.6009996591749146,
          0.3528826623664341,
          -0.08214585411032084,
          -0.033836468736442624,
          0.2183965488925651,
          -0.06171920502349022,
          -0.14622036923529236,
          0.4340616152387477,
          -0.01818655694358715,
          0.0026540510534324296,
          -0.08010264028983631,
          0.47893248187847676,
          0.29065527330500907,
          -0.23358251595459467,
          -0.0931168157478095,
          -0.06891293524461152,
          0.004307405220213463,
          0.535864262437793,
          0.13903390630830817
        ],
        "cols": 128,
        "rows": 51,
        "weights": [
          [
            0.12266094492065188,
            -0.07760387482362019,
            0.08790710365037195,
            -0.03117229589178322,
            -0.1014622192326387,
            -0.08942688577666073,
            -0.06809406166573972,
            -0.04190016972440981,
            0.1544757957555351,
            0.10251265687875007,
            -0.15915806568873359,
            0.04848216731546925,
            0.11563195258656633,
            0.06532269425897788,
            -0.0028328291839279604,
            0.1461169940609469,
            0.16932719609257754,
            -0.15678899355069523,
            -0.11328523018567925,
            0.05617047689551829,
            -0.15517981247580123,
            -0.16703634803456877,
            0.09504784467021403,
            0.006788732659709027,
            0.024724396723631588,
            -0.1293658660660435,
            -0.09226530239487653,
            0.17229971113370116,
            0.08516926084933708,
            0.08109043381922383,
            0.17806594331873793,
            0.008420263471754315,
            -0.11442506678039584,
            0.0005084565201921834,
            -0.12972346186046438,
            -0.1403731116130614,
            -0.13185786175841405,
            -0.011962696810236222,
            0.13597021339425425,
            0.15839817462558922,
            0.03394366329854509,
            -0.02790923426769262,
            -0.062394878692156854,
            -0.05554468425528176,
            -0.15647609723057695,
            -0.08630909744405364,
            0.0061070656765941905,
            -0.089739782096779,
            0.17532810051770306,
            -0.03832421178020095,
            -0.12087296594854743,
            -0.01667849134916165,
            -0.13075154976942444,
            -0.0780955690409489,
            0.046314242811792604,
            -0.052672743031339016,
            0.07229581225018517,
            0.04329702829636638,
            0.17327192469978295,
            0.0695691443177259,
            0.12566698456750244,
            0.17952985110214847,
            -0.06182496039479856,
            -0.015739802388806828,
            0.040849732078298465,
            0.061489714337528985,
            0.04348700106215247,
            0.12241509781198753,
            -0.10456883269667014,
            -0.0633782671268143,
            0.05012487299609019,
            -0.09006385328547295,
            -0.15529156116155776,
            -0.08410764833465006,
            0.11737523208436815,
            -0.045777849120161286,
            -0.13213723347280537,
            -0.1520955487489211,
            -0.0001396858571956548,
            -0.12250449676059275,
            0.015605703965899,
            -0.10832358853808947,
            -0.17804359358158667,
            0.11579957561520111,
            -0.08819765023333893,
            -0.054080776471871254,
            0.008889607951931715,
            0.07411731582801655,
            0.10673675720034678,
            -0.062808348829456,
            0.13431633284505765,
            -0.14182584452789626,
            0.006799907528284678,
            -0.1429545062540372,
            -0.07719040468632103,
            0.170310584527235,
            0.1045576578280945,
            0.0859626765182084,
            -0.03015538285139881,
            -0.09966306539195863,
            -0.061523238943255946,
            0.161750635198285,
            -0.07503365505122006,
            -0.08651024507841538,
            -0.1275890619625147,
            -0.17415473931725953,
            0.12295149150361884,
            0.11631361956968113,
            -0.04495090884556299,
            0.13892037869822654,
            0.014421167896879807,
            0.13356761665048889,
            -0.07855373865255066,
            0.07727980363492626,
            0.11310643228846881,
            -0.16871257832091666,
            -0.17816651713591883,
            -0.05000194944175801,
            0.07891133444697154,
            0.13249482926722628,
            -0.15276604086346027,
            0.0907790448743147,
            0.02000860218470616,
            -0.005693595539295052,
            -0.0644622293786526,
            -0.06040575208569066,
            -0.16958421806981755,
            -0.12011307488540306
          ],
          [
            -0.23689595615526005,
            0.19617659042406185,
            0.5022044220029895,
            -0.30127228916225873,
            0.7721651500205721,
            0.3885309174267802,
            -0.10209954096017879,
            0.18521515548679457,
            0.18650706602996633,
            0.4206122055275897,
            -0.3132043256860469,
            -0.15751700421762896,
            0.36370937300456185,
            -0.2647059221555976,
            -0.2533339484036839,
            0.6474396596325703,
            0.5941593757011765,
            -0.034316269563568064,
            0.029524505588707957,
            0.44421081891919906,
            -0.28614477985111125,
            0.505048684870512,
            0.2412465043940281,
            0.5749185244166696,
            -0.1900147029368166,
            0.05574398768419371,
            0.6602993781958898,
            -0.37367709478254263,
            0.601753090670571,
            0.20879071793408738,
            -0.18856034714219172,
            -0.036435627683808314,
            -0.11852668085337141,
            -0.37709128765194605,
            0.1982933690436601,
            0.076975786689767,
            -0.5783491293587577,
            -0.04764072494492065,
            -0.03852580343593298,
            0.11010444447636515,
            0.4080805337678124,
            0.009105354151061127,
            -0.5145963312405412,
            -0.12019202128933551,
            1.0348417904778047,
            0.02550867800975863,
            0.34401531599530044,
            0.3328477240121945,
            0.2020895107377728,
            -0.19812831054006444,
            -0.4519794564735546,
            -0.007530944542199907,
            0.02725744118930123,
            -0.36512223322128334,
            0.07863927847809957,
            -0.4538523284978375,
            0.7569997740495693,
            0.43274446396306465,
            0.37350135534397383,
            -0.29415175981350006,
            0.020686398988912454,
            -0.13804108338096197,
            0.33269667810500664,
            -0.11096723758083508,
            -0.3074353709669504,
            -0.16413755778364925,
            0.3030723609978445,
            -0.06340681895055084,
            -0.359825554237077,
            0.2147479414719833,
            -0.49858140727789474,
            0.20874872992906254,
            0.06689491292297484,
            0.017940845676062522,
            0.0015720853958698692,
            0.6483677261798831,
            0.001747607689126745,
            -0.3046852030616241,
            -0.010177461491849057,
            -0.4205131411072688,
            0.15541333708661778,
            -0.14336926099904027,
            0.1733616209992415,
            -0.10758532662616055,
            0.04223584307328977,
            -0.465283527129355,
            -0.17912323649481604,
            -0.2110236103684709,
            -0.5398303657087141,
            0.19251004689272055,
            -0.5526884023795013,
            0.09720843472797687,
            -0.4246517129725577,
            0.39602825571585265,
            0.30562277482937705,
            -0.28361758010910737,
            0.38556445295233466,
            -0.17986661418782213,
            -0.29644777486495266,
            -0.26961336344331766,
            0.36458857076224244,
            0.586932879288096,
            0.13457382706139576,
            -0.017685333400149262,
            0.07414612670702554,
            0.2241672731023493,
            0.04420046362410303,
            -0.4360638744213142,
            0.14969011626508238,
            -0.477523797213678,
            -0.5146833955676277,
            -0.1594531837868033,
            -0.33106715953172955,
            0.2942420532893829,
            0.02675793178932013,
            -0.3278906406855405,
            -0.21471982081686802,
            -0.26295818655471115,
            0.21509868552494726,
            -0.505329600176174,
            -0.08594904536263147,
            0.44495671132997006,
            0.4215057516840938,
            -0.1850470520732531,
            0.40991234888589156,
            -0.08885981676078866,
            -0.54451310198826,
            -0.3524950081176255
          ],
          [
            -0.31936762635038196,
            0.06445292140561441,
            -0.02215852504027706,
            0.7579906211747711,
            -0.13958067842221608,
            -0.31978064735644984,
            0.6780688352503991,
            0.3421361917958404,
            0.11373293013903031,
            1.2042613202163615,
            -0.021806702730357088,
            -0.10833159060146859,
            -0.5224142161746848,
            0.6781101381497422,
            0.18683157280066795,
            0.09210097493328018,
            0.4558538174502508,
            0.12844881470067193,
            0.1569114556744261,
            0.2227110591071902,
            -0.12162736472357687,
            0.4520761959705309,
            -0.10907391622658791,
            -0.13722784536474864,
            -0.0545261097875856,
            0.21444317368942892,
            -0.22614663940036053,
            0.43883740954221445,
            0.20649394155533005,
            -0.9143275541090875,
            -0.029331852261212293,
            -0.9901696112953119,
            0.13014134482856432,
            -0.033862400361067795,
            0.03133384170446801,
            0.11670935508658359,
            -0.22301855833520734,
            1.0115647764790954,
            0.029999556141187433,
            0.09502540610198346,
            0.07515923338613513,
            0.7114091440510215,
            0.1523145167672575,
            0.15399904421202568,
            0.16250038585748508,
            -0.00734593994416492,
            0.3886465138481736,
            -0.4272559013608717,
            0.6488096622684759,
            0.2649187670385137,
            0.5024407159885801,
            -0.4206478149583277,
            -1.3330023056017546,
            0.2859791054757715,
            -0.8132919063056571,
            0.0866138040726423,
            0.17592092311128282,
            -0.023668277291801217,
            -0.15261685413289172,
            -0.08383409532774498,
            0.4563189248170737,
            0.06984936868898398,
            0.08876722630008703,
            -1.061013111376871,
            0.06436774346851515,
            -1.1399167626345932,
            -0.4692307395010195,
            -0.7367186015183005,
            -0.16305079923466737,
            -0.5896930735270968,
            -0.14248579129968625,
            0.33958862578484195,
            0.7050793334569821,
            0.1688668483449313,
            -0.0966475827403647,
            -0.5915265017463188,
            -0.4946637281790786,
            0.09981004636925965,
            0.5762123190624845,
            -0.5103134356709692,
            0.17974624080998863,
            -0.19999610829241574,
            -0.19094431168878778,
            0.29007229825849457,
            -0.013094948809544397,
            -1.382531348247825,
            -0.07237232297460397,
            -0.5632763921285642,
            0.19312752796617438,
            -0.7979628804490932,
            0.21094090863078716,
            0.1492072925502963,
            -0.15328952996627887,
            0.2789578589449574,
            0.18367345053613254,
            0.3580305776307137,
            -0.1501649785333029,
            0.5686151605722198,
            0.3157215126089897,
            -0.7567598059336121,
            -0.261158768263,
            -0.21393288901353782,
            0.06755021757335639,
            0.19141018590040626,
            0.4377282305384518,
            0.044264463072059224,
            0.6218627109462118,
            -0.19249608555536576,
            -0.6653055005541886,
            0.22423635044699267,
            -0.035378753089958,
            -0.5337594091618972,
            -0.23102508970509417,
            0.9822953297436445,
            -0.646323180986261,
            -0.7054134090841533,
            0.35484661526734845,
            0.21453472225199693,
            -0.2035373098305347,
            -0.03319027072369741,
            0.4347882105796478,
            0.17130522036082663,
            -0.2442223899976204,
            0.12205512527899255,
            0.31622671144276204,
            -0.15159209951876834,
            -0.6474238152982448,
            -0.712386623103301
          ],
          [
            0.21566579812921233,
            0.20129972679440075,
            0.5532688906826437,
            -0.8029062354595383,
            0.843000885820719,
            0.34227972514881744,
            -0.14126142221790214,
            0.0670118660537642,
            -0.4258608027554704,
            -0.30093566646906794,
            -0.5184862024130786,
            -0.2753385375774174,
            0.5903634437854525,
            -0.6399721979420611,
            -0.3301864752871972,
            0.684037617214939,
            0.33650183615109386,
            -0.19273736289319193,
            0.19870767177397775,
            -0.38796131492705715,
            0.0027542836977315147,
            0.42959985230203934,
            0.38871814773572433,
            0.45469287208706793,
            -0.3226100022366139,
            -0.03719117142311326,
            0.8826507983619616,
            -0.6171582668539828,
            0.5619372919649581,
            0.5620324300164989,
            0.5014409339245568,
            0.37646946520521674,
            -0.09365421129029715,
            -0.22116911963472521,
            0.20888050626962576,
            0.22931042174588442,
            -0.11467757596060918,
            -0.7766692368032835,
            -0.4136224151032674,
            -0.547868196194413,
            -0.019571563525143998,
            -0.3484752768338562,
            -0.12487032372390859,
            -0.2546583600244661,
            0.9683238448497488,
            0.11133002054894224,
            0.014031328159353984,
            0.45922406938911847,
            0.04879237132766667,
            -0.2847438850960406,
            -0.8619147415654875,
            0.021086102744177455,
            0.277175030787643,
            -0.5578916529377057,
            0.6342482320221533,
            -0.21617980686782548,
            1.1805149795985264,
            0.2892447303633643,
            0.24035389975528634,
            -0.4265347688287091,
            -0.3528349065073706,
            -0.11037795017972186,
            0.3960844575724551,
            0.16576267374109657,
            -0.6349848434565789,
            0.6925630713840333,
            0.39172443179376065,
            0.5577407653316103,
            -0.2916560431670165,
            0.6081367092504636,
            -0.4462221664324063,
            -0.23225060920341686,
            -0.36956620832554193,
            -0.27695254798536567,
            0.11270894029361793,
            0.6572864144946186,
            -0.06992231406047114,
            -0.1398674491953852,
            -0.8415691696166513,
            -0.14599952755119847,
            0.26213137360619676,
            0.03842806159404663,
            -0.45282138725890947,
            -0.08068114961917358,
            -0.5481106765288465,
            0.13259217317281008,
            0.05357437674306855,
            0.29116966501197517,
            -0.4242231455193832,
            0.6021740410041185,
            -0.4830356418504206,
            -0.2045370346959813,
            -0.17146839642573755,
            0.2321721895053991,
            0.11416956406310785,
            -0.36690114069808094,
            0.2349348949542066,
            -0.5610799785484634,
            -0.46459272787676725,
            0.5722541258416334,
            -0.3654682714106854,
            0.572775296763367,
            0.16889332065290497,
            -0.3165772115454666,
            -0.7328377740890074,
            -0.15076556598369825,
            -0.7089013228538452,
            -0.5645436982215553,
            0.4599544968149347,
            -0.7348205607610209,
            -0.26985550669927416,
            0.2972010308566432,
            -0.12329088341764577,
            -0.41224859979174794,
            0.2686799025319904,
            0.05047884411655156,
            -0.4144938310512255,
            -0.3692805995542135,
            0.20833801256748397,
            -0.41734774541194464,
            -0.4477970439205723,
            0.2272041845243954,
            0.7729393854236561,
            -0.4332673551989096,
            -0.4236584521868397,
            -0.3067059305019879,
            0.4828584264758177,
            -0.02583274669281293
          ],
          [
            0.9187166259696947,
            0.04917361626194505,
            -0.41999969761510597,
            0.1435474773453443,
            0.3997851334753603,
            -0.8628238637072837,
            -0.05802374840066423,
            1.0240463201912995,
            -2.4385985042389873,
            -1.7761654523738264,
            0.33634524448802294,
            -0.5164363720767852,
            1.1726062535565849,
            -0.7030401903208473,
            -0.3152432622585362,
            0.33125083935336846,
            0.5305910774300566,
            -0.46927985767609076,
            1.2058578902793418,
            -2.7323807774598614,
            0.19943426325684113,
            -0.7100501690218095,
            0.11991660027581519,
            -0.17639660388496872,
            -0.7614529421099868,
            -0.010913333203292542,
            -0.1116571614612199,
            -1.094929069642892,
            -0.08434181658760126,
            0.047795512213735805,
            1.2384420185237957,
            1.3286164327632506,
            0.8560673768095134,
            -0.3692389876846154,
            -1.1525529496622542,
            0.29776595218010815,
            0.9746875658536898,
            -1.6168510801807185,
            -0.4891954438988267,
            -2.3767827647708186,
            -0.6793746697303357,
            0.3558766879224505,
            0.7392037672421041,
            -1.3236799849976322,
            0.082981561757222,
            -0.672413710854519,
            -0.2632694944406881,
            0.6847287782436041,
            0.10143060250587144,
            0.1466444800940873,
            -0.28946144415038144,
            -0.2983315141869642,
            0.029417231902944943,
            -0.45015106741704697,
            1.4099432566616135,
            1.35282125217247,
            0.8412002425116036,
            0.08698094978547309,
            -1.3392572832768612,
            -1.0108569423750173,
            -0.4324198798755353,
            -0.36845464216417967,
            -0.11680002595934856,
            0.7840131181169234,
            -0.10548404418167742,
            2.0335267407033086,
            1.4079059977015727,
            1.5270761255500962,
            -0.160996301052307,
            0.7502242331020537,
            -0.8060534192109202,
            -0.9873841213407788,
            -0.6507377834375995,
            -0.10679579724391164,
            0.10695762204985965,
            0.06893625232103971,
            0.4651880648397666,
            0.35755628904117015,
            -2.0531067581638376,
            1.013674524001175,
            -0.3182598989701559,
            0.17123757877118456,
            -1.500006893112068,
            0.5074249769245763,
            -1.6549326318582218,
            0.6137874933334211,
            1.3205778673671942,
            0.5997423004476167,
            0.6261515495862296,
            1.330868064850458,
            0.0706215842832298,
            -0.3989129892248882,
            0.6905866865424916,
            0.05403410916595549,
            -0.31812026632430135,
            -0.7155443299553677,
            -0.0037538660772406607,
            -1.7496992087315741,
            0.004717443751672471,
            1.7916497445329653,
            -2.9722057778443602,
            -0.11218125527860089,
            1.0073357936399205,
            -1.0424144690708297,
            -1.6223272589976574,
            -0.412786451448463,
            -1.5453911183996645,
            0.28316781488181353,
            1.5311182137133788,
            -1.1822923897834603,
            0.5382673911364921,
            1.458160103394213,
            0.4531885246143063,
            -1.3165510532381985,
            0.8759166302109008,
            0.6211071397677674,
            -2.0682846385715212,
            0.7223224670994106,
            -0.5757248678956742,
            0.8185516450730603,
            -2.1016074393653073,
            -1.0572982124804595,
            0.3475864578287635,
            -0.4583975615339947,
            -3.817755292072593,
            -0.7791794371320084,
            1.5178502193638117,
            0.583025418193718
          ],
          [
            -0.355497412818699,
            0.05507843384874054,
            0.38409021136982974,
            -0.5027845216428566,
            0.4274024492496199,
            0.9191056740881339,
            -0.49486307789801437,
            -0.7906806704088681,
            0.9554489634263195,
            -0.5762931021981836,
            -0.40895013647381806,
            0.2174934345672011,
            -0.23515328745289718,
            0.3817806516610707,
            0.1891878461618859,
            0.16646758000278322,
            -1.2251995068205959,
            0.4302459795032108,
            -0.8721757689975063,
            0.7246365748942762,
            -0.4230315609275398,
            0.4763305756635083,
            0.34675014077305294,
            0.49421668334594804,
            0.9311758836398752,
            -0.16226301871008644,
            0.9951992792761082,
            0.5935340933297386,
            0.025843677422631054,
            0.7030836971179681,
            -0.9913832993693581,
            0.0014779621764996042,
            -0.821709455530832,
            -0.11048670868000962,
            0.18939436256182218,
            0.3366686361215586,
            0.7068967606764374,
            0.033580687347186645,
            0.018680291805827438,
            0.817591746521364,
            -0.19341050390133888,
            -0.8202561892048353,
            -0.5415456680085168,
            0.6689529610486764,
            0.9061576467354373,
            0.1771804690539942,
            -0.18459623728787822,
            -0.3162411983097551,
            -0.6230343320996959,
            -0.3263265784400889,
            -0.38377476249460285,
            0.7318728093904244,
            1.1970916142766659,
            0.08603520956791848,
            -0.4620752641340227,
            -0.2371294207147805,
            0.43168168882503843,
            0.491440092393571,
            0.669988152795598,
            1.2471517341785963,
            0.0006042869578068589,
            -0.14814391427400853,
            0.028648802551177834,
            0.584811718886706,
            0.12481226218829977,
            -0.10772353169724745,
            -0.6812846188833774,
            -0.3993015482945226,
            0.8262573258713802,
            0.050210817566497236,
            0.9785127172190373,
            -0.2487017118777829,
            -0.28229911152301185,
            0.33240268556222174,
            0.3808772360343921,
            0.23403858202697594,
            0.575490872709871,
            -0.5578929917014784,
            1.0077524547992818,
            -0.34984049391698807,
            0.45646773356514425,
            0.5915133599161129,
            1.1100467037548103,
            -0.637170530919652,
            1.5961745578069804,
            1.2043081008967917,
            -0.9467306983529672,
            -0.0405662725344987,
            -0.7574363783575113,
            -0.07249976857365024,
            -0.1080554164110128,
            -0.05053157559206252,
            0.4331025792866234,
            -0.9021161998364943,
            0.48531991831747406,
            0.002210080940109805,
            0.6712130387522522,
            0.7955156334103444,
            -0.43684633719128346,
            -0.3828801554524498,
            1.2186870865472434,
            0.05738016901704674,
            -0.9497538016522064,
            0.8055209058760391,
            0.9996133920147263,
            0.6813089839492898,
            0.5511127800366183,
            -0.07123870291944791,
            -0.911556442632622,
            0.3994220469749519,
            0.44122992421123325,
            -0.08256283756281549,
            -0.3129831307895339,
            0.023994710131073183,
            0.3352334924921411,
            0.03579671881286997,
            0.6396986004156245,
            -0.6807907232431512,
            0.9089079151103826,
            -0.47725099016047584,
            0.77786279506745,
            0.7167413519962896,
            -0.15225718816703984,
            -0.34985700664791375,
            1.2967289355678056,
            0.43669499458423955,
            -0.04807592907962923,
            0.5252193039687285
          ],
          [
            -1.3203085516914799,
            0.17247765438056922,
            0.9342311743813188,
            0.2066731817688229,
            0.4116389494084162,
            0.7436419087458085,
            0.0008354449328274918,
            -0.18576792747678741,
            0.013761589854042116,
            1.247935737095822,
            -0.4268021499968248,
            -0.3586890527645089,
            -0.023894681773403544,
            0.2696755680854346,
            0.042338443535391505,
            0.38982768824856806,
            0.18476730150411072,
            0.1468757613764584,
            -0.4794828206497517,
            0.39556920140269297,
            -0.7691965905837267,
            1.1492413137722568,
            0.36139077662469893,
            0.5046019922301697,
            0.33404227970255423,
            -0.21168401307681742,
            0.7917533721566605,
            0.20811937166876474,
            0.629447548815319,
            -0.4334096149784444,
            -0.7114931358577016,
            -0.5816199769233513,
            -0.8077479543971414,
            -0.42403995103049297,
            0.3486294528734179,
            0.29123571583565333,
            -0.24311339046322422,
            0.8266560371146356,
            -0.23760053228881015,
            0.07504099417555642,
            -0.2874672432433879,
            -0.36455733034614923,
            -0.7435702505457537,
            0.4861898794906844,
            1.0104282159240692,
            -0.03506126347038795,
            0.46355511248800796,
            -0.14237072677067336,
            0.14183589114214268,
            0.1203602533532807,
            0.015015883907457494,
            0.14658484254021656,
            -0.37889999340494757,
            -0.37339075064412625,
            -0.44955124381426415,
            -1.1212840111576403,
            0.2948627310697801,
            0.585177531688569,
            0.508776629305669,
            0.09638230694936033,
            0.04598916527935107,
            -0.5358655465095246,
            0.1310199916901247,
            -0.7071081425017292,
            -0.2337257059605164,
            -1.2694015741357805,
            0.0526196893554955,
            -0.679929521219907,
            0.25167700288475425,
            -0.3346802538584358,
            0.05882878382662231,
            0.11958908274613932,
            0.3139561339813704,
            0.2777873218854446,
            0.08808718894542224,
            0.3736465405009385,
            -0.10998637923588628,
            -0.5957484343932506,
            0.4901885383855761,
            -1.3051782300519115,
            0.36994536630017527,
            -0.19613160375685745,
            0.4525179943686597,
            -0.118079217173715,
            0.1589783204632213,
            -0.6849184962754873,
            -1.194544476373302,
            -0.5509898216058299,
            -0.9312105673494171,
            -0.6697747977414129,
            -0.4434989887050274,
            0.05487279537062342,
            -0.2704224976958045,
            -0.43641619509934154,
            0.6041812386159254,
            0.049697666684606755,
            0.10341322729254641,
            0.392873634609506,
            -0.3556659825318295,
            -1.1979239548265244,
            -0.06141830728411308,
            0.14261827731451066,
            -0.18597906296211694,
            0.4970636048055141,
            0.4565935754429128,
            0.6699582717978566,
            0.23098916043063766,
            -0.596446945627959,
            -0.9787274411154337,
            0.1140651395751328,
            -0.2195861413371713,
            -0.1571741477707837,
            -0.7760812046058178,
            0.5204112168681315,
            -0.06302914010363543,
            -0.3381106585192472,
            0.09322859542018963,
            -0.9921643681989463,
            0.43250635681271027,
            -0.7986857524674023,
            -0.15810944084888268,
            1.2905752301782047,
            0.3887845776313225,
            -0.05940210217275872,
            0.27111901674256617,
            -0.20176614744295987,
            -1.32223800408672,
            -0.5472330497519329
          ],
          [
            -0.4222023060977687,
            0.09548612348371455,
            0.6934642312209799,
            -0.8028575015760387,
            0.9475499595360591,
            0.701305368048233,
            -0.5421577850746542,
            -0.031377715911120124,
            0.14978352045440574,
            0.13245508968250747,
            -0.6654658418459874,
            -0.22210968922429528,
            0.4059543944727464,
            -0.7351875301261422,
            -0.692113449977706,
            0.6164305456465016,
            0.16977253480309293,
            -0.12489164683830611,
            -0.12650386003018957,
            0.24053884757086055,
            -0.2181850725851582,
            0.5811563622679825,
            0.36783783893369215,
            0.727947749132386,
            -0.0172162758902323,
            0.04743667134478034,
            0.9305950383633713,
            -0.3184475691854491,
            0.5734376617328513,
            0.6546372212119883,
            -0.1483356335973671,
            0.2761946079546013,
            -0.2605807847858255,
            -0.49339924581436206,
            0.2900964546888945,
            0.1397622903874765,
            -0.453861892830292,
            -0.603353783705473,
            -0.40612823349569277,
            -0.06152226838453861,
            0.3440303715835123,
            -0.29958020406105834,
            -0.3230331434104924,
            -0.11497265996831445,
            1.3308364601268012,
            0.21731089094641706,
            0.0018711610769935124,
            0.3801542457740789,
            -0.4018456611939277,
            -0.28088700776460207,
            -0.7368820136867873,
            0.2622341955741064,
            0.49520022318086465,
            -0.5671634734693536,
            0.5370151934917278,
            -0.8611551192279624,
            0.9795921111566218,
            0.539188983741935,
            0.6684468547127023,
            -0.04997988890389528,
            -0.4963556365860784,
            -0.15034619657855738,
            0.32122334082296233,
            0.3245270727526834,
            -0.42015152872619776,
            0.3238026365148379,
            0.25106927560611847,
            0.37752608350826644,
            -0.23566689275714492,
            0.39400143205059174,
            -0.46867092054845777,
            -0.015199299897710227,
            -0.4968618558769919,
            -0.30776180870854153,
            0.11713519375533332,
            0.8784797279607012,
            0.10547772707943862,
            -0.5444689562812753,
            -0.5356499082700507,
            -0.21139017290368983,
            0.42502726741409824,
            -0.01836332241620253,
            0.11154617756402488,
            -0.06045012590953446,
            -0.07240820286463753,
            -0.015621444042093549,
            -0.3980901093634401,
            0.038543550409913356,
            -0.4733056568965195,
            0.3948237101273303,
            -0.43822794941092896,
            0.1656725867996104,
            -0.5586048098153551,
            0.2691280856102889,
            0.2717609232625658,
            -0.6035569052194864,
            0.5684309103401227,
            -0.3111310852402365,
            -0.47666525046026137,
            -0.044461262314731555,
            0.32451778020647126,
            0.7020069499778191,
            -0.025886071018697134,
            0.013894330778912318,
            -0.36986691313907827,
            0.003752871879184357,
            -0.24716707393234222,
            -0.6695676189034908,
            0.27886107978031877,
            -0.46959967737777386,
            -0.432345573866813,
            -0.07864823894363848,
            -0.33340013567127774,
            -0.16857160372550717,
            0.4137322075218262,
            -0.012083715225525253,
            -0.047322282302042155,
            -0.6885961302426841,
            0.5944272379045425,
            -0.33533321221203155,
            -0.41980397846410744,
            0.5565883366950259,
            0.6321399560027501,
            -0.29992231294232946,
            0.1993441881283995,
            -0.04694748203776574,
            -0.39768297289346827,
            -0.03653136125215082
          ],
          [
            0.20915931936988402,
            -0.15540208613130874,
            0.10410019457557841,
            -0.7479244981392758,
            0.11839074538181882,
            0.1907762748998529,
            -0.875120854190897,
            -0.7272574452348379,
            0.6578564992600461,
            -1.246349795170618,
            0.09903834037129738,
            0.1641596951032511,
            -0.4896515151568457,
            0.09229541779405305,
            -0.2667198105371588,
            0.11114294445398115,
            -1.71701152470374,
            0.39764924086923076,
            -0.6583324645313311,
            0.09787685974394991,
            -0.14458350703642378,
            -0.15932124459416022,
            0.16741105033990458,
            0.17864544910571248,
            0.5069414872501882,
            -0.5244709292057542,
            0.2521944502110325,
            0.21621592423087566,
            -0.4201505285387685,
            0.6606117900685031,
            -0.616660626828394,
            0.4593760553047478,
            -0.40395618875662365,
            -0.27186469677261116,
            -0.02321389827227915,
            0.15458765821484746,
            0.47299457000990897,
            -0.2861359612784327,
            -0.1446537143681787,
            0.6902947557982364,
            -0.3380396045978561,
            -0.711863077349666,
            -0.32911898708897835,
            0.2833237687500226,
            0.0774231942116866,
            -0.19041545680068453,
            -0.6496056744429016,
            -0.33923660378983395,
            -0.7187423483302114,
            -0.48900482294021985,
            -0.29229273993040383,
            0.6384812335263982,
            1.2808023979094776,
            0.18150394292236383,
            -0.36138635951297304,
            -0.005452427179803257,
            0.052686278010166246,
            0.25114704719510605,
            0.40858759954849155,
            0.6422931043968161,
            -0.35694299492250575,
            -0.1344523468285802,
            -0.1680444776603213,
            0.9536819905515169,
            0.339785823245591,
            0.23766495889948097,
            -0.7199186529415057,
            -0.14058052567485577,
            0.48103580910314625,
            0.18387485126650657,
            1.1958829390086958,
            -0.25903591926432556,
            -0.40393004170399066,
            -0.004074861166649827,
            0.2772969009237108,
            -0.0012119183221198531,
            0.6252450989363106,
            -0.23893981655489785,
            0.481849051945811,
            0.35282991664404784,
            0.3479613724999321,
            0.6645192785618952,
            0.704509467205348,
            -0.5232622025162624,
            1.177634969231429,
            1.6437820551181375,
            -0.426354118200353,
            0.0008702421249534406,
            -0.2449728297427393,
            -0.00251723066391798,
            -0.0732278327492165,
            -0.35101955703168747,
            0.281737316119039,
            -0.7130093897198667,
            0.3429601015303829,
            -0.06829351883240435,
            0.1841714814669999,
            0.6012049822194313,
            -0.4300638457291747,
            0.06516471996841623,
            0.698876300116706,
            -0.44774331102428616,
            -0.9383779050548231,
            0.055158585738190435,
            0.3958385059627794,
            0.32276557424342256,
            -0.06905542854572604,
            0.5277648021060393,
            -0.4847302387676962,
            0.26856556501420675,
            0.4674815786939871,
            -0.1386648732948754,
            0.2709078890983838,
            -0.8433907516386135,
            0.1657393243548491,
            0.20493586579729808,
            0.4720645081035142,
            -0.10141199502276549,
            0.2212594483701168,
            0.061389496804514304,
            0.716253935882308,
            -0.14719238409320465,
            -0.32145664353902376,
            -0.13571668851128585,
            0.4837975408528536,
            0.32594325239952965,
            0.239870960519412,
            0.7429430518564406
          ],
          [
            -0.5211703909324159,
            0.27878908582294964,
            0.5339374637669008,
            0.947556241950421,
            0.6735451447711138,
            -0.21889991134681444,
            1.4164486925093849,
            1.117718741659401,
            -0.47183089299772235,
            2.5008001144554926,
            -0.3746221265279482,
            -0.16124373255901162,
            0.44000735191234286,
            0.06932385096376648,
            0.24500932639750178,
            0.6259772869406951,
            2.363786453808594,
            -0.28548340786748705,
            0.7070191056329848,
            0.0676033792983665,
            -0.37302009965335625,
            0.7296872040113446,
            -0.09057247114668089,
            0.2074788150958932,
            -1.0613411526190246,
            0.3685089533502439,
            0.5742876309625746,
            -0.10144740345818382,
            1.011520808166089,
            -1.4762367245823753,
            0.4614563630183848,
            -1.2424864290254178,
            0.6001043922248657,
            -0.09593294967622541,
            0.4955444459885296,
            -0.19413534127374055,
            -1.450445504937605,
            1.1381717753729423,
            0.14804223172923703,
            -0.6304160605906087,
            0.6074857299918703,
            1.484052909825031,
            -0.04136641159707548,
            -0.4118046584118701,
            0.8803614870867663,
            0.17162616403765707,
            1.2210741647714205,
            0.3780713217766915,
            1.185815165869248,
            0.2781151024328014,
            0.2059051370485825,
            -0.7614704405731507,
            -2.6628740954653436,
            -0.2378867973595268,
            -0.1410845253316051,
            0.05129859721441606,
            0.5909763917151266,
            0.35030001398903343,
            -0.5772335373882728,
            -1.3120670275236208,
            0.9982736494716881,
            -0.3226579720587623,
            0.6276152654425886,
            -1.5988100933860951,
            -0.7875881450339879,
            -1.1490302127033012,
            0.518045527935506,
            -0.1737116093492719,
            -0.8979018567772532,
            -0.29421001778011396,
            -1.6260594722530497,
            0.9261741568553289,
            0.7395855961662403,
            -0.2526976690504568,
            -0.22670886036510826,
            0.242016325273876,
            -1.0682164473937144,
            0.5328473534471551,
            0.19279364672470575,
            -0.7018826923151146,
            -0.12232202524310001,
            -1.0195098228240629,
            -1.1541258185611731,
            0.5428986885175869,
            -1.661794930895986,
            -3.1374072301741927,
            0.5997303486039897,
            -0.45735097486964305,
            -0.21142275992755546,
            -0.540663416167126,
            0.11506924876171226,
            0.17914065902951556,
            -0.8242558388791414,
            1.3714094484150747,
            0.3299140453044172,
            0.5300777594134354,
            -0.2926984065655477,
            -0.38718894035315815,
            0.4381722467344344,
            -0.6027131594081424,
            -0.9767566376371304,
            0.6153288885247994,
            1.1131723105535318,
            -0.26311107814831786,
            -0.2702697150921376,
            0.05680455290864083,
            0.5169968200866939,
            -1.009515291976035,
            0.3158929304269059,
            -0.36979583412575967,
            -0.9939938796165123,
            -0.3717429155282156,
            -0.8087867463233099,
            1.6560338026191552,
            -0.674896309674119,
            -0.9447052977181718,
            -0.41088674369270245,
            -0.11413954153156308,
            -0.5565822293269205,
            -0.5911989749155523,
            -0.3410304245067038,
            0.29945639593318296,
            0.707147446245317,
            0.3060643865229609,
            -0.35776259192015053,
            -0.4459759788239072,
            -1.0039857473654044,
            -1.175688974231124
          ],
          [
            -0.2731508857314084,
            0.06659932616083196,
            0.1770048663276136,
            -0.44837199407650963,
            0.1913280755196196,
            0.35715199960190946,
            -0.5808042863471774,
            -0.9039193887851027,
            0.5048184558289076,
            -1.0109570425931438,
            -0.0984332761039666,
            0.20028643417025735,
            -0.6400844512247572,
            0.24931420321181388,
            -0.2546911538677262,
            0.029612282559709588,
            -1.4818242774085106,
            0.5006769594006115,
            -0.8081687956856575,
            0.3528597646880541,
            -0.2986479306012472,
            0.00960654513109911,
            0.17840776067852349,
            0.3008632032085656,
            0.7043007121909902,
            -0.41234852702462516,
            0.21372342120779614,
            0.5029510776899399,
            -0.12045734762131803,
            0.7545291971581275,
            -0.5425090779782514,
            0.1551403791511085,
            -0.7196026892366993,
            0.00707279255412691,
            0.09035813844344598,
            0.3700187439583469,
            0.8034625222718241,
            -0.16626960166670884,
            -0.19822460606193068,
            0.7699869989452586,
            -0.24859400117996674,
            -0.9730163938539255,
            -0.4471534127394435,
            0.6351838254814194,
            0.39165406910598216,
            0.2178357039254619,
            -0.5014718719953374,
            -0.47583945895767665,
            -0.7267891169319902,
            -0.3483653964807032,
            -0.3364842869112798,
            0.48686664679664265,
            1.2411627381141244,
            0.005588429617432128,
            -0.43128446072884097,
            -0.2901910174586492,
            0.18939270968727467,
            0.3461259849910929,
            0.4045682177828932,
            1.0620334691651054,
            -0.46305595469056965,
            -0.10123846864651002,
            -0.24442600362220954,
            0.6897391702701713,
            0.027128746787509057,
            0.05024999483149418,
            -0.5458875912337932,
            -0.3040115871595851,
            0.4678666206278973,
            0.20130458640304058,
            1.2186496254421701,
            -0.47532278370978326,
            -0.4279368360469053,
            0.3163484271046921,
            0.3161382658794311,
            0.08343703302967732,
            0.4767825275347578,
            -0.5212824321690305,
            0.47383354314509635,
            0.16205768602251455,
            0.5231306108270274,
            0.39036541239533135,
            0.9285605600574464,
            -0.4935187587235072,
            1.2066090771628155,
            1.636911729176246,
            -0.6494451640921213,
            -0.0064970089722579975,
            -0.4555868172521363,
            -0.13302658921843533,
            -0.2198720767219406,
            -0.09601672538948915,
            0.5227283556471176,
            -0.9549816364841252,
            0.33466680580277786,
            -0.24101051165469897,
            0.38819236236051613,
            0.5584692707614336,
            -0.24240852211833333,
            0.038061575558899385,
            1.0743916883960565,
            -0.19699524801630328,
            -0.8975081733948408,
            0.22630892796787902,
            0.8229004904936397,
            0.20009792778043164,
            0.2118652638009655,
            0.46150684136657644,
            -0.6890431101462691,
            0.5175184516379877,
            0.549924907438097,
            -0.014332289890616433,
            -0.12294847589070058,
            -0.5472305140131075,
            0.04355997382467274,
            0.284484639304128,
            0.4909111196096626,
            -0.388490155719939,
            0.5364436668429405,
            -0.05460115071636254,
            0.7425071891347226,
            0.4214494994244133,
            -0.33530879249855106,
            -0.3740035681070649,
            0.5934180891298916,
            0.2556586065401866,
            0.06735168172929498,
            0.6249322233732406
          ],
          [
            -0.2130707276049322,
            -0.1668562196851575,
            0.11030560233390581,
            -0.6452067757030429,
            -0.21156879563909978,
            0.16006198699941218,
            -0.34488830300612305,
            -0.1565522656966502,
            0.19187304277602252,
            -0.3759198619413167,
            -0.1474277673339052,
            0.2140056926793923,
            0.1278750675207434,
            -0.14173503471597193,
            -0.25426578009737205,
            -0.014750095455905434,
            -0.17104754223655141,
            -0.11635361403041466,
            -0.1551432000927922,
            0.17666189983382616,
            -0.1541275764623934,
            -0.008077463886518152,
            0.15505886729943996,
            0.20303900718417445,
            0.10277260174349913,
            -0.09347885056340949,
            0.10297501990106282,
            -0.2058776798524684,
            -0.05326791992846876,
            0.49984078684667604,
            -0.23463877741526687,
            0.26486113178152443,
            -0.22273604754536028,
            -0.028936133803479924,
            0.03763305829449274,
            -0.015143620675220272,
            -0.004850239241034696,
            -0.15524657971428016,
            0.024107914018614264,
            0.12721502279822622,
            0.1964240188997213,
            -0.49686154973828583,
            -0.09999208590992563,
            0.152098618736846,
            0.10577383198553592,
            -0.045645723318017556,
            -0.2594054791807177,
            -0.16658391347589172,
            -0.14431151456304384,
            -0.06344060895138039,
            -0.04605937897538102,
            -0.03452126399430856,
            0.6710172381026848,
            0.059212513687100905,
            0.05952588166734434,
            -0.30371746637360353,
            -0.1807187252374373,
            0.15878302711434805,
            0.30627136200966,
            -0.009992032927446503,
            -0.09485337579599375,
            0.06423086718091929,
            -0.19792061153238366,
            0.1591895155803557,
            0.13312590351500803,
            0.3555239994488089,
            -0.17170347090538643,
            0.23122189186676365,
            -0.027748554698381094,
            0.1863880330115306,
            0.15751953707334929,
            0.2641023174822182,
            -0.10383494122808902,
            0.16973963631555805,
            -0.18293314914996198,
            0.10333239261789301,
            0.20149597238454434,
            -0.24690184623664357,
            0.029038171328752416,
            0.02244028233560906,
            0.07184575563428362,
            -0.11714401997701215,
            0.12897286518356033,
            -0.2721562659701006,
            0.3553691537337749,
            0.445174864813057,
            -0.23382423764853108,
            0.10485707421336116,
            -0.27658218008074603,
            0.2649560360175414,
            -0.27415945520044516,
            -0.12705628814132194,
            0.03889198083758076,
            0.1638477203293676,
            0.14210434057208607,
            -0.1396712810855167,
            0.06428409025637029,
            -0.1027152156005729,
            -0.27398028996100965,
            0.07002741909321217,
            0.45770683002278667,
            -0.23000110228550405,
            -0.28409027435260575,
            -0.027009350631403996,
            0.04993334646833051,
            0.15766450806443177,
            -0.15961988938101032,
            -0.000450786766009251,
            -0.11852514372835654,
            -0.04413034840347482,
            0.01098971488625175,
            0.16916108376643219,
            -0.05734696398456906,
            -0.34566192655946554,
            0.09205937120481086,
            0.07415738523986361,
            -0.015256325133013497,
            -0.2556324170224052,
            0.2115300320473694,
            -0.032729143559476565,
            -0.013820340256171676,
            0.03281546026420043,
            0.012789326059074362,
            0.04870098591848979,
            0.1707786089190471,
            -0.0890295908178221,
            -0.21833889950234192,
            0.20979929547110676
          ],
          [
            0.38166862515358063,
            0.05786389573975992,
            -0.12677209163872522,
            0.0066584831900689,
            -0.16034728160407805,
            0.10476268767482622,
            -0.07547856523405563,
            -0.19224780101060437,
            0.0700321067683488,
            -0.17132262076680158,
            -0.033950840496893814,
            0.15377561185094024,
            -0.00980832554738118,
            -0.19212977113238208,
            -0.08486464219899598,
            -0.1642263997370736,
            -0.24754478178746078,
            -0.06323464717567945,
            -0.09202178688699533,
            -0.10277061681296709,
            0.08110149225055249,
            -0.162519502133894,
            0.03502722484256952,
            -0.0338264424878735,
            -0.1926904538080537,
            0.09135355020846292,
            -0.2598532930168306,
            -0.2313057354413768,
            -0.4179422962494144,
            0.17586614766756536,
            0.18147185388542025,
            0.3781528476757376,
            0.2394371939085279,
            0.44757043669164914,
            0.09825788565046292,
            -0.03919461440543032,
            -0.16044797227672208,
            0.03302549435332192,
            0.017486132711553578,
            0.08588636662508144,
            0.1434586335509116,
            -0.08275007418577593,
            0.248841665611278,
            -0.23302425703144855,
            -0.4147934266246981,
            0.13041029505441268,
            -0.3858054831902072,
            0.09487529618679087,
            -0.2061448902468239,
            -0.08495458864099242,
            0.24176010035929538,
            0.07253564979968051,
            0.5149572279342078,
            0.20982906894242662,
            0.2385029981614933,
            0.16712987140538932,
            -0.33284839960250023,
            -0.3024896246996342,
            0.03781670749631742,
            0.15975032650608215,
            -0.11416426187326571,
            0.3732935530728763,
            -0.19553003227652296,
            0.0429794807600934,
            0.008321381265870485,
            0.22740473710450354,
            0.011310747334044054,
            0.1534440487121656,
            0.01107882265469204,
            -0.2108410256596818,
            0.005874076280020576,
            0.12094892085521913,
            0.027298846713146852,
            -0.27236877801248277,
            -0.15116900695818503,
            0.08476628753330404,
            -0.04134990942378301,
            0.239896268017261,
            -0.23072638376077892,
            0.23817833189064605,
            -0.06891891007027658,
            -0.2415542939376967,
            0.11787908502759797,
            -0.06123543657539218,
            -0.05744196179964446,
            0.32747151811662617,
            0.14385872571968947,
            0.12069983915151804,
            0.13684253345514558,
            0.36293983564833193,
            0.2660368315299921,
            0.04118109402173562,
            -0.10824583678146316,
            0.21808150049005393,
            -0.0915121391200591,
            -0.012872044774089637,
            -0.06562452442756522,
            -0.03374472997165526,
            0.20988377786045675,
            0.39997502318547484,
            0.21517093516956107,
            0.22202606891320104,
            -0.02962395356650506,
            0.015519536213914303,
            -0.13424934048244622,
            -0.13311479456609845,
            -0.013243677250507402,
            -0.020117585725611155,
            -0.056871025175574706,
            0.2542237389724058,
            -0.02175269560924443,
            0.048404861937998395,
            0.37257945655960767,
            -0.10925379382743955,
            -0.2332759735999363,
            0.24481678046311284,
            0.2616355129935483,
            0.23661681742732488,
            0.05535014366545532,
            0.2994916648820979,
            -0.07332599474577109,
            -0.27783335366409273,
            -0.20993867610392528,
            0.27059603578385294,
            0.26390559435566896,
            -0.07356900376076186,
            0.20215640312236088,
            0.17054987826511883
          ],
          [
            -0.22861018237883152,
            0.09726601772181935,
            -0.03518923424617819,
            -0.505582609035714,
            -0.08336706082889153,
            0.05162112657765323,
            -0.2152261029893648,
            -0.24863292347895505,
            0.3336782965424349,
            -0.10556105046111576,
            -0.1300362465746948,
            -0.0031900783210546506,
            0.0849640156421889,
            0.025515250711067753,
            -0.030761404269564977,
            -0.131987096575728,
            -0.3623382749835566,
            0.20155227520798988,
            -0.2809664693989742,
            0.26916523201641057,
            0.008396997887759765,
            -0.14320658711008188,
            0.23082325248518054,
            0.07628414756035543,
            0.29389632051517206,
            0.007131194857143237,
            -0.012539783301629054,
            -0.14541210245580796,
            -0.13247262558531667,
            0.4539219520025926,
            -0.2559105411331594,
            0.08296407144288262,
            -0.1706740852826414,
            -0.0008408178556278904,
            0.014333877393980166,
            0.17690270100442204,
            -0.2149899316428346,
            -0.28513083617275886,
            0.2782554539363707,
            -0.0935527316087025,
            0.22476599248636642,
            -0.4424366254344688,
            -0.050047073400326055,
            0.10474581025023338,
            -0.11317355874693882,
            0.11608936605177488,
            -0.07074297892661387,
            -0.030712181609239015,
            -0.18610182058849545,
            -0.1865025682838279,
            0.07620680709871287,
            0.14194603113430942,
            0.34805785836448105,
            -0.058881321517376115,
            0.029311790549152315,
            -0.32167970580258826,
            -0.16315062351853524,
            -0.008952157088050918,
            0.05532106817463663,
            0.048876519445079876,
            -0.16957791689284826,
            0.1461439007332529,
            -0.08279140358451446,
            0.3742081944036602,
            -0.03353487118734307,
            0.1382055418231149,
            -0.1993844299285655,
            -0.04162333730412801,
            -0.122264831812824,
            0.03430403299556293,
            0.069117364924987,
            0.044814382437565824,
            -0.09135538586145535,
            -0.04342327613212027,
            0.0396884873422164,
            0.19339898474232042,
            0.248171083237152,
            -0.07056527937017211,
            -0.06528653885102922,
            0.012605448554322015,
            0.1055714980347504,
            0.10295212049043721,
            0.16338446006923887,
            0.001163403138723915,
            0.2607831597130269,
            0.6523341901019825,
            -0.19505009471745718,
            -0.07700965917707193,
            -0.20041148808001116,
            0.3587516540703273,
            -0.22653599552940804,
            0.0959785539236452,
            -0.17087467453639368,
            -0.010004146932629455,
            0.04561003080601631,
            -0.13695291248125604,
            -0.04076588964422019,
            0.08621106805297378,
            0.03317926737673039,
            0.18295002392448506,
            0.2211901693570612,
            -0.2477015273620969,
            -0.27594563195672694,
            -0.0009754344476014177,
            0.0013563445346349468,
            -0.03801848464028529,
            -0.04885083487511261,
            0.2945846614221896,
            0.05771060534843632,
            0.05848762127969174,
            0.08358571088432033,
            0.04612717608979512,
            0.10205542410133127,
            -0.3905982843478346,
            -0.10003874245188864,
            0.17199713845843978,
            0.09227342081117097,
            -0.17113788481501854,
            0.2233242550172739,
            -0.13890409049283883,
            -0.06572785148935106,
            0.1872842238067499,
            -0.021264645860769055,
            0.01469969319151041,
            0.16784269089176165,
            0.19188727548776302,
            -0.21209536530605044,
            0.16999401411728662
          ],
          [
            0.1382900273822888,
            -0.2896497555499375,
            -0.2607647936686507,
            -0.21441513136617796,
            0.1124740206740688,
            0.16871846944645283,
            -0.40736014136864573,
            -0.39507006412341855,
            -0.0753941226127978,
            -0.6063676803255942,
            0.006632624597208397,
            0.18435196526171682,
            -0.11169814826240072,
            -0.323090557472264,
            -0.09415231795995248,
            -0.029003415725485582,
            -0.320761529163079,
            -0.19814539805461787,
            0.1555692721400049,
            -0.04372264687032466,
            0.26294793406537076,
            -0.0898729344146714,
            0.10287016380692254,
            -0.17899744434749457,
            0.055412219178500415,
            0.06487478252917374,
            0.08323454200276027,
            -0.32164237554551856,
            -0.43507531709037695,
            0.30426461260911175,
            0.124697325058977,
            0.2525158197339056,
            0.12318426632429955,
            0.3211125246506927,
            -0.02504129261970317,
            -0.21231153309374465,
            -0.21688342314772344,
            -0.3440653679952112,
            0.041500196630959565,
            -0.023809143813800157,
            0.2675627296504972,
            -0.0023978156638125984,
            0.10515399138987636,
            -0.31282578746862033,
            -0.3532955751173627,
            0.02029703769718679,
            -0.4171437234100802,
            0.09619559416881107,
            -0.1673745360360311,
            0.08377846927225827,
            0.06750792578104266,
            -0.11507787161251953,
            0.7354061718521667,
            0.12412048029461001,
            0.4265285818278,
            0.005168669634861586,
            -0.2642607359077402,
            -0.06857652687705701,
            -0.055917253102252415,
            0.2010767270763758,
            -0.3376492956624612,
            0.14111911812972186,
            -0.24730982076407654,
            0.5360676046501999,
            0.2035114599327129,
            0.3763320477421257,
            0.23372119844931624,
            0.2545425206776224,
            0.09152423405106636,
            0.13784875322691417,
            0.25560007958336134,
            0.186242336892632,
            -0.1929795971231833,
            -0.10273225479481733,
            -0.030516381138852848,
            0.155314586643328,
            0.018244789160410363,
            0.05947632443672123,
            -0.235909138038464,
            0.11662670449203504,
            -0.18960592689953754,
            -0.15321020144812933,
            0.08433924714216902,
            -0.09504580418084571,
            0.2547456105809106,
            0.51950164349227,
            -0.12222951901725448,
            0.2417095971001605,
            -0.07081156717165885,
            0.5262912693043175,
            0.10386525321906835,
            0.24894255174181368,
            -0.12265786294798249,
            0.18189538577163425,
            -0.29876950215383813,
            0.0037266684870120295,
            0.04435748645542454,
            -0.14319060792249264,
            -0.05612321587717993,
            0.209018300870497,
            -0.010189357292399955,
            -0.0058415112389993955,
            0.16959449662437553,
            -0.11319282949404647,
            -0.0410228878882957,
            -0.20081247803831465,
            -0.28972411254710434,
            0.2884051872160352,
            0.1243709531116065,
            0.05063537468052195,
            -0.21937210254868203,
            0.2097281590772373,
            0.3641477908196591,
            -0.22598603401545056,
            0.005677257544597402,
            0.31290093318105805,
            -0.10634181211520376,
            -0.050869588579107033,
            0.1425365239858381,
            0.04022794465147206,
            0.1413609478806983,
            -0.010157685228410986,
            -0.057428232214783215,
            0.07017793764382224,
            0.06528811726470733,
            0.18637006654581648,
            0.40304540387972465,
            0.29435051026591014
          ],
          [
            0.070311474253888,
            -0.00032798206303119614,
            -0.201923196631932,
            -0.38944177037451594,
            -0.4214258579760323,
            0.03893973145403379,
            -0.06367965043941921,
            -0.1618590625379162,
            0.1554375037642773,
            -0.3441281060470633,
            0.11070925879364808,
            0.18022693806952367,
            -0.2659723896936879,
            0.010739813131777187,
            -0.17269352293357537,
            -0.3000164023371604,
            -0.49011787050224065,
            -0.1357097131782389,
            -0.23101660022971088,
            0.1465689952900704,
            0.0739657584539823,
            -0.33705140022857305,
            0.13862260462867962,
            0.2255889903508067,
            0.23557093803681975,
            -0.07677607910358177,
            0.06653101192925805,
            -0.10288742538947132,
            0.019425133163648817,
            0.35646681757306603,
            -0.08872090493251389,
            0.21791323422285983,
            -0.27282730323762094,
            0.15291079462466642,
            -0.12398862913706667,
            0.0848497550618664,
            -0.07918766911076904,
            -0.18363648995132067,
            0.11846849263708266,
            0.0565470036206035,
            0.11153162310271841,
            -0.1420597940516933,
            0.14443225310338895,
            0.039732045305232104,
            -0.0678777685433254,
            -0.0778578049511319,
            -0.0717217948480148,
            -0.2576404920031763,
            -0.07001465790645857,
            -0.17404668809758242,
            0.1254353593412152,
            -0.09140767364261765,
            0.5183069223338891,
            0.13543832779643597,
            0.05023481815327734,
            -0.2128017939739502,
            -0.17231151354928123,
            -0.2542506296272171,
            0.06704498269342384,
            0.09146739481925481,
            -0.14764624080964425,
            -0.10606451819063654,
            0.039415720045845815,
            0.08456463453305922,
            -0.019180467065533512,
            0.0918132431176889,
            -0.18694781793448245,
            0.09525718303951795,
            -0.16961761710654782,
            0.14536160981295848,
            0.12873782096684097,
            0.19283148056552812,
            -0.23166078031123088,
            -0.15288937112372766,
            -0.2324242686809852,
            -0.2551389860518169,
            0.2802538993690806,
            -0.05787268875723867,
            0.06697034678320482,
            -0.020441180576487628,
            -0.11528024117354797,
            -0.2529373530487214,
            0.05380813549606824,
            -0.0019228945933849795,
            0.10626840465791206,
            0.37274314981812134,
            -0.20681741346615093,
            -0.03401093796931873,
            0.10423262288042547,
            0.17312637351365562,
            -0.11049372975498341,
            -0.1949561813954673,
            -0.008577051472900644,
            0.23898917506396844,
            -0.12319912396480917,
            -0.2473867128484005,
            0.23000371978231285,
            0.1671387297926278,
            -0.0722120232837978,
            0.16739849065905646,
            0.17627361873887207,
            -0.06268016744710994,
            -0.26160506619916485,
            0.16026341995366097,
            0.11827766546619403,
            -0.13544033355417323,
            0.03321471163693645,
            0.09595995035893468,
            -0.1928220663020566,
            -0.007675985258922849,
            -0.1729217332407597,
            0.13992362722140697,
            -0.022800224019243767,
            -0.0960283012983026,
            0.16118241632743371,
            -0.0352073263036482,
            0.20649227341266585,
            0.11587937675952982,
            -0.11298863005548726,
            0.00588765189615932,
            0.16856105228012408,
            -0.15492081302886382,
            -0.20714909926100447,
            0.041794587155138854,
            0.14852271486922727,
            0.03649197581936782,
            -0.08685158793337082,
            0.22125675249369237
          ],
          [
            0.22937588716198826,
            -0.03324718110418784,
            0.04781089391055259,
            -0.38000705698872517,
            -0.13226237329498908,
            0.3805023875081113,
            -0.25609066850783113,
            -0.17953452995846583,
            0.19508005178832488,
            -0.6305706339471455,
            0.006812896085554099,
            -0.05993455009168756,
            -0.12747122871426697,
            -0.3026295182636295,
            -0.08352544558219331,
            -0.04015338569900495,
            -0.02183160276144508,
            -0.16292516799636708,
            -0.15680951100344145,
            0.08062132486497912,
            0.32306443240823174,
            -0.19111801032930384,
            0.12920619794366647,
            0.25310909329757986,
            -0.0928526073990135,
            0.08914800773307127,
            0.020116589685737273,
            -0.21914709048370082,
            -0.40559095711441284,
            0.49458939438390315,
            0.2291481917870157,
            0.513077100750528,
            0.044382025035981786,
            0.3538897855660653,
            -0.05638147212760441,
            -0.17403423641980717,
            -0.15692104383951425,
            -0.46509020502791965,
            -0.036378949113542204,
            0.04153635521235101,
            0.05428458140180707,
            -0.3483455026680271,
            -0.13220869467269994,
            -0.22730961227376723,
            -0.08430344675640603,
            -0.08496414476723572,
            -0.3264649234628631,
            0.11999236578732804,
            -0.4857011540508579,
            0.11803604463544105,
            0.002145867996983625,
            -0.09053199500801265,
            0.8123194767349033,
            0.09870454955859709,
            0.2848784913158062,
            -0.2716155640915386,
            -0.005560776248065016,
            -0.01625035105106476,
            0.09011459132481128,
            0.15607085487779532,
            -0.39573719052704076,
            0.16933393278856992,
            -0.2819032868040222,
            0.4313744800244819,
            0.04863240218223844,
            0.2764857738794025,
            0.32962059850328057,
            0.5350045830073101,
            -0.020193583928150072,
            0.17067586341338073,
            0.17611918229910534,
            0.2721257947348336,
            -0.196728986512856,
            -0.21873285474013643,
            0.09466757627663507,
            0.31873534748982413,
            0.00013032026768906196,
            0.10216106623775953,
            -0.13943365161891275,
            0.21456151712662283,
            0.05509732017785103,
            -0.060969898023098955,
            0.10811593932579198,
            0.027029217150876854,
            0.34238763536113576,
            0.47441710039270174,
            -0.23071251314669164,
            0.4956793487362638,
            -0.04053095345229756,
            0.6250234541471752,
            0.16258841806201754,
            0.2908501248224319,
            -0.13120229545351883,
            0.15251041441666124,
            -0.18669771873387217,
            -0.2099368050194988,
            0.0071473247646705864,
            -0.1861007594416024,
            0.04700662646309987,
            0.4120376374681479,
            0.4047218931858169,
            0.09655087072273151,
            -0.08439361312412813,
            -0.001528140177968349,
            -0.02031900242711332,
            -0.01863249543911557,
            -0.28837314756442517,
            0.17180424710527592,
            0.2989254372904675,
            -0.13381368368127883,
            -0.18399363100051147,
            0.3502625919589825,
            0.1590103084379005,
            -0.4454143086506474,
            0.13437225782212653,
            0.395061882912091,
            -0.0632386116614174,
            0.08890826841340722,
            0.3465724650067583,
            0.11393730359207399,
            0.02782039605661124,
            0.1381566438678037,
            0.2021594880179644,
            0.1634073226065762,
            -0.009888883876572054,
            0.2677059153219331,
            0.4285638896697976,
            0.09703988307133794
          ],
          [
            -0.016784011849753394,
            -0.12613629248139238,
            -0.04269451490396747,
            -0.27209885082309415,
            -0.37642923816222956,
            0.12765996950866812,
            -0.18882209256375637,
            -0.05231759748624488,
            0.131879070182206,
            -0.40041739156034667,
            0.03697118860537045,
            0.012684918409084455,
            -0.2623120095702073,
            -0.0748655470370653,
            -0.15491888358885644,
            -0.3311517577934072,
            -0.24881618587607388,
            -0.17812922602723671,
            0.09039875215191283,
            -0.03081515971812667,
            0.06939727969848329,
            -0.26638509899339996,
            0.026264192498321667,
            0.037085520020818205,
            0.05936125709653561,
            -0.11894753472053766,
            -0.32999598459895463,
            0.061452533520061275,
            -0.30043756453466713,
            0.07137452038057346,
            -0.22952624185985684,
            0.022210755995691094,
            0.1478981551915955,
            0.10171799865540784,
            -0.02170858226982438,
            0.014882568061268973,
            -0.13123621821513723,
            -0.12478665327336681,
            0.2820291010654338,
            -0.045342939534805476,
            0.1658323793322426,
            -0.32831063698445506,
            0.07950431397037155,
            0.20643236811240864,
            -0.054625061356396366,
            -0.16336894464589252,
            -0.11247299798432409,
            -0.12262157967536427,
            -0.11215636665305512,
            -0.01076417177571573,
            0.318410964584464,
            -0.2195558991540036,
            0.4116273170951892,
            -0.00594840173997083,
            -0.05899071009737879,
            -0.0626903510138259,
            -0.1646984929505725,
            -0.19645727188820666,
            0.15394893259956333,
            0.05413037300772868,
            -0.18971696164007984,
            -0.07182572107525942,
            -0.228684553177511,
            0.0730230905565023,
            0.09964576509449853,
            0.06055266072871595,
            -0.0942658667031219,
            -0.19151880486583836,
            0.10749737181944122,
            -0.15429599105844313,
            0.2444126713510724,
            -0.01299716399930361,
            -0.20896123881897088,
            -0.1849623848959309,
            -0.0729739608209722,
            -0.1973206776129043,
            0.22562987070463125,
            0.07293276702117572,
            0.026719423359237417,
            0.3191695389609987,
            0.1082484152707643,
            -0.041878842906495045,
            -0.04818136430658638,
            -0.20053551052324203,
            0.4025974938240719,
            0.339150938176992,
            -0.19632471471931442,
            0.1635493045232814,
            0.18356685835852868,
            0.21853218450212636,
            -0.1480995124078047,
            0.05536688714727446,
            -0.18881064255890131,
            0.20657615127277776,
            -0.15359344630976243,
            -0.17157304536304901,
            -0.10816722964006577,
            0.1066793641081384,
            0.18528733711066442,
            0.16989467126943908,
            -0.042583751933304485,
            -0.18924301724158246,
            -0.28328716128494974,
            -0.05162144889473166,
            -0.08991032514299814,
            0.09314104245071278,
            0.014478959275963533,
            0.3299425487108145,
            -0.03530392422044506,
            0.010044995719771436,
            -0.1091625313473166,
            0.1498398023974717,
            0.10014730146749737,
            -0.09187522183384471,
            0.03139682703569948,
            0.2541938005559497,
            0.07333702675204687,
            0.20960189016909317,
            0.08659793974565358,
            -0.03753114676488448,
            0.1403314885094674,
            -0.07186566232135029,
            -0.3057172937214063,
            -0.06113837602909997,
            0.07460264016797509,
            -0.14438405124726134,
            -0.02064366639566958,
            0.01399241728736012
          ],
          [
            0.26308051462614795,
            -0.1541064251609712,
            0.032740478818625435,
            -0.6183761392141336,
            0.15486382946859426,
            0.5816406019503882,
            -0.5758911159405489,
            -0.09255874706266629,
            0.28716080173135755,
            -0.7240972969115729,
            0.003322054429143698,
            -0.049346964836084806,
            0.30361324142655677,
            -0.5057398130686439,
            -0.4728781401565619,
            -0.21180145543871987,
            0.04348984364370995,
            -0.010891243305153073,
            -0.07282131635346818,
            -0.031854429544983465,
            0.23574662078386152,
            -0.08913494147561518,
            0.24374412034013532,
            0.09523727808157435,
            0.0977790494670005,
            -0.05807798293477993,
            0.3173108587177548,
            -0.37493693773004166,
            -0.2950283923835018,
            0.49185928006487767,
            0.03696867682363427,
            0.7548932609925625,
            -0.08077056537121863,
            0.07682332364802506,
            0.15244690050382934,
            -0.07826396326960902,
            0.11890778933745413,
            -0.4585616601907785,
            -0.06618537996438423,
            0.047734731497172424,
            -0.016698222664447347,
            -0.45581882731868895,
            -0.1793642295073826,
            -0.19100646849805022,
            0.1111754532642014,
            -0.12406331402000771,
            -0.15483191289624276,
            0.3213448784549549,
            -0.4500337655395712,
            0.09307855744198469,
            -0.11262264657141334,
            0.0968857617824275,
            0.9131459707982876,
            -0.20422317260237186,
            0.6648158732623025,
            -0.4927098503170955,
            0.07969445937222377,
            -0.12181221056447453,
            0.4243528116643764,
            0.33475629188220557,
            -0.6083214499772708,
            0.1024850503457008,
            -0.10095894077859392,
            0.6985600689786401,
            0.04106920975460712,
            0.6399875005945974,
            0.13683888509558428,
            0.6302103139547964,
            0.2517984882101865,
            0.16180592765019813,
            -0.05783514734689131,
            0.11334170634308277,
            -0.4614208775873316,
            0.07500509958769408,
            -0.07777672167640445,
            0.3696681819947361,
            0.23182596087802512,
            -0.05374070313214613,
            -0.44580744851134074,
            0.16812339347824973,
            -0.10498052088242368,
            -0.012735899111794697,
            0.3760468195282518,
            -0.10474796621648397,
            0.35440704148373564,
            0.7080104056175576,
            -0.3712900705063145,
            0.5921810075369168,
            -0.048032290499394274,
            0.7686710825230937,
            -0.09605475331653533,
            0.06391224373149143,
            -0.05639743573370048,
            0.03393099585304814,
            -0.04143706119383873,
            -0.1926438210720686,
            0.16313065146095013,
            -0.30753469801232886,
            -0.3288047105574594,
            0.19194000381917167,
            0.44263925068073945,
            0.27157305102087537,
            -0.11005913184696431,
            0.06204273224739964,
            -0.05729257495282433,
            -0.02365595954133735,
            -0.5065179793598305,
            0.10274662470227365,
            0.15163638926210243,
            0.012173225909522904,
            -0.12188365783511439,
            0.26160845028571394,
            0.33816450832160966,
            -0.5943866112583975,
            0.3605059160559917,
            0.6249299172085366,
            -0.18240733619768779,
            -0.2461730384431193,
            0.4112415720607226,
            0.09339436132767956,
            -0.055319510142462947,
            0.02270343001015218,
            0.3783770579663032,
            -0.025321023459305633,
            0.23368880257712904,
            0.29430956586158236,
            0.3720359184286255,
            0.32476280739608804
          ],
          [
            0.08286774696489055,
            0.03280837687764437,
            -0.2763517345073961,
            -0.28447413943851463,
            -0.4784005699616262,
            0.003943387400050934,
            0.06086257700484112,
            -0.20998891743956277,
            0.07983167969481844,
            -0.31222673097339815,
            0.24490441321160183,
            0.16265555710019577,
            -0.17678816071685347,
            -0.0018254266417776436,
            0.014168437769723569,
            -0.14199405927279773,
            -0.5776428542394635,
            -0.0833325857557152,
            0.09420561969396204,
            -0.12187446707438615,
            0.15920905876622754,
            -0.2002336926110413,
            0.0796283568379577,
            -0.24394907576912045,
            0.09204109416344511,
            -0.2785020149846375,
            -0.21913438668482912,
            -0.036880027332343586,
            -0.2596603681071352,
            0.3141260731624583,
            -0.1861558262218142,
            0.26610411537264866,
            0.14096904432405818,
            0.036277189488657526,
            -0.13645882193132827,
            -0.18084965840891745,
            -0.13258163806619944,
            -0.33245025942295586,
            0.30454770002253784,
            0.13364385169423415,
            0.18697772801520157,
            -0.36174798157333815,
            0.12418136163440155,
            0.08159286704504172,
            -0.11721928575016165,
            -0.06670213522831972,
            -0.2562256206973901,
            -0.05928563561614103,
            -0.0008058163885126717,
            -0.21826045170270053,
            0.30067896795528104,
            -0.0684388208849187,
            0.37842264305664264,
            0.13674334665923993,
            0.05012505924833222,
            0.05856515885658471,
            -0.44661461076565634,
            -0.2063780544043022,
            0.08768368299959338,
            0.023789364451294454,
            -0.22606580219333672,
            -0.08787053894488371,
            -0.02515882273698138,
            0.07823376615862741,
            0.07570690390535652,
            0.3251338369182165,
            -0.10929646762222817,
            -0.16971481686354847,
            -0.0537905475051674,
            -0.009822957115453943,
            0.2354840909871133,
            0.2378033347070698,
            -0.038147026742183635,
            0.07366527812533358,
            -0.1387488366442388,
            -0.21725399445506585,
            0.29729529532279864,
            0.04499509550127391,
            0.08780173715485384,
            0.35830902682545895,
            0.13470941691233468,
            -0.026540269549257083,
            -0.061599658382413894,
            -0.15038665195045184,
            0.22058962027813278,
            0.7396793960463032,
            0.06321113683271816,
            0.10517769033318955,
            0.3522726667643876,
            0.14973460615770393,
            0.1066105422122414,
            0.004659561526535077,
            0.09268077870277733,
            0.03622342200192298,
            -0.11605374309385166,
            -0.1463822232736751,
            0.09836708454965765,
            -0.0888101286959516,
            0.14250636290675994,
            -0.09173726634982937,
            0.019515425376261653,
            -0.15439456251098915,
            -0.03342214195992463,
            -0.24913424198599549,
            0.06943178542039821,
            -0.18396011455526481,
            -0.09356811490818842,
            0.5001781233059356,
            -0.10770491642856213,
            0.17698887690082987,
            0.09089508517205246,
            -0.06137258255558554,
            0.27991847388363383,
            -0.4089682553146939,
            0.12535768596972027,
            0.32632141374340634,
            0.04297421763243967,
            0.08105941257512154,
            -0.0942705693648673,
            0.12341109818175718,
            0.2014713190114043,
            -0.2511909902018805,
            -0.24123549721814996,
            0.0008640777926851007,
            0.00432742507149257,
            0.12438100087690342,
            0.20954105963412714,
            0.2014481286874045
          ],
          [
            0.14155278156621828,
            0.009466976707940526,
            0.30124784730409154,
            -0.8850473742302991,
            0.13142212965848415,
            0.5170151436799751,
            -0.9050193220275232,
            -0.45920705260366745,
            0.12739332833771136,
            -0.5742506518798693,
            -0.09961083971812962,
            0.16080123742414504,
            0.19065281717755392,
            -0.4612373577615564,
            -0.4196554463003079,
            -0.1033166784914429,
            -0.18321065648247314,
            -0.07849772895760289,
            -0.26859899391781505,
            0.2507431553713998,
            0.07777401289508101,
            0.03252075535248496,
            0.2358036531488397,
            0.5716054296997629,
            0.13585367773273416,
            -0.0399095147977201,
            0.34376457061951043,
            -0.5187068819526385,
            -0.31339887076896517,
            0.8883940408002728,
            0.09644445172121958,
            0.8952399682456734,
            -0.47386516312901017,
            0.17052343697727915,
            0.285194819241768,
            0.017310022449435476,
            0.20140698804409948,
            -0.637273396795269,
            0.027944489488467696,
            -0.05139447678307424,
            0.15161663313638804,
            -0.49771392081576726,
            -0.26957517413170773,
            -0.05012991559687095,
            0.26778789356190563,
            0.03739349298678959,
            -0.4131885120123817,
            0.6303745058490705,
            -0.6129405232393766,
            -0.19919926071165267,
            -0.48618264946928347,
            0.21936985129123565,
            1.3035206215470503,
            -0.24760214460591592,
            0.895456149777399,
            -0.4693086461037809,
            -0.13469182758422862,
            0.11846678326279815,
            0.815824989591079,
            0.45805196807842224,
            -0.6603157450992767,
            0.14538380745648083,
            -0.10614860620215465,
            0.6749808494752613,
            0.17469319701965963,
            0.743637863524573,
            0.5056841814561228,
            0.9408406157233182,
            -0.011845956207782818,
            0.4266130527754547,
            -0.1608794104998448,
            -0.08490789947959888,
            -0.5375221967740117,
            -0.191391505134372,
            0.033937434965224965,
            0.8714910570336711,
            0.24951466294260882,
            -0.3844605052850835,
            -0.416371479158013,
            0.09610979883373054,
            0.11456307121655143,
            -0.033000105935348904,
            0.542267818919884,
            -0.09390656387559723,
            0.31492526487598566,
            0.9449236736579544,
            -0.42445309632750583,
            0.5465865600530809,
            -0.21631546551624733,
            0.927763742925055,
            -0.18567275538713274,
            0.2996339267517063,
            0.12411092410471444,
            0.1483646110850215,
            -0.2271707902250853,
            -0.3824323619760771,
            0.4032166555254481,
            -0.3772371043351656,
            -0.12595494347413105,
            0.27020899974235857,
            0.4867629340312703,
            0.3382409607744698,
            -0.25005439206264696,
            -0.21565678760567714,
            -0.13469378982799146,
            -0.17222235753964005,
            -0.5868244526738029,
            -6.86316392638824e-05,
            0.10946960987082216,
            -0.1711498375703831,
            -0.1838385416603686,
            0.40668073929829573,
            0.2611387367413557,
            -0.5535940101912544,
            0.15863188284807372,
            0.5400969936860338,
            -0.3083171891022455,
            -0.38213812497559974,
            0.7030532257546754,
            0.016181652214707902,
            -0.2757963644573972,
            0.168008038618495,
            0.30892547777943147,
            0.21893143288270986,
            0.24395603745901434,
            0.13060379885387433,
            0.2626072830565676,
            0.41283549124214414
          ],
          [
            -0.1992822179769752,
            -0.1413055653233279,
            -0.2306832653086164,
            0.12826373399736402,
            -0.3785849050256401,
            -0.13234421598302556,
            -0.09583084723192124,
            -0.07381043219407064,
            -0.04450460320638483,
            0.18825044616395223,
            0.013536113727463155,
            0.23245985686522305,
            -0.0758044708402589,
            -0.13149443556855814,
            -0.15698794328547988,
            -0.12123413587123467,
            -0.17739998662155856,
            -0.13495153613730657,
            -0.13492887326990838,
            -0.01877221021713578,
            0.0028661853116588496,
            -0.21178706041784673,
            -0.14682560620370766,
            -0.2257503621614504,
            -0.13985919581653003,
            -0.11216121722094487,
            -0.33314074749413874,
            -0.07362378112785468,
            0.021560939574114674,
            -0.14836160231356374,
            -0.124021511302225,
            -0.16895714344611196,
            -0.12394470731210969,
            -0.07610107362734558,
            -0.1990950880673159,
            -0.22292208501983007,
            -0.39559253343595585,
            0.1136333655958974,
            0.33710294457914464,
            0.15501886615763,
            0.15770938701349355,
            -0.20169756517327952,
            0.16690174131998042,
            0.09264084875776421,
            -0.3015938074961995,
            -0.20344461322974888,
            -0.07175192795164541,
            -0.23028624009224846,
            -0.028041983861501852,
            -0.03783256757212728,
            0.29915884439043744,
            -0.14607469915756563,
            -0.008339574029312796,
            0.24599987641178309,
            -0.14968156650529577,
            0.05659035180434837,
            -0.3653553928061704,
            -0.06658603976531656,
            -0.17054640386901582,
            -0.05590450625729953,
            0.13518550049381664,
            0.13214696017170668,
            0.07652892397753218,
            0.06659699794629248,
            0.19018439768725712,
            -0.037281160351161975,
            -0.1860246366351902,
            -0.25485735004435583,
            -0.1548188187167711,
            -0.11520032661400074,
            0.22492426360252324,
            0.31672650032532335,
            -0.0134627125523592,
            0.08239483310390369,
            -0.21934551742198538,
            -0.39209796208874753,
            -0.03962188724977404,
            -0.03537412569214595,
            -0.03037033648665249,
            -0.15040699292458432,
            0.13263742309645885,
            -0.3064331173508224,
            -0.004399863934557832,
            0.10558300576120876,
            0.07253075916196412,
            0.0828880396502669,
            -0.1300802056873674,
            0.05153307684720561,
            0.1508810688529429,
            -0.09531401150618622,
            -0.04107128732637108,
            0.05842311706987517,
            -0.15558516608953826,
            0.10677607133778264,
            -0.026556096580335673,
            0.14052645025825647,
            0.04650797316880686,
            0.054985560930510345,
            0.22016230077902674,
            -0.049830898062775256,
            -0.12613383956089247,
            -0.33282209322074047,
            0.0583676828731661,
            -0.10935191434063207,
            0.20626343826371918,
            0.05037515825657929,
            -0.032608439491749755,
            0.16243676214452105,
            0.10914397367313845,
            0.3651661711773934,
            -0.315645351813219,
            -0.2768001102904512,
            -0.07030682093580055,
            -0.16898848861069116,
            -0.30392108348475144,
            -0.19206188794387768,
            0.18741859936378522,
            0.22498883731789188,
            -0.17784320962795389,
            0.032622096526419606,
            0.1545217041065513,
            -0.11830739820300597,
            -0.22511228671352126,
            0.03351624096101658,
            -0.004514054321718772,
            -0.06455639783232121,
            -0.023804858174781784,
            -0.323634981034657
          ],
          [
            0.22086619205979935,
            -0.1303184785215114,
            -0.12853161108737646,
            -0.22265368740156216,
            -0.15605521498425315,
            0.17036889320498486,
            -0.11186904863931497,
            -0.1684340864277,
            -0.09707987413545435,
            -0.19594167790188344,
            -0.14946449699434974,
            0.09363521823461585,
            -0.1787516156063763,
            -0.0915399760161617,
            -0.23506156353665517,
            -0.28719901153110267,
            0.13127578509760163,
            -0.16817163430768925,
            -0.08541928519144862,
            0.0007767311260869867,
            0.17104365244940997,
            -0.19813923503324685,
            -0.06391308298802109,
            -0.08382905470092725,
            -0.14494322676557098,
            -0.06774383633348816,
            0.01986716300671076,
            0.03363683447080935,
            -0.39679919818769593,
            0.22668064447983374,
            0.05693848208576437,
            0.2891272035023384,
            0.14345294623129243,
            0.2925310568059007,
            -0.09070485690876322,
            -0.02872095751138208,
            -0.2751222279491263,
            -0.3181995317210235,
            0.24438920310850634,
            -0.07610138401571502,
            0.023403468335013163,
            -0.05547616293519454,
            -0.12863777777695276,
            -0.09673385100945914,
            -0.1485375514890772,
            0.0339561247572009,
            -0.23493717353605006,
            0.14285209911175106,
            -0.38991164148312824,
            0.028758260417160363,
            0.25095238193457703,
            0.07132138916377158,
            0.375283117309869,
            0.008856114102163396,
            0.33055381460005384,
