{
  "labels": {
    "labels": [
      "idle",
      "walk_right",
      "walk_left",
      "walk_front",
      "walk_back",
      "jump",
      "crouch",
      "climb"
    ],
    "rows": 8
  },
  "mlp": {
    "layers": [
      {
        "activation": 1,
        "biases": [
          1.911253023779972,
          2.122898062017325,
          0.4419893858274632,
          3.7575015163978005,
          0.37259522576119514,
          6.269576480883803,
          3.6930002848494543,
          -0.7628020637003683,
          3.05991542617634,
          6.137219121984951
        ],
        "cols": 10,
        "rows": 7,
        "weights": [
          [
            -0.06880599247285037,
            -0.37343795176898514,
            0.2466681232129457,
            0.5035800898375279,
            -0.1344028516999314,
            0.04182751637282365,
            -0.11931811237518525,
            0.03983313977940775,
            -0.10365319076871819,
            -0.47286669029892225
          ],
          [
            5.988596085001152,
            2.041661787567417,
            0.5829680588049987,
            -11.578568589288135,
            -2.031376779517044,
            0.24247489548762677,
            -1.0340422201147759,
            12.241764453109298,
            2.047012057899776,
            1.5529222318862426
          ],
          [
            -1.4446925169424336,
            -2.161678577938632,
            -7.12487785516912,
            10.514800156644037,
            -7.712057288786535,
            2.33585233425022,
            1.4071872809182433,
            -6.319265370136557,
            -0.9169403171378356,
            6.515042235473547
          ],
          [
            -4.7000823453966625,
            -1.9012808798784442,
            2.1233163659734053,
            0.11116801671209786,
            -0.5811838001468653,
            -6.454092826057567,
            -2.033689088463844,
            1.103362041352259,
            -0.4959281429547356,
            -1.9410316429225842
          ],
          [
            -3.9505650071226968,
            -1.7505773310082222,
            4.154627992196429,
            -6.763332705548751,
            6.379953362465595,
            0.6669211934620749,
            -1.0491218593997687,
            -3.1567441886070786,
            -3.7388521118269127,
            -8.828026380909815
          ],
          [
            -8.475659529752917,
            0.7151575000083152,
            6.68658885783073,
            -1.9911201481310723,
            1.9531014061936744,
            4.244245798983633,
            1.2372524200051307,
            -2.980591695127952,
            -0.8645265133972556,
            3.6097159361975533
          ],
          [
            10.211491743147157,
            -2.570610290066959,
            -8.415954776279204,
            2.172130197275027,
            -2.3768150139470863,
            -8.43957413026433,
            -3.333945469460004,
            0.025635503772279935,
            -2.826718117694229,
            -3.1391490090762395
          ]
        ]
      },
      {
        "activation": 1,
        "biases": [
          -0.9780119877379367,
          -1.5094737571515793,
          0.47013579278526646,
          -0.2081299177356013,
          0.5431041636976978,
          -2.5238037413672143,
          3.800561403044789,
          -0.8318831817401996,
          2.011306467683266,
          -0.5185979768806647
        ],
        "cols": 10,
        "rows": 10,
        "weights": [
          [
            -3.2373419899168288,
            -0.35545576463195205,
            7.798074826107224,
            -0.8573855760500161,
            3.1120863962186527,
            2.5256542264386237,
            6.062473292494539,
            -5.606549897692275,
            -9.502305427153665,
            0.4172190934391714
          ],
          [
            0.3345663228400532,
            2.194402887754049,
            -0.5021305371601825,
            0.5533241656303521,
            -1.3929376712426402,
            1.1558637661417146,
            -1.0018368823302217,
            1.9115417585022385,
            -2.717687283308038,
            -0.8207259371771791
          ],
          [
            1.0606128331748708,
            6.390880563314766,
            -11.313338160043052,
            2.0262697818311466,
            -4.3485815288641145,
            -2.921002218321242,
            -2.093143839741067,
            4.678272704802882,
            0.6072726726462205,
            2.1659759426123277
          ],
          [
            5.014502088039138,
            -5.806235143764295,
            4.913198194552992,
            1.6915298038915252,
            2.4687222914870985,
            -0.3853045901508275,
            -10.612551662421122,
            -2.6205614617724238,
            14.986228048094864,
            -3.327735023655711
          ],
          [
            0.05742667209466961,
            5.373269503953049,
            -8.28194351016081,
            0.07280088967233578,
            -1.4310600917279273,
            -3.1832585520948653,
            2.624238203806498,
            0.9126959336985201,
            -1.6530842565007886,
            6.661377767286048
          ],
          [
            5.26768500567773,
            1.5342755720755852,
            0.8240976256995863,
            -1.8755893780805866,
            -7.35551395938121,
            -1.490362858272,
            -4.031954636721644,
            8.79122377740785,
            0.5656342134492085,
            -2.6792933369123277
          ],
          [
            3.2543738066909946,
            0.756883324569403,
            -0.3340127920256867,
            0.1351826990406572,
            -2.423229671127798,
            -0.3269040303410138,
            -2.113973035324289,
            3.6763332584944854,
            1.0427098073559475,
            -1.0472672470591886
          ],
          [
            -5.744604260771381,
            2.444455064013835,
            1.9764900404055388,
            2.2168496884537863,
            3.0051429849206497,
            5.183390229560006,
            3.203448454152207,
            -3.1595941019836937,
            -9.269169231897335,
            -3.087437468981172
          ],
          [
            1.5749052825827188,
            2.41538357981761,
            0.7752408177389085,
            1.2416828022653787,
            -0.3613168310342681,
            2.971901804395533,
            -2.319448448641455,
            1.2135569764038328,
            -1.669592503436483,
            -0.8536877518299709
          ],
          [
            2.46252330025038,
            -5.085533917042694,
            4.890393579830592,
            0.27555487349449853,
            -2.3071292296831856,
            -0.1110099579711597,
            -4.55527460369674,
            3.875478721852177,
            8.033895364733208,
            -8.296422555859836
          ]
        ]
      },
      {
        "activation": 1,
        "biases": [
          -3.0581884536706703,
          -2.734444918340429,
          -2.7020187849063015,
          -1.3942263198332496,
          -4.104393961405915,
          -4.2838677949737445,
          -5.862929134474418,
          -2.1142273133907232
        ],
        "cols": 8,
        "rows": 10,
        "weights": [
          [
            -5.2625071441787314,
            -0.5044404880023832,
            0.47037910879022815,
            -1.8102844491999137,
            1.382584895723657,
            -0.07523921206589493,
            -11.108436164864042,
            0.7393919377657359
          ],
          [
            2.989417066966357,
            2.7777353502349773,
            -3.236906365322097,
            -7.975649623021696,
            4.828030578736652,
            -10.308151533059442,
            2.1829740784674376,
            0.41213081870325224
          ],
          [
            -0.35016878244610405,
            -8.567663930928335,
            0.7488379965278888,
            1.1413239694437847,
            4.917027425694761,
            10.42596676402978,
            5.199781258193033,
            -9.506585414211846
          ],
          [
            -1.4664990572478087,
            -0.019927340945691447,
            -2.593814845929733,
            0.03141801638634567,
            -1.495062772543139,
            -7.714561618579417,
            -2.7643880467507893,
            -0.29951167968658776
          ],
          [
            -0.9325937617436681,
            -5.353027858078971,
            5.005630046928754,
            2.8042785206743863,
            -3.9459187434350755,
            -6.99318479158061,
            -5.954673184212466,
            -4.655832540312651
          ],
          [
            -3.6593943251791017,
            -2.8850139946816,
            -0.6173399845911848,
            1.7179957887920367,
            0.8914183376393621,
            -6.23452430011077,
            -0.9629334141445325,
            -5.68491337179734
          ],
          [
            1.8979150938383451,
            2.9673220647664245,
            -9.070498629549222,
            6.397242298772591,
            -10.384684019629796,
            3.2605491540183373,
            4.703031244463111,
            -4.92940794037205
          ],
          [
            -6.075764804304064,
            3.2803199963472918,
            -8.541000705187066,
            -4.1860895854945674,
            1.587175222843412,
            7.319666074494387,
            2.2939626049794595,
            1.8080226064513707
          ],
          [
            -4.1002639139782735,
            -7.5656856469855445,
            7.678034676339236,
            -10.220442504225284,
            -13.090398179058614,
            9.451574638306282,
            -4.08328189086658,
            4.377494558751503
          ],
          [
            7.387134129725933,
            2.8040048176568297,
            -3.676609180522948,
            -5.42133206180098,
            -2.170538964942888,
            -1.7749487392540666,
            -7.403470631450904,
            -2.569703676121323
          ]
        ]
      }
    ]
  }
}
