{
  "labels": {
    "labels": [
      "idle",
      "walk_left",
      "walk_right",
      "walk_front",
      "walk_back",
      "jump",
      "crouch",
      "climb"
    ],
    "rows": 8
  },
  "mlp": {
    "layers": [
      {
        "activation": 1,
        "biases": [
          0.22736159716282195,
          0.4798795300009225,
          -0.43614233216040577,
          0.3333890590278746,
          -0.05898422597115706,
          -0.025339512621739942,
          0.4695206340666984,
          -0.0820955902409705,
          0.23159634876732701,
          0.27215306216289337,
          0.42434143247785233,
          -0.30353485937625985,
          0.08824191486144004,
          0.06626672806709687,
          0.329600779429911,
          0.3963247305234479,
          -0.16589593810288084,
          0.5383924051539256,
          -0.10337589115387556,
          0.09176262309626348,
          -0.15618778568102704,
          1.069494971859499,
          0.04979568421099095,
          0.17553938148896742,
          -0.04536815735952173,
          0.3579252109705529,
          -0.1939217179691116,
          0.26074267030302656,
          0.0844179361853997,
          0.11243648785064,
          0.3822559891615052,
          0.30666244616501465,
          0.23764689301126732,
          0.2928262019316711,
          0.6860554943399485,
          0.5921458158463203,
          0.2878648217842027,
          -0.17703784947728105,
          0.21032810327753937,
          -0.22921206717463022,
          0.08230670399480841,
          0.37204526898726314,
          -0.08224523117662241,
          -0.04673997669452298,
          -0.07605697061550797,
          0.018508690018297153,
          -0.13461811367064283,
          -0.4233273932045379,
          -0.019494642029643974,
          0.05378886987433438,
          0.30685226197968446,
          -0.4522634419270391,
          0.25365034975199846,
          0.14507062827324577,
          -0.16878326711089614,
          0.10412211009169696,
          -0.14265673130284978,
          -0.055322184229019196,
          -0.38269146347307775,
          0.21320997467837668,
          0.11860071230709646,
          0.2156592058155503,
          -0.13883317172413753,
          0.021712300170365524,
          -0.2577131625329112,
          0.03800973255453745,
          0.15824627954834905,
          -0.6328251288543889,
          0.2606530554409461,
          -0.5386439038679729,
          0.3727806904894946,
          -0.1697956791654787,
          0.07024124888018096,
          0.16586911128239115,
          0.06939683756963357,
          0.09749760426893352,
          -0.03923585236874985,
          -0.1588808223052967,
          0.03228894490376179,
          0.12633560225261148,
          -0.08979153978201523,
          -0.043723061989815765,
          0.0006860677100735689,
          0.3769241625222925,
          0.011543648388806428,
          0.6584776078120953,
          0.06656631984977222,
          0.17365347527465405,
          0.2908228132518768,
          -0.39315661186894085,
          -0.2868195699147823,
          0.48924752736175203,
          -0.24830710916318577,
          0.44081215087922343,
          -0.06360265218693924,
          0.16415825638485973,
          0.2809525660255104,
          0.13414367995336876,
          -0.22435658055789703,
          0.15794352219580968,
          0.3265272677849927,
          -0.2366718629422329,
          -0.34310974339092193,
          0.4091881433088815,
          0.10365659590642358,
          0.4186082269119167,
          -0.06636254951174564,
          0.6178193064316402,
          -0.16730657684092595,
          0.061759707450056066,
          0.2099386561927113,
          -0.0806594767323751,
          -0.15244324400770598,
          -0.09617568368188349,
          0.23741462325908763,
          0.09197715551087751,
          -0.7967652889692892,
          0.3133956933719211,
          0.35524595644550944,
          0.23311412103875254,
          0.15114606546602646,
          -0.08785936176632221,
          -0.060785577392927524,
          -0.11763437815816136,
          -0.06741947543369618,
          0.4377925172912306,
          0.6143919449987588,
          0.5085349695361691
        ],
        "cols": 128,
        "rows": 51,
        "weights": [
          [
            -0.18262528969760425,
            0.12583460759613724,
            -0.13124324398675316,
            -0.037474921768451325,
            0.047118833349239615,
            0.06998261445502504,
            -0.14470896062041463,
            0.04289473302764289,
            0.1433679763913363,
            0.06939034642051546,
            0.053298535671575546,
            0.07696690731480799,
            0.08343715622011087,
            0.032747952360950246,
            -0.11931965921653172,
            0.14951415410794533,
            0.07749212613786365,
            0.05867364745646451,
            0.11309525741989315,
            0.13751234525769432,
            0.144440763774599,
            0.05377905502032864,
            -0.08570565454096839,
            0.022232401031261066,
            -0.016555567794829473,
            0.11805689906748298,
            0.01485698777133025,
            0.024746746460782895,
            0.09041027421131817,
            -0.14454133759177987,
            -0.10155161818124392,
            -0.08752715811879977,
            0.1260804547048016,
            0.07667636073184102,
            0.10665853312031723,
            -0.06283069856660732,
            -0.12048184554839958,
            -0.07453078596531569,
            0.08461051742055442,
            -0.17755189936425794,
            -0.06806053706001278,
            -0.14688805999266694,
            0.11534140600359936,
            0.09228765213202784,
            0.041229677609870646,
            0.17651263658672223,
            -0.03788839190575048,
            -0.03853653428313834,
            0.04178842103865327,
            0.15200614980031585,
            -0.16268932415863985,
            0.1072508011548268,
            0.18154132744576595,
            0.11655946667834548,
            -0.02117078851657405,
            0.14943593002791572,
            -0.16817618462928532,
            -0.08921456327372335,
            0.05833840139919493,
            -0.11002216856158867,
            -0.08580622835814926,
            0.1633374665360277,
            -0.17092520229889588,
            -0.0014247957433957195,
            -0.07605056809160445,
            0.017270759383671248,
            0.04031333838666711,
            -0.1562972993333665,
            0.020723793773547914,
            0.07519010321127921,
            -0.10032238263792212,
            -0.126840345767946,
            0.16470080050225733,
            0.11558725311226371,
            -0.0027099056295957842,
            0.018745842035657403,
            0.17754072449568228,
            -0.008967832031961302,
            0.01556100449159639,
            0.0642052074014126,
            0.029987759822764023,
            -0.14793849763877828,
            0.13854043316665438,
            0.04245891315319245,
            -0.15865519660282923,
            0.051220010116504164,
            -0.12116351253151442,
            0.009917695860891775,
            -0.00886725821478041,
            0.16684637526878265,
            -0.059534112336789756,
            -0.17278023048245425,
            0.09579656086478278,
            0.06431695608716913,
            0.10302670083323008,
            0.1251082411387198,
            0.18033444163959547,
            -0.1289859205344713,
            -0.15549270879591953,
            -0.04190016972440981,
            -0.13190256123271665,
            -0.04806869717817009,
            0.18043501545677634,
            0.014700539611271117,
            0.017315458857973857,
            -0.04083855720972279,
            -0.11176544805939048,
            -0.07079837986104769,
            0.0642499068757152,
            -0.126840345767946,
            -0.02594245739837774,
            0.028546201776504826,
            -0.10425593637655188,
            -0.08814177589046067,
            0.03006598390279359,
            0.08750480838164847,
            -0.12276151873783275,
            0.02861325098795874,
            -0.026378277272828203,
            -0.06742356955120056,
            0.1691483981953671,
            -0.09723811891104198,
            -0.029551939948313562,
            -0.039173501791950546,
            -0.08471109123773529,
            0.14407199311160246,
            -0.05039306984190584,
            -0.1771831287012614
          ],
          [
            -0.17115198034171192,
            0.6990258270720914,
            0.2877619764654814,
            -0.2757983689301726,
            -0.1741243374822439,
            -0.23749526930608855,
            -0.007333415679330329,
            -0.266157763668759,
            -0.15824954935413105,
            -0.05308032673869854,
            0.3109573075331263,
            0.20751418533187063,
            -0.18787417152826152,
            0.01953419338020301,
            -0.11817519632948902,
            0.4691291283687704,
            0.09831897233582566,
            -0.22450849411957902,
            0.037428616432581996,
            0.14832209286938097,
            0.2750970322515402,
            -0.3399983216667753,
            0.09633569387164766,
            -0.030046931631975537,
            0.22729917580552558,
            0.4275987726202837,
            0.4174139918078291,
            0.2584685077073108,
            0.37134258966185724,
            -0.031438412050165475,
            0.11808921347247713,
            -0.20258212218029512,
            0.3416821340807474,
            -0.08973535320541644,
            0.7637340846300966,
            -0.27108392799068404,
            -0.12141223523656068,
            -0.5787169123322747,
            -0.18237335649762584,
            -0.47096695307732345,
            -0.2995212546807391,
            -0.38057551787665256,
            -0.27097422816909605,
            0.019550250657367964,
            0.1894683396155691,
            0.3794882117394784,
            0.5611365920393947,
            -0.4872537824645761,
            0.22549305944035664,
            -0.022525086018692922,
            -0.03301872332917008,
            0.540071769174987,
            0.05287163277122573,
            0.004388432187738143,
            -0.4621911504806406,
            -0.16476070569618936,
            0.02803806106732789,
            -0.21158608194752954,
            -0.6764263841381554,
            0.3239378821803836,
            0.2701074167877763,
            -0.2076633825102728,
            -0.5403560593266886,
            0.17848545101656868,
            -0.05699941814171951,
            -0.06411381766623946,
            -0.19314117520504584,
            -0.13978586348867733,
            0.34262107375271483,
            0.05304353727617841,
            -0.3834609781170991,
            -0.35297724183761486,
            -0.12000234011777534,
            0.3189621523676949,
            -0.3574523262149292,
            -0.3010468350388546,
            0.32796500498663167,
            0.06232154693723941,
            -0.04062975478287726,
            0.08832718333517109,
            -0.14031547758423119,
            -0.1562044435442977,
            -0.09841674173611546,
            0.08159687265299928,
            -0.3292967813183623,
            -0.515811151017614,
            -0.36560130967295124,
            0.36638495464340426,
            0.13909951313045787,
            0.09227110734075199,
            0.251965403257284,
            0.6856359197908642,
            0.2959324680153649,
            -0.11871623837091709,
            0.030829982246999576,
            0.14209741459070288,
            -0.01938934872685254,
            -0.0361073346061912,
            -0.14353431899577987,
            -0.05908075072144101,
            0.6168609567248374,
            0.09762955865071737,
            0.10389221752528811,
            0.7715792977364643,
            0.20043525532052603,
            0.5931714669620285,
            0.08625329356738051,
            0.005477460863374777,
            0.27741421014078266,
            0.3500646868910346,
            -0.3832288164450327,
            0.16421016474151742,
            -0.01795382270181968,
            -0.17232782907562222,
            -0.28702169526775423,
            -0.49322037315610523,
            0.25777421739545436,
            -0.2915301546642222,
            -0.2601703531714081,
            0.2935166194332055,
            -0.2671534793762191,
            -0.18194229695257255,
            -0.1773807003916711,
            -0.2773749411098454,
            0.011446697666427415,
            -0.40331224646130215,
            -0.2584753451667396,
            0.956075970710717
          ],
          [
            -0.3142357458532563,
            0.0898926043677741,
            -0.5627704604325116,
            0.3677686938080024,
            -0.5038975621140197,
            -0.869784894645189,
            0.8459892806491149,
            -1.0903087258641482,
            0.18249027920739716,
            -0.1135050333383264,
            0.48860654154063266,
            -0.00924840285996937,
            0.27457515713229375,
            0.5228533940881458,
            0.7054858065873147,
            0.12254646617830425,
            -0.12986575257637753,
            0.5194754767705454,
            0.11921384037478237,
            0.09878393781873254,
            0.24538951204876533,
            1.0565263340396804,
            -0.346358855240129,
            -0.5466099877194356,
            -0.3203687569983102,
            0.5009235107139899,
            -0.24920368646422286,
            -0.0810706149260691,
            0.7625552619311345,
            -0.3618532532515005,
            0.20575278624320925,
            0.5270837918017396,
            -0.11224447348028851,
            0.10512461775300308,
            0.22475862717525172,
            -0.2757747391042903,
            -0.36148166532701714,
            0.11409488284670569,
            0.12382677434840086,
            -0.06394716577967877,
            -0.5484740232171829,
            -0.16070461709237213,
            -0.4615994836274372,
            -0.43889597075624665,
            0.274274291790668,
            0.44159940397028213,
            -0.168953562807764,
            -0.2430972512128049,
            -0.5874788464378337,
            -0.13045370355075536,
            -0.31422682259679746,
            -0.29650122369309895,
            0.76192157611809,
            0.24029743136202764,
            -0.030255200073912022,
            -0.914602473599297,
            -0.14745226878139153,
            -1.034971339055661,
            -0.20215779935998204,
            0.14320978549390306,
            0.14111322694976217,
            -0.8006830533914501,
            -7.750506805905976e-05,
            0.24221173911175856,
            -1.2210419937975405,
            -0.2010308064853808,
            -0.05687039340311906,
            -1.003621484164851,
            0.048112837718598915,
            -1.0361802781883096,
            0.41083197955329964,
            -0.19267588156205184,
            0.30963519121457606,
            -0.11149440197296537,
            0.2434162023459165,
            -0.29540839747364994,
            -0.2755847075027222,
            0.36022902085608693,
            -0.21059297207865305,
            0.10711917647502307,
            -0.7769513809415892,
            0.09266673115249285,
            -0.7978031621347993,
            0.7295894432847297,
            -0.4107457278111138,
            0.7683861637195442,
            0.34422908681998426,
            -0.25252844939506913,
            0.7311387544063855,
            -0.6126174551393727,
            0.157766982809586,
            0.0557944155024857,
            0.5561168606232495,
            0.8512637857509472,
            -0.6840402268617006,
            -0.20973922935830344,
            0.5545636409829399,
            0.4924979157379627,
            -0.19332740987476307,
            0.026983941434323755,
            -0.22309583478241798,
            -0.44657839578430886,
            -0.15854847061087504,
            0.009810012836226475,
            0.0148219815275315,
            0.09275892088700496,
            0.2237219679617547,
            0.4453102037564596,
            0.11682139704276734,
            -0.28729154487961084,
            -0.22047372012766048,
            -0.1351933562284349,
            -0.682577650579537,
            0.14633312917531022,
            0.3964945965990162,
            -0.5846143967022364,
            -0.3317588291559696,
            -0.07616634262569388,
            -0.2749185140368582,
            0.15887957896455845,
            0.032436138098554876,
            0.3807269243938738,
            0.08237148559931465,
            0.03616459332289699,
            0.3175228413274036,
            -0.15837432975916152,
            0.4099018191859679,
            0.24168409263123405
          ],
          [
            0.013296259503845541,
            0.6922035383574039,
            0.6177284814816969,
            -0.622188001975514,
            0.6435188861965165,
            0.14201113902222431,
            -0.6318494097144797,
            0.42009428624728445,
            -0.4231356173210379,
            -0.06702123687162077,
            0.0072712271277977775,
            0.5138014591890415,
            -0.2141043079243648,
            -0.09628090924661273,
            -0.4085961137260061,
            0.2214264321448881,
            0.24078575120134768,
            -0.6672121859575859,
            0.5698258284687937,
            -0.4481485783294125,
            0.1108122687674468,
            -1.016863064805809,
            -0.07042920688968386,
            0.42234937813134504,
            0.17911076199672415,
            0.247101069040397,
            0.6576067389704732,
            0.262967160448026,
            -0.18333793465357154,
            0.09791444780468758,
            -0.09862005207754176,
            -0.2238386039949912,
            0.37787485735802057,
            0.009619119295887624,
            1.068875902398884,
            -0.5396010898927647,
            -0.3056897029847227,
            -1.0107582677592712,
            -0.3461385663289068,
            -0.44407046611700063,
            -0.011643024920728811,
            -0.581946954093288,
            -0.023865644555135665,
            0.4961554954267531,
            0.025284059742469406,
            -0.2658645759706162,
            0.6294439842421733,
            -0.22487384377268627,
            0.7726000929772294,
            -0.23132712730028224,
            -0.23611094547524858,
            0.821658463591657,
            -0.5849347778598833,
            0.2859091353976362,
            -0.8592768867848443,
            0.5593794244919512,
            0.45236334792794297,
            0.0378413687866043,
            -0.411140585519669,
            0.546209970637305,
            0.16098052336354204,
            -0.08091666579862745,
            -0.9046735540444246,
            -0.4345577152740961,
            0.5283810710302398,
            -0.34322428403745486,
            0.00564225382205845,
            0.7657410058055124,
            -0.021383877152029118,
            0.5893028403622311,
            -0.5441478046334812,
            -0.14090785836064185,
            -0.3132895495050025,
            0.6483574303471522,
            -0.31331634043875267,
            -0.08420797139988093,
            0.43096530039412023,
            0.5027024707138374,
            0.3327866293362741,
            0.12105207115545027,
            0.30110199284885275,
            -0.3030729109572992,
            0.16640852236591605,
            -0.6054408749667409,
            -0.13206874187383352,
            -0.7251290179216503,
            -0.5781675621872086,
            0.5341471788270177,
            -0.2896037946348237,
            0.6983371842216348,
            0.46293720054627796,
            0.7691073917115718,
            0.2979528787282996,
            -0.5182361040352571,
            -0.21610602347388672,
            -0.10357776820567631,
            -0.37666392494831347,
            -0.38647836606698044,
            0.011795852439287392,
            0.08867355299716062,
            1.0052590026073913,
            0.38722625256738746,
            0.527102362703164,
            1.2318340275027175,
            0.10680478904826292,
            0.6103904317974229,
            0.3243825716478185,
            -0.6362161250409771,
            0.4156556777380527,
            0.36333406796364226,
            -0.09155714163571417,
            0.04085377992717742,
            0.4861583008760274,
            -0.15275665630887247,
            -0.6040432055995786,
            -0.2011123058907301,
            0.8201404651227117,
            -0.2995741302217654,
            -0.32751384211051304,
            0.2952661918125478,
            -0.23866005897968592,
            0.07247758674935333,
            -0.48495261419507923,
            -0.2177287114316125,
            -0.12678030354255285,
            -0.43264339123966034,
            -0.7494922298053011,
            0.9256164833903754
          ],
          [
            -0.014206221801375396,
            -0.1450736738031742,
            1.5272240948534583,
            -0.3894652581821526,
            1.289375705859159,
            1.2894565591787837,
            -1.1093059009932662,
            1.4146767749386993,
            -0.8535461518351648,
            0.7588638370321276,
            -0.5493354454258303,
            1.271892864217568,
            -0.05823442201249934,
            -0.29280957945215924,
            -1.1060305767711958,
            -1.1181405699232927,
            0.6913762741268519,
            -1.5920719199480236,
            1.274660698287374,
            -1.3933017796072893,
            -1.0925500437972833,
            -1.867935744848428,
            -1.3756763093755777,
            1.8604176976765432,
            0.8037539001375102,
            -0.8311012772921338,
            -0.3717340835943748,
            0.14360188862302808,
            -1.2827900508678585,
            0.33789324474053684,
            -0.45724695249385017,
            -0.5528709440822813,
            0.48450480624436665,
            0.6663671142721518,
            0.05077350215192225,
            -1.1309832596001903,
            -1.263118972293722,
            -0.01908910894024573,
            -0.6692821499877155,
            -0.2913805943679061,
            0.39904391648899223,
            -1.1650621103089787,
            0.3090745261441523,
            1.2394356145219207,
            -0.7678261585884922,
            -0.9883162341093498,
            -0.636990733662414,
            0.33089860626837025,
            0.4773110499458134,
            -0.5195697224725835,
            -0.8617035435626529,
            0.5091772970444028,
            -2.1822895727058698,
            0.9577188250857457,
            0.13120575112668384,
            1.6118943354377886,
            0.9185384603702564,
            0.1659854377069083,
            -0.4201476133097644,
            0.6916146926265859,
            -1.1086522763772952,
            -0.9939507515936794,
            -0.5397147138626254,
            -1.6717654649282458,
            1.910171895444118,
            -1.8277594431038002,
            0.23449513257284113,
            1.5824094375832862,
            -0.5363566674954013,
            1.6419136103136731,
            -0.9221330015223903,
            0.02963992379577467,
            0.2770467041183666,
            0.33239895383892537,
            0.4709756296093445,
            -0.5768465699064023,
            -0.4148340627721928,
            1.0387768430614364,
            0.8587079009775768,
            -0.6177793376913027,
            -0.6891375775111669,
            -0.23740420006769192,
            0.1984557162803024,
            -2.420571835770966,
            0.9262478108865625,
            -0.3084906142536574,
            -0.9110722129797174,
            -0.3421651494245487,
            -0.6852969205692183,
            1.3243778380169435,
            1.6525929465212228,
            -0.4015898333423889,
            -0.2635155631820431,
            -1.4645910508593334,
            -2.3711675908092293,
            -1.38083675765629,
            -1.1476179939498992,
            -0.8413009057960931,
            0.3950027143164653,
            -0.585049669062331,
            0.4483106410013564,
            1.0301880923421463,
            1.4815365673472982,
            -0.1862330744524488,
            -0.12428621824885479,
            0.11330458355255987,
            1.1169662315018904,
            -1.778673079597391,
            -0.4501263904119394,
            0.4308366068617048,
            0.42311770871434445,
            -0.021466519586528062,
            1.821032172841795,
            -0.2858385613168745,
            0.14946885935126694,
            0.8515127063486371,
            1.6253206025026312,
            -0.8647588522449742,
            0.059911390226164075,
            0.2186134940970079,
            -1.3381178987366804,
            0.3539439301280445,
            -0.6529206461802793,
            0.28538376672154175,
            -0.3021862095955197,
            -0.4436120749392609,
            -0.8103295755643939,
            0.16435970247154233
          ],
          [
            0.43832224910035555,
            0.6341011002632293,
            -0.6165664221032527,
            0.4179971822165685,
            -0.15339103724794936,
            0.1286981237032128,
            0.19959373562386695,
            0.010272144439543149,
            0.10195093074893495,
            0.35389655964725497,
            0.5974187457647093,
            -0.38051156921711987,
            -0.22172995507790907,
            -0.4932020844802617,
            0.13583898994880064,
            0.6394010871445572,
            -0.07344718971611446,
            0.46528389343912724,
            -0.6685326519543691,
            0.579480077001085,
            -0.06621825024471738,
            0.5166588515449183,
            0.9617514345407394,
            -0.27482408965258126,
            0.138743009159874,
            0.4170787565731512,
            0.4214916755423804,
            0.3554385237578875,
            0.19125898967512478,
            0.5643814537301658,
            0.6273474502854454,
            0.44183306455978466,
            0.13322422870342943,
            0.029553973187996595,
            0.6940077317520915,
            1.168198635973883,
            0.7629520023567034,
            -0.786324858711782,
            0.6617235133215562,
            -0.19835943060620725,
            0.5172636974413205,
            0.43008873174758605,
            0.1828655416985675,
            -0.6166921987500206,
            -0.27978701423841607,
            -0.16850106227184442,
            0.6415380370693942,
            -0.20551678472339371,
            0.23007204661010114,
            0.6196732284423071,
            0.5782303805447501,
            -0.1639677255063428,
            0.5887444235284136,
            -0.5450940229678234,
            -0.3002000082150582,
            -0.30999673753907786,
            -0.5958230577892366,
            0.7882630297017817,
            -0.11398266735946637,
            0.05539936877871827,
            0.39630631379797726,
            1.0695138596996043,
            -0.5652731073114131,
            0.393864198674962,
            0.006963022846817054,
            1.0442045794321748,
            -0.16855181693246102,
            0.1160528996163761,
            0.5330519721303271,
            -0.14467122946380717,
            0.2845266663154035,
            -0.18710973268265735,
            -0.410745734005069,
            0.4179710965519159,
            -0.5231310519828505,
            0.3247362771619097,
            -0.07674719915645718,
            -0.8059452252241865,
            -0.07544740320120284,
            0.09642430608316566,
            0.7151708768773091,
            -0.20849074662421468,
            0.4261882430504282,
            0.6969932344878953,
            -0.24986683096876572,
            -0.1637784291706348,
            -0.22794154575415804,
            0.5242468795769819,
            0.07524399441094448,
            -0.47573973691925586,
            -0.8120371942385836,
            0.7160458617142945,
            -0.5972381339160469,
            0.4502774807102929,
            1.0547148556442756,
            0.5711000890354717,
            0.2500622960598983,
            -0.11540105164107586,
            -0.6918673622409501,
            0.38256120653772024,
            0.5247827899532215,
            -0.2753394231156288,
            -0.8209132902375572,
            0.7560324200049182,
            0.19485949624315438,
            0.47219758538539497,
            -0.8496592225723133,
            0.6286603405654367,
            -0.35787202026091813,
            0.25632748978903563,
            0.2132586792511995,
            -0.1038399839702224,
            -0.32996421543902255,
            -0.11038681715880311,
            -0.5412740675867913,
            -0.15023271822510964,
            -0.9440936990854709,
            0.2152145287194489,
            0.4465838723236238,
            0.0416323937335037,
            0.9062774589290078,
            -0.4264245278678223,
            0.12182786046009908,
            -0.627371812301223,
            -0.12074018361120836,
            0.6482505115565061,
            0.2541270337885324,
            0.39366786350652716
          ],
          [
            -0.26476200845419207,
            0.6610691573766089,
            -0.4606633857133805,
            -0.12084925173629447,
            -0.8621305492613298,
            -0.8040904441724775,
            0.6049964505386383,
            -0.8237713849303301,
            0.08127118228067588,
            -0.24063194278928346,
            0.736030530627388,
            -0.22307342787023454,
            -0.38224814194269296,
            -0.04771023943819913,
            0.48113963026125495,
            0.9481127095279881,
            -0.23590023250001974,
            0.27699649487882155,
            -0.48337365067017907,
            0.6851120582462986,
            0.49582789440952624,
            0.33378063234301386,
            0.15126167322045864,
            -1.056941998899348,
            -0.022103057197677294,
            1.3536894465866451,
            0.7011797935450875,
            0.35980870570896767,
            0.7872078270112978,
            -0.0014957696353036104,
            0.722341100648593,
            0.2522089634109405,
            0.526839413442959,
            -0.21792170690013862,
            0.9004729898528195,
            -0.1670232553957221,
            0.019246529838484506,
            -0.7457211587837973,
            0.37512531541806454,
            -0.6088754926798668,
            -0.31956568773828614,
            -0.001204180558693968,
            -0.2579003115127462,
            -0.9954126198046841,
            0.15053191315328102,
            0.36680536391194296,
            0.8069013883102143,
            -0.8087754844465793,
            0.1910673595414698,
            0.31385921241704423,
            -0.14446730313254755,
            0.3718004050910668,
            1.1149809002447013,
            -0.43184423747597633,
            -0.9111539273802742,
            -1.3047169522421136,
            -0.45134738457074947,
            -0.39126613742545446,
            -0.46384033348002107,
            0.20379297721507228,
            0.84636680061275,
            -0.11012183898923233,
            -0.573905576826917,
            0.6104764532675891,
            -1.1207545724033736,
            0.2764423704027398,
            -0.5215997726254149,
            -0.5838721440191449,
            0.6385058195080153,
            -0.5136749097133041,
            -0.04935654304745537,
            -0.7863504150610868,
            -0.5858606801503248,
            0.2632707328506697,
            -0.5809852039496018,
            -0.2131722651448638,
            0.3085631367711737,
            -0.21390092493927354,
            -0.1321163381359309,
            0.33902522729045625,
            0.07746582701647649,
            -0.12812858671709446,
            -0.6300256156995102,
            0.537269291116659,
            -0.8208272793506726,
            -0.45315009750035407,
            0.18326199377807442,
            0.3824470501280181,
            0.33524467147831305,
            -0.6612715097980112,
            -0.06865902445846145,
            0.8235465231832488,
            0.26185352553364644,
            0.3750523650809847,
            0.11233956774495638,
            0.07161997173524423,
            0.8458418995766642,
            0.3894737342144741,
            -0.8513549057402087,
            0.27733574560725033,
            0.6726216174825581,
            -0.4625128040178168,
            -0.03179377561640532,
            1.0015780784253825,
            0.2539251582842073,
            0.5829118691111185,
            -0.24227090901969442,
            0.502594579292852,
            0.2655432218889511,
            -0.15659833015245558,
            -0.49046555697751687,
            0.05247893242999988,
            -0.8140064182169311,
            0.07065032585958665,
            -0.25531089563734866,
            -0.6749179918343899,
            -0.09425349889851443,
            -0.16284393972754455,
            -0.46136293291137476,
            0.14378477649944119,
            0.2772780412654674,
            -0.26391075576560685,
            -0.17676972120497486,
            -0.233314813424644,
            -0.04517023991190256,
            -0.24934562599120735,
            -0.21046471836249311,
            0.8628987271576574
          ],
          [
            0.01686385258861343,
            0.833514436461265,
            0.3328921622647151,
            -0.3329142518764814,
            -0.017870284139381996,
            -0.09443223781940938,
            -0.41122017254729976,
            0.0345922754068108,
            -0.29266928978911766,
            -0.2162859589639783,
            0.3036124428085407,
            0.07587672390221033,
            -0.19884190191149453,
            -0.2255521187603905,
            -0.06963103089454514,
            0.38487214802689595,
            -0.14264729775993695,
            -0.21681475877319514,
            -0.08901037765164312,
            -0.10435728418728699,
            0.3656480479216777,
            -0.4786131927258275,
            0.2698247845054551,
            -0.22248253346521352,
            0.2463076990588879,
            0.6369301186402367,
            0.6778264575738032,
            0.18148820856295708,
            -0.027586470901749902,
            0.025984962276019617,
            0.17884236445621068,
            -0.06728368690422809,
            0.4533117549466489,
            -0.1052578369112179,
            1.0047349559047392,
            -0.26091067902734955,
            0.08825867703165201,
            -0.9052068082642825,
            0.11998907391366881,
            -0.6970544257268781,
            -0.11276068407844043,
            -0.24737219680514005,
            -0.2860311456836796,
            0.11274008407218901,
            -0.19965318802255597,
            0.13591523248126194,
            0.6943303636510867,
            -0.5020722542741152,
            0.7013547534808302,
            0.24368872769764588,
            -0.009576918583377598,
            0.3142858234313713,
            0.09229176863484094,
            -0.30234105377142456,
            -0.623326298573592,
            -0.1902763941957637,
            -0.07111064129942647,
            0.12754074378178198,
            -0.43054530070907043,
            0.37472410152840735,
            0.430720062782891,
            0.22737865735490234,
            -0.7003723632102133,
            0.015066798006867,
            0.05976877933171649,
            0.09301625133348992,
            -0.21801873255842377,
            0.48236991401132473,
            0.507653144140286,
            0.26026075700175794,
            -0.43166143847352995,
            -0.24055508801834694,
            -0.5367540181236718,
            0.40007875688494676,
            -0.48819590764703835,
            0.101246284491369,
            0.42984263957678,
            -0.138200508972968,
            0.04676520040317192,
            0.23462985463858854,
            0.28347655587463305,
            -0.17662024509765284,
            0.20794528968951578,
            -0.15545763680775226,
            -0.18828192894176296,
            -0.812188544630171,
            -0.5042422851659022,
            0.5808093846031198,
            -0.19132006269193494,
            0.15716131755057844,
            -0.08107915019058086,
            0.6089384225990805,
            0.2563420904590252,
            -0.31880456285822906,
            0.6567348463315551,
            -0.05769189606534694,
            -0.2156443652526503,
            -0.1043955573280551,
            -0.31214276918673356,
            0.01718117021895083,
            0.8492247738164512,
            0.2828233062128069,
            0.18525683410381827,
            0.922098502424798,
            0.10862333146125158,
            0.41476487141971485,
            -0.028788996160835897,
            -0.42981053370539724,
            0.4027623527750224,
            0.4154771160999898,
            -0.14674873913152922,
            0.011095315394730163,
            -0.02088115903984352,
            -0.24015534726097224,
            -0.5690798248615789,
            -0.354075092253779,
            0.42220875956763465,
            -0.0630966006569853,
            -0.2160311307580343,
            0.2015719343782318,
            -0.1838064573466937,
            -0.045137345202598746,
            -0.15921146345493234,
            -0.4238565281219211,
            -0.04852784735745572,
            -0.2827811446355311,
            -0.5811017513459662,
            0.9341508616068949
          ],
          [
            0.42420328046413874,
            0.10902509308078964,
            -0.6708888193386222,
            0.15629202851893964,
            -0.3090863506873622,
            0.2444669502674375,
            -0.1809085407627588,
            0.36884343780473666,
            0.059033944656467614,
            0.21501712086509467,
            0.16120311024427086,
            -0.6348308187762247,
            -0.2711738607367179,
            -0.5446825872690317,
            -0.24062833935813224,
            -0.021343399693505797,
            -0.2584782411897229,
            0.3500001859300449,
            -0.6240826309025432,
            0.49834202992634546,
            -0.1632940233499234,
            0.4395553884339458,
            0.5082399050325359,
            -0.13332176626220632,
            -0.08848284170019786,
            0.08218363168668426,
            -0.2733179923098318,
            0.13759330251081742,
            -0.24924240862916527,
            0.39144226607606775,
            0.23038150935920665,
            0.11160528233315786,
            0.25182510938320574,
            0.16553726520290626,
            0.15639244326339105,
            1.0847348077186536,
            0.8622272977964403,
            -0.0826589592181301,
            0.5943847937043659,
            -0.14324886907620357,
            0.7129773408659437,
            0.5650822718850389,
            0.2277598324068658,
            -0.31491956814550376,
            -0.23346555291704482,
            -0.33310006397617753,
            0.25701859953375655,
            -0.10594950609090059,
            0.16135908855027273,
            0.5109321354462741,
            0.6298869798398852,
            -0.4470457508484175,
            -0.25689648658576536,
            -0.7018741316675866,
            -0.13433795783930227,
            0.34071708635829556,
            -0.38786023660877383,
            1.3950626961603054,
            0.0283013321166865,
            0.1307584715327006,
            -0.15246985339909827,
            1.2735443076411335,
            0.039422403928040424,
            0.24483555762304762,
            0.615784074472644,
            0.9669729479817122,
            -0.19836700558221732,
            0.24401058796206587,
            0.20173550318921987,
            0.02198376343840392,
            -0.0003956888009333439,
            0.3604475474572414,
            -0.49395088828210765,
            0.04160030495898003,
            -0.4968620835731674,
            0.463799268578761,
            -0.1848251737944338,
            -0.9788025898911215,
            -0.1272488377618593,
            -0.22599562633504158,
            0.8460169536666269,
            -0.0888353922074029,
            0.7519267950302815,
            0.26177787892893184,
            0.12550610012726476,
            -0.112649577138715,
            -0.08512304509511003,
            0.27607046200359914,
            -0.3415783123241882,
            0.01885787337010396,
            -0.9746095868900674,
            0.15434664630901598,
            -0.7186544259107747,
            0.16729539341553923,
            0.7789115677465978,
            0.25079865850497995,
            -0.06020320418950898,
            0.013884503637949411,
            -0.2893151631529082,
            0.2103513427183839,
            0.18032403302028632,
            -0.1583792322836855,
            -0.8714549226652633,
            0.3291539451058053,
            0.1381700659246672,
            0.26405900326411785,
            -0.7466777401024373,
            0.3169873901892897,
            -0.7325551681275223,
            -0.19003818242811502,
            0.33557112559634406,
            -0.08427697934039463,
            0.066972252065291,
            -0.209160194339501,
            -0.5070117451367461,
            0.27069323455095345,
            -1.0775744088661718,
            0.2071700618833386,
            0.745032479715122,
            -0.20630478512853187,
            0.6808154378399718,
            -0.6575933680672374,
            0.02686855273862683,
            -0.49913745013499106,
            -0.5504836535749176,
            1.091100966260914,
            0.5048411071064325,
            0.04746611648450574
          ],
          [
            -0.5192521625773708,
            0.09346568528222889,
            0.36735434899702385,
            -0.2082755286221635,
            0.07904249870790186,
            -1.0676814808995028,
            0.789920097380733,
            -0.9104011175261026,
            0.19628448209991847,
            -0.24269309721782495,
            0.26900094281607606,
            0.637168477392651,
            0.005178288120772283,
            0.8641021267548267,
            0.7667333568393857,
            0.017727568450410774,
            -0.0042287631351060895,
            -0.18265396319657917,
            0.6496268607942315,
            -0.2905557452313216,
            0.7250291247836902,
            -0.061721390167188854,
            -1.176204603954876,
            0.0014708161942948714,
            0.03585801079437784,
            0.721527171872463,
            0.14533380626667813,
            -0.04334019354575145,
            0.846127070336547,
            -0.5780171259124989,
            0.12381975320689793,
            -0.1375811089752394,
            0.2986805527938539,
            -0.05510362803972667,
            0.6806088164396003,
            -1.4172722976227363,
            -1.2794365669329135,
            -0.16057311302982832,
            -0.6920819999037673,
            -0.4175232879692,
            -1.0307621670589004,
            -0.968879261881232,
            -0.711356914546039,
            -0.14930951262052333,
            0.878772697542515,
            0.8681942140653397,
            -0.07113753786801762,
            -0.7099251116408244,
            -0.24468847401697227,
            -0.8498658131743029,
            -1.1337044510077023,
            0.653161370002574,
            0.8879782192416825,
            0.9783648467315337,
            -0.5139888038934114,
            -0.8285260511382954,
            0.6234308005314706,
            -2.4073805906386507,
            -0.7957561383989219,
            0.13237037148192873,
            0.47447939110438697,
            -2.122801645049019,
            -0.5907660122375611,
            0.1934504767692521,
            -1.5826686816629885,
            -1.2841302900702993,
            0.14514202190366754,
            -1.0685756002672646,
            -0.16087969683537692,
            -0.8813711612441641,
            0.0018050526795946274,
            -0.8863027554893568,
            0.5291172940455355,
            -0.12472492952113548,
            0.6023046167083277,
            -0.5896347341251025,
            0.3357004537115944,
            1.0274722313291769,
            0.17338821538345034,
            0.4687643275608227,
            -1.1177917040575205,
            -0.06305020480210048,
            -1.130160670088572,
            0.21983097404375418,
            -0.8296835561537221,
            0.38110546399573886,
            0.2080651031945488,
            -0.4304499766239666,
            0.9955529810050666,
            -0.26148749590742165,
            0.9477836806892226,
            0.5267691496876864,
            1.2071027032058363,
            0.4183393946258402,
            -1.3982500547555319,
            -0.5223123794655312,
            0.32143076196602277,
            0.4764013005040059,
            -0.015833896413441365,
            -0.016917547009336533,
            0.427892845608155,
            -0.006732344156000845,
            1.1119264471619854,
            0.6459979356677743,
            -0.025940075178927588,
            0.2870581841118099,
            0.6399508123404962,
            0.2755848476825173,
            1.0777725814334103,
            0.18001959714762292,
            -0.6497330370636746,
            -0.17597764472062444,
            -0.1642752380382213,
            0.45480201541128,
            0.7309696556688775,
            -1.110093723646408,
            1.3071207284719333,
            -0.3580915522640572,
            -1.1588028490252127,
            0.5746996425617131,
            -0.5632574644738206,
            0.5548678950624409,
            -0.29275629268332126,
            0.23221348930953128,
            0.6963042580681554,
            -1.2598220961439028,
            -0.19743655468108648,
            0.6831034181006534
          ],
          [
            0.2454557945939804,
            0.25984794157762603,
            -0.5076246205451304,
            0.3993496063023869,
            -0.3033349475024148,
            0.36861358633522145,
            0.04879188211511153,
            0.27311218801837384,
            0.16104832854669726,
            0.10555753492622476,
            0.4690947016323311,
            -0.5457873018335913,
            -0.22103550615911052,
            -0.4205100608142109,
            -0.09955132866881017,
            0.39333971288552144,
            -0.2719603137150028,
            0.56055868001155,
            -0.4830952835843547,
            0.40849243550947895,
            -0.4125471986683427,
            0.8517090277487752,
            0.6244165323661746,
            -0.2257960439893895,
            -0.004655202309000116,
            0.17841803160779643,
            0.08825794054225754,
            0.36154990175233287,
            -0.12063072792124335,
            0.5717195232319818,
            0.44165551698280736,
            0.35816677062764324,
            0.06717939070721687,
            0.19786061322986156,
            0.3985135904750683,
            1.0550871156026513,
            0.7107994826389634,
            -0.2111918071627083,
            0.48635033161817415,
            -0.1010626145672194,
            0.3976154801594994,
            0.3824367299422004,
            0.3082427347611567,
            -0.37062188629327153,
            -0.32982039418604925,
            -0.40035527292597367,
            0.1343630243734962,
            -0.1584339280777845,
            0.225994837740857,
            0.4407305518371077,
            0.7775715762678116,
            -0.5424287368200876,
            -0.025693827885293844,
            -0.5567470502499626,
            -0.09758269520248795,
            0.18874393262991668,
            -0.6241837240994327,
            1.2955932422455827,
            -0.0779827619470991,
            0.17176664601909372,
            0.15330635179636515,
            1.1387908567800427,
            -0.08550840779073457,
            0.12959860646968271,
            0.3303645828432291,
            0.8703234743232504,
            0.12697138459446217,
            -0.001040938044956011,
            0.2589139265890756,
            0.09546030127227981,
            0.1785439820125469,
            0.17782197131644156,
            -0.2630154668041483,
            0.04290667487297556,
            -0.46808955935557284,
            0.4481027878097846,
            -0.1927535695634318,
            -0.6441888407631609,
            -0.21856202936755953,
            0.15425568649097302,
            0.5220667824486092,
            -0.3242901012051917,
            0.617065778312171,
            0.3228370347430481,
            0.12889571791018595,
            -0.06631383565583937,
            -0.31688135643669113,
            0.5107810911315841,
            -0.28308306838911784,
            -0.30833737763340846,
            -0.7548228638012936,
            0.23344975235564344,
            -0.8544944533771123,
            0.21337882042358333,
            0.7903034433008808,
            0.5810655079603461,
            0.08461062854606104,
            0.13044126727352207,
            -0.3495421578057401,
            0.18287101499894584,
            0.27821044506904896,
            -0.41757048867482777,
            -1.0372232075469003,
            0.3366922806484029,
            0.06437871908272372,
            0.2855796485784737,
            -0.6269756586467586,
            0.4394821296151278,
            -0.6923297697421235,
            0.09163377695285549,
            0.32147440320284865,
            0.0273937864092169,
            -0.15712741745758516,
            -0.3293819509080026,
            -0.4146897689595546,
            0.27877312884311434,
            -1.1060881913228657,
            0.262879858412123,
            0.6356772651995263,
            -0.003108840334296924,
            0.7193577165695139,
            -0.4273655590383059,
            0.12988741978576157,
            -0.2698240263353273,
            -0.31239689234849366,
            0.7351538054562313,
            0.27260456747634987,
            0.22351172178533874
          ],
          [
            0.20839788009626545,
            0.31125606740173284,
            -0.03209931918174504,
            0.11714714513011365,
            0.13925424977103856,
            0.08284960830615377,
            -0.0582422007844917,
            0.14966547134312597,
            0.010418560170706258,
            -0.11198552585673423,
            0.12630843725374494,
            -0.03472644807249537,
            -0.005197450781143268,
            -0.060360455322447264,
            -0.17032311604556738,
            0.17758173385971102,
            -0.03806438832854122,
            0.14926798673024538,
            -0.298815583226017,
            0.11335095293898168,
            -0.03214933649297921,
            -0.1749348184439144,
            0.28682395689641244,
            -0.276332169166884,
            0.1270435315821034,
            -0.0645334188757295,
            -0.07247141758893297,
            -0.08434431052844034,
            0.16535501235910036,
            0.17606609917362961,
            -0.009222971319392604,
            -0.18267985167977083,
            0.13121203916567398,
            -0.08814781013998166,
            0.1321270605374579,
            0.20549606620515443,
            0.4068147733593455,
            -0.033427299412946206,
            0.19050012580203082,
            -0.19784326068362196,
            0.3850209407588708,
            0.24425924659997886,
            -0.01408929099126176,
            -0.18369187364361012,
            -0.07225707440843981,
            -0.024968469245572267,
            0.2789251814582658,
            0.07072813908989392,
            0.4467730216621896,
            0.3026326164557388,
            0.4127892797232077,
            -0.006958827055067972,
            -0.05018973280518348,
            -0.1945988154331562,
            0.07739301896481884,
            -0.20816311868951987,
            -0.22247708526175813,
            0.7721109946985825,
            0.1616503512059989,
            0.1187851835260926,
            0.11237355517826975,
            0.6881915936576778,
            0.02513941155096131,
            -0.02018130676434362,
            0.3799442706979162,
            0.35568817885320375,
            0.06689851803195673,
            0.1715553963254091,
            0.35937682625753675,
            0.06578802813448398,
            -0.18139929462904256,
            0.03763201399208256,
            -0.12245413663628998,
            0.1891861928624574,
            -0.40042712447576984,
            0.20005737739350568,
            0.1483159833561058,
            -0.26079500305406844,
            -0.10088132228423045,
            -0.11672547048287234,
            0.5699167915045431,
            0.03160228551672238,
            0.22082089172651445,
            -0.14012591624921353,
            -0.0047965651586748806,
            -0.5703596941976923,
            -0.16477870146163917,
            0.36461368564745444,
            -0.05263846786418038,
            0.12569052915647896,
            -0.1902417224547887,
            0.07071652753480542,
            0.13587068474751338,
            -0.27137013813806704,
            0.3684179194397662,
            0.26343052196995137,
            0.17049366424453619,
            -0.06419256193409002,
            0.003514487667201217,
            0.19869588301279525,
            0.07216852423745311,
            0.09354806205532097,
            -0.35950327959438233,
            0.27653762074722193,
            0.0022010706258150997,
            0.056466820978313036,
            -0.12692596940458312,
            -0.2990131397175409,
            0.028050839915981448,
            0.09951430445495668,
            -0.1561975200012217,
            -0.08313052875641747,
            -0.02057402042586109,
            0.04445654287135049,
            -0.29689588085967605,
            -0.03336167882145514,
            -0.16484398060562705,
            0.019410119797619977,
            0.04997411100748807,
            -0.15305314244126797,
            0.16368665958173198,
            -0.2936598579781506,
            0.12776355155953006,
            -0.15158349610578759,
            0.0881058013380964,
            0.43106246264717524,
            -0.07712396857946176,
            0.06873639658383957
          ],
          [
            0.040906283803749006,
            -0.3153121914498006,
            0.04358612823102279,
            -0.21176439969039432,
            0.03552792944017308,
            0.2117997331692348,
            -0.2139223825479192,
            0.3418223218739834,
            0.09565690086854087,
            -0.22942608514694987,
            -0.24736314513899182,
            0.18658897795252657,
            -0.14787285330803543,
            -0.11142076818695253,
            -0.10682685051712885,
            -0.17401640463925225,
            0.0499909201808923,
            -0.17551666634041616,
            0.01625311765034309,
            -0.24348651034316546,
            -0.008650265390197611,
            0.06884734477998408,
            0.0713490755250726,
            0.3679408480637691,
            0.1255798206627825,
            -0.3654112881876925,
            0.04136433830603717,
            -0.34508340267618987,
            -0.3661430153181522,
            -0.11959964766047745,
            -0.35555938897174166,
            -0.24513542950642037,
            -0.060133742020680496,
            -0.2827371488834021,
            -0.08335302813136584,
            0.2553840577106882,
            0.1046187561242555,
            0.2493968330503454,
            -0.05988529721871739,
            0.10662152364082547,
            0.12157434834528284,
            0.18735278972876812,
            0.34162305527960635,
            0.2072003797339271,
            0.013760829927447909,
            -0.01809741205637077,
            -0.14521986440585308,
            0.3093706583199902,
            0.07898976751615466,
            0.06785002926682504,
            0.0030193438653785517,
            0.07836068554165546,
            -0.19404292607388607,
            -0.1693333969719717,
            0.1484747318255955,
            0.3965884346564938,
            0.2106107647474102,
            0.17682467416859202,
            0.35780464721315136,
            -0.1737195139721705,
            -0.23691860752547242,
            0.22635645218688802,
            -0.001260249152584202,
            -0.11444489507526592,
            0.416020088503022,
            -0.09207760137944163,
            -0.23537231939653241,
            0.23099879335302254,
            -0.29449480174732634,
            0.3111326316764618,
            0.09248517152773542,
            0.16945348691104947,
            0.03372825202968292,
            -0.23893289066693257,
            0.06998985787874606,
            0.16157589074878342,
            0.18019749340478527,
            0.03375430951483921,
            -0.2281780300376763,
            -0.06966732062877241,
            0.21733328879265004,
            0.12165597943462059,
            0.3029421919118375,
            -0.05702894661966887,
            0.33695842291334166,
            0.2351131902080709,
            0.23884227782639175,
            0.015186135695216044,
            -0.12341854733174788,
            0.06728754835143433,
            -0.03970097527557278,
            -0.08384804316427215,
            0.12343733249489254,
            -0.2819252026246609,
            0.23196543427564584,
            0.03133155058219771,
            -0.326542406993087,
            -0.0660237146283235,
            0.334037942848491,
            -0.21392002529594212,
            -0.26090392877419927,
            0.14157372697666118,
            0.12250372287529174,
            -0.3019403154788648,
            0.02646681027421042,
            -0.40005762213897345,
            -0.023519210249115848,
            -0.1019305903471331,
            0.03890627687253931,
            -0.005667861566254232,
            -0.21659785589249828,
            0.02295410131425277,
            0.1514920564419333,
            0.29673698940738413,
            0.07913511547380983,
            0.2720065280604143,
            0.015136834920104546,
            -0.003258861568490395,
            0.13957014375637564,
            0.007019134078127998,
            0.03418295451308505,
            -0.09629549431964415,
            0.2974997417731772,
            0.20394742802484853,
            0.23343778412020547,
            0.13636556951548992,
            -0.2735619141453832,
            -0.4381848087652541
          ],
          [
            0.06908087185295465,
            0.0060977483319870195,
            -0.20194080156049035,
            0.1858152616893273,
            0.009504108165843525,
            0.10262694055020315,
            -0.2137745161075817,
            0.25837359576383473,
            0.16090355664579326,
            0.1328049700214687,
            0.07659163158595508,
            -0.050912195229338084,
            -0.15842713479303272,
            -0.09593308029635311,
            -0.15210749701459159,
            -0.11670870481325775,
            -0.0928078984571321,
            -0.1286344482908482,
            -0.26756683707696405,
            0.27162256853961425,
            -0.10520838048214082,
            -0.1683129150638985,
            0.17980460174995772,
            -0.2388990036404863,
            -0.14793261927636656,
            0.04411097725538505,
            -0.11218218896638414,
            -0.10751049738174062,
            -0.08673990637108817,
            0.14615648621565297,
            0.19370354629781605,
            -0.08290083486377729,
            -0.021438712960629776,
            -0.07339620136900452,
            -0.051750519729680124,
            0.1155478906264715,
            0.19390537065862984,
            -0.08615972129675556,
            0.11872346212815868,
            -0.13580399419671796,
            0.18951728463262613,
            0.16528283513422407,
            0.19643220574410064,
            -0.09005718569007928,
            0.023839038882223527,
            0.013050210335102223,
            0.34974985283408827,
            0.1487305320339014,
            0.4044030925375279,
            0.24055138537297813,
            0.31600028985728507,
            -0.1787453418961612,
            -0.08665503966712917,
            -0.07768718322869039,
            -0.14789996195632768,
            0.17967385900587582,
            -0.2596876084683069,
            0.661514309705381,
            0.14557062586201575,
            -0.1350116944629993,
            -0.014982279037352095,
            0.39432266068857347,
            -0.14901415274259627,
            0.18998385526438263,
            0.3226952796922756,
            0.45521572978989716,
            -0.2246028254996148,
            0.13715522866627977,
            0.09499757302311021,
            0.24738542198123328,
            -0.27267470060720905,
            0.29507382487818196,
            -0.3398225512035547,
            0.28290305785810244,
            -0.21720756656552528,
            0.1101349443499968,
            -0.10756784837112898,
            -0.16610663608055198,
            -0.20639855545301458,
            0.10601689007874404,
            0.3563354379113033,
            0.03621672987591,
            0.1275752398669374,
            -0.14465770707930878,
            0.14013215252184613,
            -0.3089770456967739,
            -0.024090972618571765,
            0.16521727368362873,
            -0.2930788020973036,
            0.03301313352938246,
            -0.2884185639885258,
            0.18201247495628137,
            0.10188005573142377,
            -0.055717893765561764,
            0.5435849884050497,
            -0.08119579011913401,
            -0.0540983931388834,
            0.0019334509065421315,
            -0.08573474217000628,
            0.05031558451025623,
            0.17000357300857807,
            0.1310641678245197,
            -0.16296510801233588,
            0.08857416672765869,
            0.1272451987851407,
            0.1169745827579603,
            -0.22780059841949188,
            -0.2523436870639793,
            -0.08912706104831114,
            0.16683745360359567,
            0.014121705533961842,
            0.13620238317094108,
            -0.14756921518118926,
            0.11787308787157705,
            -0.3119440751024653,
            0.27035453220575834,
            -0.025268226901356175,
            -0.08441526442819554,
            -0.06686043905881497,
            -0.039154322024567326,
            0.32388541353919453,
            -0.00906748178205586,
            0.1806744590375496,
            -0.007775042729995688,
            -0.022163593884043896,
            0.3306050971020778,
            0.10139511981565913,
            -0.020322370120581253
          ],
          [
            -0.06920883374483355,
            0.12286550104137882,
            0.34896220608878814,
            -0.2452402425155877,
            0.06017027617027699,
            0.15752283506678133,
            -0.27232875274533075,
            0.5513793378365123,
            -0.07748726522909989,
            -0.025663531266248443,
            -0.3256389278049474,
            -0.05356570808483843,
            -0.10408783647579661,
            -0.031987700065435144,
            -0.5302894391797727,
            -0.025786026880283367,
            0.1245808611494848,
            -0.26233484725682893,
            -0.09797865909315016,
            -0.1845137904603603,
            0.2005583892558708,
            -0.09430198783934085,
            0.021666146933078737,
            0.2165618204606802,
            0.03410822879219565,
            -0.2395543071760746,
            0.13903793291941832,
            -0.23431991121021753,
            -0.426681799062595,
            -0.02370723768339958,
            -0.008915787827806648,
            -0.1239222312951863,
            -0.15813672871415918,
            -0.2480689777753018,
            -0.3103532034503371,
            0.21089120118124924,
            0.08415229710107554,
            -0.05597777589575762,
            0.08609189386526425,
            0.2915743521348148,
            0.06577531706788843,
            0.2571576071128499,
            0.1430658618604129,
            0.28448762252908893,
            0.057208379263968885,
            -0.18285711700824758,
            -0.00816754335605068,
            0.2628536657348099,
            0.19392376862770613,
            0.22940036317916931,
            0.31272052278388307,
            0.22646282746878818,
            -0.18852422690737544,
            -0.28008682202706153,
            -0.009505253276486283,
            0.19614337319341754,
            0.20142666517795907,
            0.37268820231490846,
            0.17229100692102448,
            -0.28751418721528305,
            0.05235664953937189,
            0.5558767766726469,
            0.21238532656516804,
            -0.19654581545558245,
            0.6009163808388888,
            0.04437548630361036,
            0.000362726707398453,
            0.22867424023417313,
            -0.12376993911081512,
            0.46438283870674996,
            -0.16868354122213317,
            0.4299755331794139,
            0.11213796650818725,
            0.09025250335087702,
            -0.12805474161157904,
            0.07022730946065601,
            0.22666450829636106,
            -0.1305279261724885,
            -0.20111075501758552,
            0.13047353031526285,
            0.2121433908916863,
            -0.10367684046775846,
            0.19587137966454143,
            -0.018460337403393753,
            0.27201525371001195,
            -0.0983299806398502,
            0.14196456696697438,
            0.06198694251885547,
            -0.2436993340839436,
            0.10501996275584256,
            0.033457441089895984,
            -0.1993761786186877,
            0.14892144423714906,
            -0.0966133553167397,
            0.4081095605267922,
            0.1563877057049778,
            -0.08913719366213194,
            -0.32276089409280256,
            0.10839819080054715,
            -0.05655989548200884,
            -0.09186774940884539,
            0.3353926801351594,
            -0.1288100092546615,
            -0.17011594945755462,
            0.042628877791670225,
            -0.2858923049927089,
            0.08654023122479612,
            -0.08670020485834794,
            0.02976595423634035,
            -0.016647654103748764,
            -0.03636848070969687,
            0.23622512477989652,
            0.09933808596096749,
            0.21464251714935467,
            -0.06677328119618402,
            0.38654412123033016,
            0.13616233171548994,
            -0.14475869747948197,
            -0.0853068764182924,
            -0.08848894157930859,
            0.17749390915374522,
            -0.1992317989340033,
            0.0895247547488102,
            0.06152766102049562,
            0.08518926052581346,
            0.08104290374003624,
            -0.19653276430503855,
            -0.035505139601804674
          ],
          [
            -0.15177358568041116,
            -0.011040581943114174,
            -0.12025153637614329,
            -0.08418575039316802,
            -0.05720890662712324,
            0.021082860218484555,
            -0.1236775776892664,
            -0.01792284663847261,
            0.15883275774625719,
            -0.1542805083922222,
            -0.03002169887400411,
            -0.24272155731235937,
            -0.23272364027104106,
            0.02268283978818346,
            0.05132051932250946,
            0.02067964804854309,
            0.06508049395410839,
            0.022650155726069782,
            -0.28954915717814456,
            0.0831721012966611,
            0.11230717509050542,
            0.15880945792678264,
            0.055808068103047115,
            -0.12952761071885152,
            -0.2583165165166734,
            -0.1186556966765898,
            -0.11149142915842501,
            -0.08034566460630631,
            -0.004140586196066485,
            0.1432593948341016,
            0.09542153047246761,
            -0.041543508159961856,
            0.029827797682951646,
            -0.0626136162657535,
            -0.18969195314361884,
            0.07843362124402656,
            0.17330477431915234,
            -0.14061858067459707,
            0.11434575122959784,
            0.14297045799294003,
            0.20859562606969176,
            0.2832281676412613,
            0.004491127182017458,
            0.03772458342172972,
            0.09781556533434894,
            0.0696501451546972,
            -0.04353118526821171,
            0.08868120296085101,
            0.17349324989306264,
            0.20111627738491114,
            0.3136371334579561,
            -0.2481690752782323,
            -0.1324756841946246,
            -0.28927595495865704,
            0.16543720177947968,
            -0.14907700673153598,
            -0.22951946519871302,
            0.6350210575777272,
            0.1601650323972691,
            -0.11427533159665362,
            -0.05245513049264143,
            0.40818392910714796,
            0.2444194727233497,
            0.16588445744008784,
            0.3774722996809206,
            0.4646588733928303,
            -0.16688487516907713,
            0.1760470884465995,
            0.03581637058938034,
            -0.03182522128004434,
            0.029734426513233367,
            0.2778633494207517,
            -0.3118373427528426,
            -0.10085659476884723,
            -0.05830234491512004,
            0.12488175865490886,
            0.05102305638498664,
            -0.1136789950103842,
            0.05500713015549898,
            -0.24715084180944571,
            0.1151145289588437,
            0.1829603183221739,
            0.11275638688344049,
            0.03435364392776123,
            -0.09579646669180408,
            -0.3876704310879291,
            0.11462590130327027,
            0.00011624509259098461,
            -0.11408319804560269,
            0.12178804921614247,
            -0.3167334313502273,
            0.12354861387003191,
            0.07727445358000691,
            -0.029509675411086348,
            0.5366021930366769,
            0.1393728934622764,
            -0.03196932658828247,
            0.029410873873414616,
            0.04325981545217991,
            0.01185430596342675,
            0.004182868865470952,
            0.19737179033203603,
            -0.34905172092910064,
            0.11740754783947899,
            -0.2229710436928756,
            0.06473843578137016,
            -0.11491408693421296,
            -0.22260537991371201,
            0.15877934696695692,
            -0.006125440439927008,
            -0.12663689029593744,
            0.1966146139718852,
            0.17229472949307023,
            0.08789343880204738,
            -0.13227738630689068,
            0.20685930581691075,
            -0.13479964677535375,
            0.17657141096730317,
            0.05426608124813168,
            -0.2568063211259784,
            0.022970970587651678,
            -0.11173189018952652,
            -7.380856930041467e-05,
            -0.05286106255324602,
            0.15588009315629298,
            0.43283571252878544,
            0.18048456577226896,
            0.04873211548996879
          ],
          [
            -0.10453142556553692,
            0.02442292004937986,
            0.1925634243191008,
            -0.029603943237350078,
            0.3916447636961858,
            0.46262533988035387,
            -0.40245385448829457,
            0.541255892660243,
            -0.039791216148718944,
            0.11458301690191487,
            -0.23157687189404874,
            -0.00178773835510552,
            -0.17857752483918723,
            -0.27739080712551145,
            -0.5502475564283764,
            0.2086370369125546,
            0.1913420936285877,
            -0.3991691788707006,
            -0.1326229417594004,
            0.1313469053027613,
            0.08370705793516223,
            -0.367394265293058,
            0.3353485286206476,
            0.02730098998600515,
            -0.07273716183510166,
            -0.2754463187076661,
            0.09957300723925895,
            0.0027509755117367707,
            -0.34175034943836824,
            0.23501654981727685,
            -0.12058239101678869,
            -0.20451728650109738,
            -0.15059258024467662,
            -0.19479379136229727,
            -0.18409244492175975,
            0.09464821647360391,
            0.15149963627671093,
            -0.197297079223664,
            -0.02625317843372116,
            -0.1102368101314581,
            0.21438640899476338,
            0.25618048560723805,
            0.15483914050173442,
            0.2084882345304608,
            0.12397880741417078,
            -0.25248688286921517,
            0.3718566595795712,
            0.12814446723741643,
            0.35859370798561035,
            0.013681035800057828,
            0.04936634518044512,
            0.04765574989320179,
            -0.30356546268154644,
            -0.30104066464334045,
            -0.011752331280243633,
            0.46191620157757823,
            -0.004678541647299343,
            0.4865467070017928,
            0.25800558488227376,
            -0.01774651899955664,
            -0.10765216355003608,
            0.4850408831736661,
            -0.09006443411980222,
            -0.14377232129351583,
            0.7774465642027406,
            0.4166002259625096,
            -0.2870855981014926,
            0.6523747068830019,
            -0.09871252680584429,
            0.47049484790570484,
            -0.09400105977709679,
            0.3825331026397288,
            -0.3081938515328285,
            0.016265592576853033,
            -0.021962886919990494,
            0.03335487801465708,
            0.19344884907180343,
            -0.01632005067312889,
            -0.03235737458003624,
            -0.06340089804698598,
            0.2490654525489832,
            0.16581929452902008,
            0.4532377401132813,
            -0.1054706045081972,
            0.4060823747071853,
            -0.49012512386072954,
            0.19261221797205294,
            0.3925647260279874,
            -0.2734426890724628,
            0.45801052379316454,
            0.14474832413856625,
            -0.020364532129877284,
            -0.05137483944856059,
            -0.4637512836435001,
            0.3170511308210956,
            0.22920420406483002,
            -0.11737681101086132,
            -0.13609750021534375,
            0.09878417673147924,
            -0.14365587996069756,
            -0.048914799961145124,
            0.418536431489286,
            -0.1913182389870622,
            0.19880865167191647,
            -0.028343023526569054,
            -0.03179709271820419,
            0.005673484232893826,
            -0.24669904187655745,
            0.1487144125451347,
            0.06800823689511681,
            0.1692867182225556,
            0.2530808747151031,
            0.25895087670309197,
            0.035020975703144504,
            -0.3472817019960011,
            0.4008889721602255,
            -0.03564325529308194,
            -0.07566758452446301,
            0.202451301656484,
            0.11237053766268389,
            0.10456420835958583,
            -0.03908047473820581,
            0.10202069838605804,
            0.011257800611083425,
            -0.1026329429143046,
            0.11561636916783175,
            -0.3782593371764437,
            -0.2468477965057444
          ],
          [
            -0.048237701653857754,
            0.018641215893698937,
            -0.11554881857683286,
            -0.013445357606728922,
            -0.18262359961389532,
            0.3241115370828684,
            -0.17874997760684616,
            0.07865727142802975,
            -0.01704873202688804,
            -0.14973890716992394,
            -0.21790358328809975,
            -0.06417893424807886,
            -0.02368136323940105,
            -0.08345670773156368,
            -0.21599852116713847,
            -0.25444241846569415,
            0.0050434062498138,
            0.18714262687816746,
            -0.06781971354648858,
            0.18831967504320518,
            -0.15237695422030365,
            -0.07694985091422693,
            0.20709735465084508,
            -0.13201588291342814,
            -0.27478246239050313,
            -0.15787233314880905,
            -0.1895260981107148,
            -0.15869412380006725,
            -0.234926817998805,
            0.019648899659076083,
            -0.01013153658493949,
            -0.19337080263865525,
            -0.08270977028311349,
            -0.13845073858930734,
            -0.24352466592215283,
            0.03787369219448088,
            0.36601967346134884,
            0.17649246547683164,
            0.07639324708690325,
            -0.08229332842684835,
            0.3379548551546745,
            0.30882907362204537,
            0.128398395895773,
            0.1973634993384291,
            0.2526524146981761,
            -0.13145920305904696,
            0.061192653045101346,
            0.09866631211549681,
            0.161993057435867,
            -0.09129768460237452,
            0.30289315245463794,
            -0.01821409319242444,
            -0.18222386679802038,
            -0.010079592708096928,
            0.1726733974490849,
            0.1518124946018499,
            -0.06693068124436814,
            0.3144693282573289,
            0.0813889073538484,
            -0.15848364553654834,
            -0.31484057943140287,
            0.2945997262347515,
            0.15061048512883637,
            0.11672786834828136,
            0.03502393233476134,
            0.3184490614570789,
            0.09790885404440229,
            0.03504993561593961,
            0.11164027553674943,
            0.11995036913229225,
            -0.17977250486743823,
            0.2998579122721324,
            -0.04248301110203774,
            -0.1921049658056358,
            -0.19782714810122287,
            0.2300963634011831,
            -0.08484611273406917,
            -0.3340756970212313,
            -0.24501141590463388,
            -0.00135351012154663,
            0.22612398458642569,
            -0.07521662921338514,
            0.18087294735267162,
            -0.0920131173726068,
            0.18869347155504407,
            -0.10376346653752452,
            0.04938897685676167,
            0.2168316839290864,
            -0.1874641275228789,
            -0.02053859740192555,
            -0.1993793459689036,
            -0.19097776616724893,
            0.1023293415602117,
            -0.12724779523791743,
            0.43117399173650867,
            -0.16821877809956234,
            -0.22125102792275947,
            -0.07255258123666064,
            -0.011452448009731874,
            -0.112719067620672,
            0.019489773741634044,
            0.09674312461049846,
            -0.1730718539700266,
            -0.19992005395829693,
            0.016545837197974058,
            -0.12331267925226876,
            -0.29771734092502405,
            -0.033364055088317426,
            0.10951811263303353,
            0.00462867679749225,
            -0.03030893204885924,
            0.12860726107584117,
            -0.037739215446548506,
            -0.11368563301639502,
            -0.03141937191428163,
            0.06062347559796822,
            -0.2966987203333271,
            -0.12876766292395678,
            0.02294131015309596,
            0.03818875961312694,
            0.005179196807216786,
            -0.16195409129579386,
            0.1478041481871862,
            -0.050871165400727586,
            0.0379657857120406,
            0.40994214613403634,
            0.2199065621304539,
            -0.04884898991339169
          ],
          [
            -0.02269228135029652,
            0.3535047722363593,
            0.5287312431410344,
            0.017778783555434642,
            0.4267197790179955,
            0.4783096376903075,
            -0.7498566039226942,
            0.5306131535990273,
            -0.22909920494808306,
            0.08042085023900375,
            -0.007218872563401505,
            0.262336042077627,
            -0.19206779140037888,
            -0.10458980322424866,
            -0.7006869092459037,
            0.09022816303320134,
            0.19904376384365488,
            -0.270352919705123,
            0.13392515130925486,
            0.11354176290539826,
            0.04193303033506075,
            -0.46038270967004774,
            0.4259863507527441,
            0.038945070962482196,
            0.10280859328617954,
            -0.03919706818212788,
            0.6153707166966124,
            0.0867523626567688,
            -0.35683408145082024,
            0.14902524702699546,
            -0.15343652327449417,
            -0.018126986133237,
            0.023234404959195328,
            0.08542522538973901,
            0.055235298921978725,
            0.09045051095131566,
            0.18288266300680966,
            -0.12165822759456808,
            0.03506720411041347,
            0.05561595647018545,
            0.3167928229690396,
            0.07454271888260558,
            0.37821057991619644,
            0.23121319705407464,
            0.011526400563144735,
            -0.19889539282004143,
            0.5459886030612938,
            0.21895404700757196,
            0.29714179792642403,
            0.08006042448776098,
            0.342798949008257,
            0.28883900861091955,
            -0.20378635194334482,
            -0.39584408097234647,
            -0.308414500274441,
            0.30448990765293027,
            -0.11559049127027575,
            0.8968832195582854,
            0.26842552941608455,
            0.062231581631111664,
            -0.11034720728192866,
            0.831863308775786,
            -0.07191627074946547,
            -0.0008166764453490009,
            0.6552232946470598,
            0.29870435186412986,
            -0.04174512558393508,
            0.8781995516185278,
            0.12839366157055027,
            0.6629672252891056,
            -0.16866372403322263,
            0.2828921590172514,
            -0.4372490266591166,
            0.4366296586992747,
            -0.4316357768228947,
            0.09075452887717833,
            0.06590626025355982,
            -0.26523012695227205,
            0.12276114547932912,
            -0.11819491407545143,
            0.7009837895940847,
            -0.03065332650119873,
            0.5220143570117718,
            -0.09172653520938234,
            0.29530124358212084,
            -0.5558820174741146,
            -0.15765424496406055,
            0.29771243279625215,
            -0.5735133469798802,
            0.5661679535229684,
            0.00371387372216147,
            0.12424817253669285,
            -0.10035235652637482,
            -0.3113107684298118,
            0.8328243950293587,
            0.3237886136699261,
            -0.4550594912755437,
            -0.4123337249114834,
            0.1731620225483166,
            0.19171745231333576,
            0.16850486482602325,
            0.2591193247680822,
            -0.10413655900033057,
            0.3489144099693764,
            0.2578691349825052,
            -0.15406891760369504,
            -0.29350865184156866,
            -0.25664117307028683,
            0.058451184637490404,
            0.06343315383764635,
            -0.12546845306033033,
            0.35745992847542607,
            0.09904698402148486,
            0.05098124926291162,
            -0.42864309609538276,
            0.1236975421833618,
            0.060044278799923335,
            0.007852189366632224,
            -0.003303804684344874,
            -0.10815061556459835,
            0.24503096100822686,
            -0.40517331644437626,
            -0.09089949229018836,
            -0.24899191460169742,
            0.0007067546671797327,
            0.09624714850044691,
            -0.3092226450280766,
            0.003869866902525055
          ],
          [
            -0.12623564013040717,
            0.06791604314482677,
            -0.13930408983666223,
            -0.029789440679982085,
            -0.06355555240848568,
            0.1397177844483251,
            -0.1126102272135061,
            0.029339934406821446,
            -0.1792751103464676,
            -0.20945204694862068,
            -0.2150739268942626,
            -0.18235716733773194,
            0.07430237549019784,
            -0.00647918187666026,
            -0.1430051347962903,
            -0.36177507343845405,
            -0.10476064336978262,
            0.19579502241765168,
            -0.027602253421000193,
            0.2142130902195659,
            0.11657121000502758,
            0.024570103447727306,
            0.19953975635376947,
            0.061443398001627486,
            -0.03251872712503048,
            -0.07390017153902356,
            -0.1391520937545903,
            -0.14230826889226933,
            -0.2941832219800054,
            0.24384469389043245,
            -0.06665528177215511,
            -0.24200934666452265,
            0.009335972389867485,
            -0.04858196785400808,
            -0.2436056976208322,
            0.2587337175584539,
            0.12289530226525769,
            0.13745276520927327,
            0.11885969375293681,
            0.29778662403764383,
            0.29116529283768916,
            0.17324023182888051,
            0.23763092397357102,
            0.16680707277488663,
            0.27444770160459764,
            -0.17910468680027328,
            -0.010227519245661525,
            0.36045256502320394,
            0.27005801481074465,
            0.2014952464348636,
            0.05503664406914841,
            -0.20172155434846725,
            -0.3140601086984046,
            -0.13158979731608184,
            0.1068371919786223,
            0.14030665318505942,
            -0.24432906562211032,
            0.4106107216568077,
            0.2677144477560801,
            -0.15427547954789114,
            -0.2627240045058097,
            0.5933528203148681,
            0.28845353598008416,
            -0.16614861011220278,
            0.4196762173286851,
            0.10949114838317046,
            -0.04797242979488586,
            0.13297668711989047,
            0.07006207937222969,
            0.06854919227968533,
            -0.07195615243297368,
            0.1061114909683259,
            -0.26196999292973855,
            -0.11181893503714128,
            0.01755847424531363,
            -0.005806528252810616,
            -0.2691277965928226,
            -0.19828313492941707,
            -0.14153698956597038,
            -0.13696146536107773,
            0.17268540364555718,
            0.14398141182712682,
            0.31999782479038247,
            -0.17095459778097666,
            0.07143699044273023,
            -0.11859823379187881,
            0.2979399916872442,
            0.08293367190592071,
            -0.12356447139696,
            0.17029653563102173,
            -0.22172722819510288,
            -0.22225427876365114,
            -0.10051806313315406,
            -0.04047400384252677,
            0.22244071976917057,
            0.12188150751274994,
            -0.01372145661669437,
            0.0006941561614783198,
            0.2279293185706505,
            -0.12047940230615303,
            -0.11774850010427183,
            0.056545622548464,
            -0.18822105076290732,
            -0.22763938035470327,
            -0.2970985191850931,
            -0.0955506048091181,
            -0.11094922215824089,
            -0.12171119554962706,
            -0.05440941739750412,
            -0.02636075901492743,
            -0.1762234406161674,
            0.07208907071013733,
            0.26297861117575055,
            0.011174838268494679,
            -0.18461524016583242,
            0.19391831882005595,
            -0.2357155007261546,
            -0.020460550477014682,
            0.18145419468613322,
            -0.3186787036284393,
            0.05683590314043482,
            -0.04890646329231722,
            -0.023728873196207353,
            0.11862467002550527,
            0.21315612295311995,
            0.26145765688661105,
            0.1475299234181582,
            -0.27166166422601046
          ],
          [
            0.36167214175145956,
            0.5609072151630995,
            0.4977678520153512,
            -0.22824259129365757,
            0.24130524217400512,
            0.4087463897772555,
            -0.861421701626323,
            0.9050469153910141,
            -0.15899326706512218,
            -0.05761362871305662,
            -0.21166160502061837,
            0.14696863467666982,
            -0.34742535495342863,
            -0.18215982538845302,
            -0.5833496144871331,
            0.3078053791144162,
            0.296396683011877,
            -0.3993828681515346,
            -0.14684087062668405,
            0.2764283621738603,
            0.06347301677142263,
            -0.6253539389077586,
            0.5940290197952501,
            0.30147586468583115,
            0.19800106627733385,
            0.01473075950026381,
            0.6842581180448234,
            0.07009085079267856,
            -0.13830151852445274,
            0.29259540235701,
            -0.05480725196217264,
            -0.3894888302256589,
            0.19655502016310095,
            -0.0888831593273905,
            0.3916213219550103,
            0.43630684712741025,
            0.40505103799254033,
            -0.5971665422069332,
            -0.0023679052728653744,
            0.001477047820002768,
            0.2696323108325056,
            0.13901506848443568,
            0.18390866755384036,
            0.2016532315210053,
            -0.06428206586926366,
            -0.38036542452121413,
            0.9671134200027989,
            0.3646427006303912,
            0.5256465400623053,
            0.34185846341776466,
            0.23948680500084898,
            0.2164547842064819,
            -0.31265319468458697,
            -0.6290783243013343,
            -0.3867130591793383,
            0.4945187089190885,
            -0.0634780351736088,
            1.1838911074514555,
            0.36080485744076324,
            -0.008528603967596972,
            0.26940469330728084,
            1.0592343793609604,
            -0.42343575205687994,
            0.18370807136311756,
            1.194085110327343,
            0.6326489182978343,
            -0.24808129021219558,
            0.8041765810196273,
            0.40119276244623636,
            0.942497538933925,
            -0.3766500875274362,
            0.21387594868417903,
            -0.37952200827686167,
            0.4989986304326738,
            -0.6710312939382186,
            0.3084825322996818,
            0.37827144276813374,
            -0.1573604882941819,
            0.13408770859895172,
            0.12403718872583655,
            0.7163555145556361,
            -0.04515491066429206,
            0.6168181680308875,
            -0.16073274114672967,
            0.16599560427466958,
            -0.9685565709064029,
            -0.08473331693868374,
            0.5437058986096759,
            -0.714300052610866,
            0.615949214058888,
            -0.09647949624178284,
            0.20449419276056577,
            -0.22458597626032883,
            -0.5399168429360829,
            1.1036351530203212,
            0.38366655041293923,
            -0.3297005359346731,
            -0.5491621950000182,
            -0.07382167891065157,
            0.2305766518533182,
            0.4067056232188046,
            0.3097184109772936,
            0.05912728733011,
            0.6658154521215619,
            0.034154921310157696,
            0.07099500782918919,
            -0.24112833303667314,
            -0.110448773715053,
            -0.041161745811616815,
            0.3084097430399668,
            -0.012431141851779359,
            0.43026529887062454,
            0.14380812759008205,
            0.033774196260723026,
            -0.7293847690902412,
            0.43430448038179575,
            0.23041687784634948,
            0.050399470095691616,
            0.008973631774911039,
            0.04805363690804423,
            0.3319775221573184,
            -0.2479145620440465,
            -0.043817385178153506,
            -0.14148897380723788,
            -0.18377901204039557,
            0.2237366858952544,
            -0.514923771302356,
            0.1651804250857087
          ],
          [
            -0.09178093289639422,
            -0.14180692027017824,
            -0.17553705177255174,
            -0.06784254180753987,
            0.0029496717272057636,
            -0.1822999505723772,
            0.11722463329604588,
            -0.262891152434658,
            0.21412646230292362,
            -0.26172524552081133,
            -0.04476685181332242,
            -0.23118799381775643,
            -0.01933126434176302,
            -0.04872113553184511,
            0.05291475528443227,
            -0.2985099310683935,
            -0.003537441544376533,
            0.17934808028905683,
            -0.13892190429182286,
            -0.04455695321278956,
            0.19028447526251333,
            0.11635197091108714,
            -0.07253764664197579,
            -0.22401385400361618,
            -0.2408660334686464,
            0.12273624803567665,
            -0.2973205211542937,
            -0.18634430329961288,
            0.13261754437644982,
            -0.07294691994583323,
            -0.07817647283171694,
            0.1451770771377754,
            -0.022813706762495042,
            0.08573374347534903,
            -0.188206961057455,
            0.01177734726287221,
            0.12030771379470383,
            0.288830189033302,
            -0.16985161188922077,
            0.19344683548339062,
            0.02204393433412421,
            0.18983120140629275,
            0.08214728773362497,
            -0.1917020067522654,
            0.3863258959239262,
            -0.05845499447027918,
            0.03638947228396176,
            -0.15106647050828054,
            0.06437846606781192,
            -0.18253475944030162,
            0.02248873424041257,
            0.05159363961673968,
            0.016991123563976515,
            0.039270541448842386,
            0.30944649622950177,
            -0.2577585465477472,
            -0.12745493146790735,
            -0.09291124255072211,
            0.21235768320466153,
            -0.23358649253073469,
            -0.26334723671006943,
            0.10128453841270754,
            0.3001707008139211,
            -0.006241523776288506,
            -0.0779605003080859,
            -0.12560127045682679,
            -0.09130555573918725,
            -0.1169010197093123,
            0.053621815508313596,
            -0.26777658621887096,
            0.026113976831303603,
            0.013214163233762033,
            -0.056553569263613976,
            -0.10506303747789046,
            -0.1359522436475195,
            0.060330734164466056,
            -0.29974635846203984,
            0.10321851764946705,
            0.009362390196109065,
            0.06127874145538972,
            -0.16796834555293297,
            2.976141902187507e-05,
            -0.20251139725032197,
            0.044476446505014575,
            -0.0918117971064451,
            -0.03419178234502685,
            0.2523934553259444,
            -0.2957444003550566,
            -0.028602627252483942,
            -0.013215006320100855,
            -0.02849031074831628,
            -0.13781844463436008,
            0.32057215058606103,
            0.2260473579216679,
            0.1674505378380294,
            -0.20817529119789363,
            0.15809922288726916,
            -0.06772872965457302,
            -0.08330929911620025,
            0.018111619197774115,
            -0.07167134367188446,
            0.11020386466791023,
            -0.23547182374012154,
            -0.2874650739201267,
            -0.10941572369139797,
            -0.12670876304297252,
            -0.19777499671914722,
            -0.15341917659487622,
            0.034281851214208826,
            -0.3219420152749787,
            -0.2876528299889567,
            -0.10403021417330463,
            -0.22560491746373545,
            -0.09923806885303221,
            0.08941328761073057,
            0.0016963608325417066,
            -0.2001260678912465,
            0.10141275009362985,
            0.11956880618352099,
            0.06545833285792925,
            -0.03226397748056484,
            -0.13333272212774358,
            0.15701008941950614,
            0.08228595219361821,
            0.2431462662154224,
            0.19601448542383149,
            0.023823157573969543,
            -0.1627447777480865
          ],
          [
            -0.18608910793201577,
            -0.18069946246113644,
            0.26706055664827105,
            -0.02059941942749093,
            0.11942664675990841,
            0.0017237121047799463,
            -0.12471355917648633,
            0.2724602616854091,
            -0.12721911092915705,
            -0.12047042858590784,
            -0.1558484547792987,
            0.2249634120593454,
            0.03532530728993265,
            0.13206874748119607,
            -0.3195635637022596,
            0.20114111736066473,
            0.2963498039758727,
            -0.17649954988671887,
            0.017062043146089532,
            -0.015977650787522838,
            -0.09815938516881245,
            -0.37612608286061,
            -0.04956339952168839,
            -0.05872897032250311,
            -0.047013400363328316,
            -0.2531152110350067,
            0.09007516715366785,
            -0.3002152726676805,
            -0.33439316464231156,
            0.007204664515742559,
            0.03622287150979071,
            -0.17546768882452843,
            -0.14640348856070762,
            0.034143239440652264,
            -0.2782956677324762,
            0.03895423602976247,
            0.12921675062450869,
            0.08279532745161244,
            0.14038827100827445,
            -0.028221607719137735,
            0.19600935678112183,
            0.08626008185754562,
            0.13917286591111822,
            0.0510485650520838,
            0.02821519459164761,
            -0.1069899012069408,
            0.12048898245076105,
            0.042115138440436184,
            0.013259485843441185,
            0.09609502974718945,
            0.11329349102187211,
            0.15632540041614687,
            0.09603161477383605,
            -0.23258437011315522,
            0.2574549100300193,
