{
  "labels": {
    "labels": [
      "idle",
      "walk_left",
      "walk_right",
      "walk_front",
      "walk_back",
      "jump",
      "crouch",
      "climb"
    ],
    "rows": 8
  },
  "mlp": {
    "layers": [
      {
        "activation": 1,
        "biases": [
          0.22460025176797682,
          0.46512691617774127,
          -0.413804693921944,
          0.3415259440569992,
          -0.040561176384844425,
          -0.025493182201434594,
          0.5132217278550869,
          -0.09746293733874205,
          0.24597885380602283,
          0.271858929726221,
          0.41717226731255763,
          -0.26509486499483664,
          0.12024988257135712,
          0.13617124555989266,
          0.36734490854772495,
          0.37068502869553105,
          -0.15018881269069909,
          0.5268238991806049,
          -0.05791623233195008,
          0.056591849421351405,
          -0.16164528816896662,
          1.0931739171611126,
          -0.010320078636288262,
          0.22506818323290545,
          -0.042730608052542515,
          0.3471699159646955,
          -0.20232370064900604,
          0.2579580558042899,
          0.08316729664477786,
          0.064636891467937,
          0.3498752028087247,
          0.3162361299578723,
          0.22787634569879206,
          0.29357491591242174,
          0.7001543640295682,
          0.5257759888939997,
          0.24747184377735842,
          -0.15655753563357,
          0.18356293419032405,
          -0.21550263254102414,
          0.04867269761432993,
          0.3960881665029381,
          -0.08571110799663313,
          -0.02823767166696857,
          -0.022347562422405154,
          0.05680142070567129,
          -0.20349999421332576,
          -0.41732407069513067,
          -0.055603445262345265,
          0.010200793011497036,
          0.26563440353116324,
          -0.4351313465211528,
          0.2675113897049038,
          0.1957648542120065,
          -0.15252807701644774,
          0.11392035507811796,
          -0.10026408766449878,
          -0.18390839655706093,
          -0.37330265784916805,
          0.21540032748107074,
          0.1034200777960337,
          0.1091915636849282,
          -0.13844229459552085,
          -0.0006912648105456727,
          -0.302352653196135,
          -0.043571853568524416,
          0.18513502195304127,
          -0.6851922440911165,
          0.2096961141607417,
          -0.5730576333718295,
          0.40713733055451246,
          -0.15480274193960877,
          0.17329138391545904,
          0.15939894032390717,
          0.19926651226108985,
          0.08257841804014891,
          -0.03388003442083139,
          -0.08934275013106598,
          0.03793172546189429,
          0.12920608950859705,
          -0.16037852569681868,
          -0.027570941004313343,
          -0.025634768715217183,
          0.3487084916118922,
          0.03123463086400947,
          0.7497835125958027,
          0.1251261281702918,
          0.1334801691517455,
          0.3239504912719564,
          -0.40154096084258,
          -0.20463789769231422,
          0.49363244172741566,
          -0.19393691086499168,
          0.47233726162534523,
          -0.13291377307592345,
          0.136876300111767,
          0.28636486031277375,
          0.15047228749946936,
          -0.16286478728364406,
          0.1506355192224039,
          0.33651016457496447,
          -0.23724185480928361,
          -0.27265854049749016,
          0.4095257777420732,
          0.10737359124410328,
          0.4215797780473387,
          0.0018536581468116022,
          0.6332841262583073,
          -0.13673612182195646,
          0.07860659810146,
          0.21636324132043827,
          -0.08869881354664547,
          -0.1206276890007377,
          -0.07774607487668249,
          0.3599333131021083,
          0.10538037687230196,
          -0.7295065711607297,
          0.3137465907495732,
          0.3420303654849247,
          0.2503397774923412,
          0.11725538167801815,
          -0.027138464835188534,
          -0.05500197082451337,
          -0.05512644481058127,
          -0.025052658667520034,
          0.4037208601098321,
          0.6245597699068816,
          0.5140509497867767
        ],
        "cols": 128,
        "rows": 51,
        "weights": [
          [
            -0.18262528969760425,
            0.12583460759613724,
            -0.13124324398675316,
            -0.037474921768451325,
            0.047118833349239615,
            0.06998261445502504,
            -0.14470896062041463,
            0.04289473302764289,
            0.1433679763913363,
            0.06939034642051546,
            0.053298535671575546,
            0.07696690731480799,
            0.08343715622011087,
            0.032747952360950246,
            -0.11931965921653172,
            0.14951415410794533,
            0.07749212613786365,
            0.05867364745646451,
            0.11309525741989315,
            0.13751234525769432,
            0.144440763774599,
            0.05377905502032864,
            -0.08570565454096839,
            0.022232401031261066,
            -0.016555567794829473,
            0.11805689906748298,
            0.01485698777133025,
            0.024746746460782895,
            0.09041027421131817,
            -0.14454133759177987,
            -0.10155161818124392,
            -0.08752715811879977,
            0.1260804547048016,
            0.07667636073184102,
            0.10665853312031723,
            -0.06283069856660732,
            -0.12048184554839958,
            -0.07453078596531569,
            0.08461051742055442,
            -0.17755189936425794,
            -0.06806053706001278,
            -0.14688805999266694,
            0.11534140600359936,
            0.09228765213202784,
            0.041229677609870646,
            0.17651263658672223,
            -0.03788839190575048,
            -0.03853653428313834,
            0.04178842103865327,
            0.15200614980031585,
            -0.16268932415863985,
            0.1072508011548268,
            0.18154132744576595,
            0.11655946667834548,
            -0.02117078851657405,
            0.14943593002791572,
            -0.16817618462928532,
            -0.08921456327372335,
            0.05833840139919493,
            -0.11002216856158867,
            -0.08580622835814926,
            0.1633374665360277,
            -0.17092520229889588,
            -0.0014247957433957195,
            -0.07605056809160445,
            0.017270759383671248,
            0.04031333838666711,
            -0.1562972993333665,
            0.020723793773547914,
            0.07519010321127921,
            -0.10032238263792212,
            -0.126840345767946,
            0.16470080050225733,
            0.11558725311226371,
            -0.0027099056295957842,
            0.018745842035657403,
            0.17754072449568228,
            -0.008967832031961302,
            0.01556100449159639,
            0.0642052074014126,
            0.029987759822764023,
            -0.14793849763877828,
            0.13854043316665438,
            0.04245891315319245,
            -0.15865519660282923,
            0.051220010116504164,
            -0.12116351253151442,
            0.009917695860891775,
            -0.00886725821478041,
            0.16684637526878265,
            -0.059534112336789756,
            -0.17278023048245425,
            0.09579656086478278,
            0.06431695608716913,
            0.10302670083323008,
            0.1251082411387198,
            0.18033444163959547,
            -0.1289859205344713,
            -0.15549270879591953,
            -0.04190016972440981,
            -0.13190256123271665,
            -0.04806869717817009,
            0.18043501545677634,
            0.014700539611271117,
            0.017315458857973857,
            -0.04083855720972279,
            -0.11176544805939048,
            -0.07079837986104769,
            0.0642499068757152,
            -0.126840345767946,
            -0.02594245739837774,
            0.028546201776504826,
            -0.10425593637655188,
            -0.08814177589046067,
            0.03006598390279359,
            0.08750480838164847,
            -0.12276151873783275,
            0.02861325098795874,
            -0.026378277272828203,
            -0.06742356955120056,
            0.1691483981953671,
            -0.09723811891104198,
            -0.029551939948313562,
            -0.039173501791950546,
            -0.08471109123773529,
            0.14407199311160246,
            -0.05039306984190584,
            -0.1771831287012614
          ],
          [
            -0.17754826247432323,
            0.7075132567389342,
            0.1875200261289616,
            -0.2803088094023226,
            -0.2603836574066024,
            -0.2710634424335012,
            0.00023905650149068456,
            -0.3178651574506366,
            -0.13169629177437925,
            -0.12165889556215775,
            0.31668212277092406,
            0.09933929538163824,
            -0.2165224452973487,
            0.007187338283420978,
            -0.09322754483469475,
            0.4793070302040979,
            0.04298082710073501,
            -0.14709127293402277,
            -0.08926610774474665,
            0.2386524391070007,
            0.3237380664252523,
            -0.27208164184416195,
            0.19844523512375586,
            -0.1515229213527737,
            0.17528432263485588,
            0.43909443040501117,
            0.44187280641212295,
            0.24778149292889715,
            0.40077085443063654,
            -0.04705353943814276,
            0.1232389236700578,
            -0.2024327695891321,
            0.3323668483703097,
            -0.1459335847404717,
            0.782432098547952,
            -0.19151151508951866,
            -0.012340672230777,
            -0.592202841617384,
            -0.13983533090805955,
            -0.4718576199370713,
            -0.2944044476432543,
            -0.2867519371700307,
            -0.2782707657598154,
            -0.05354934535075942,
            0.22623641090666327,
            0.41555160007619507,
            0.5772269448705939,
            -0.49613041520660517,
            0.2204376045893161,
            0.02935502346517792,
            0.052652915721512886,
            0.5117082641995224,
            0.10834447724228913,
            -0.1166705257646439,
            -0.4727820736909913,
            -0.2269532201526878,
            -0.06251072475024723,
            -0.13981270877714616,
            -0.6702837375285852,
            0.29854444682956693,
            0.28536467815944494,
            -0.07893481247822799,
            -0.5522768404265637,
            0.2549571280235715,
            -0.09395329767745188,
            0.09189834050584861,
            -0.24408922021564236,
            -0.18643741799195376,
            0.359379974112281,
            -0.0038346722432424664,
            -0.37232301948883784,
            -0.3416227475219785,
            -0.15446755538765267,
            0.31356908938792694,
            -0.3884829359079057,
            -0.2571095570933038,
            0.34777577869795845,
            -0.048233312461488875,
            -0.10819307193712902,
            0.09986463893256355,
            -0.04862585981050032,
            -0.15972181601492477,
            -0.0656222729464788,
            0.1750531408057979,
            -0.3553247200174288,
            -0.5535672458009547,
            -0.330861618188466,
            0.38042692440811643,
            0.12047630564133884,
            0.024440752418691227,
            0.12029745491581899,
            0.6978178654950519,
            0.29157244886096695,
            -0.07401016333038313,
            0.24688416703961877,
            0.2170999360126135,
            0.015172931069123279,
            -0.024813008399302335,
            -0.14858209282328225,
            -0.029664699266454615,
            0.6307177941824961,
            0.04623733282238155,
            -0.031532701783366486,
            0.7902800154705845,
            0.19670768238863795,
            0.5996952890698743,
            -0.021234368555063405,
            0.051979935271717854,
            0.2777760243652863,
            0.3333393510813586,
            -0.41490631539030215,
            0.1701929253927877,
            -0.11198657968291932,
            -0.18021374191668899,
            -0.32181874248489106,
            -0.5069014952751116,
            0.14070782193680145,
            -0.2603892619745706,
            -0.2622512972806106,
            0.2679099279957883,
            -0.18327341138327163,
            -0.23555114976944422,
            -0.15579813517789,
            -0.30161177438072817,
            0.011578970184590216,
            -0.34679598625122715,
            -0.23598718456471174,
            0.9685508734263224
          ],
          [
            -0.32280224072776276,
            0.08730220102552293,
            -0.5344875731035276,
            0.3674704301678554,
            -0.4887128509076743,
            -0.8801917588056389,
            0.8716770416866645,
            -1.1028382656889701,
            0.18418590992561115,
            -0.10905705148730323,
            0.4896596219252221,
            0.031128886628478028,
            0.2919469970152309,
            0.5564398409620401,
            0.726206589937184,
            0.11709486253192183,
            -0.11409910173275761,
            0.4999881021640891,
            0.16349718811387662,
            0.07273900136219735,
            0.24694656920018257,
            1.0514770965844251,
            -0.39167574562776303,
            -0.5154349311025785,
            -0.3096508451770635,
            0.5017244565365955,
            -0.2503211267976796,
            -0.07907243701013475,
            0.7724531633565627,
            -0.38185640988452246,
            0.19683095118284033,
            0.5335916318671305,
            -0.11151763226502263,
            0.11120395981559145,
            0.23012442472918104,
            -0.3286827964811508,
            -0.4072573996393942,
            0.120957759991754,
            0.10517143122963635,
            -0.0611843361049686,
            -0.5744704389649558,
            -0.17731520961176384,
            -0.4689807040694352,
            -0.42612459763859256,
            0.2985205506146966,
            0.4601140346981913,
            -0.19211715291928919,
            -0.24339542937509784,
            -0.5990942738566071,
            -0.15814879791349398,
            -0.35608400889130376,
            -0.27345684610307697,
            0.7758691260806041,
            0.2868570903952096,
            -0.026646399097847207,
            -0.920233624491061,
            -0.11355893657227782,
            -1.116587613011661,
            -0.20216193312206077,
            0.148440686839493,
            0.1426728080001605,
            -0.8824074268951162,
            0.0006104541840589009,
            0.22761599969384472,
            -1.257491645624949,
            -0.26716298437836256,
            -0.04115348853106464,
            -1.0242398548797875,
            0.03001315982112978,
            -1.0466940221493235,
            0.41974359166232394,
            -0.19789184770169474,
            0.3531267422037414,
            -0.11124120435283698,
            0.29550229591717364,
            -0.3161728507288238,
            -0.27195586995273197,
            0.4140046559364167,
            -0.19578719409753798,
            0.1123035018830413,
            -0.8283061433259834,
            0.1008346976891041,
            -0.8287789968627852,
            0.7097165553873701,
            -0.41070936065702585,
            0.8077233963345023,
            0.36546331801202964,
            -0.2694464429900904,
            0.758593518178904,
            -0.6091064001798906,
            0.22134078794432072,
            0.0597518897045284,
            0.5951382025453604,
            0.8578871815301994,
            -0.7600310075630538,
            -0.2354798767709469,
            0.5600189105389415,
            0.5027034922959966,
            -0.17310931917244643,
            0.020843394198256704,
            -0.21818888567723405,
            -0.439782067553718,
            -0.09527186518059667,
            0.012384334451654842,
            0.018635728291875885,
            0.09548164925493566,
            0.273830150081276,
            0.4470090290091957,
            0.1419004960452983,
            -0.27941853431413005,
            -0.2231202259964115,
            -0.13888722018512095,
            -0.6616781305585705,
            0.16077518409592656,
            0.44890350000200663,
            -0.5898372380405696,
            -0.271574260924626,
            -0.08712729541804612,
            -0.2949942344376572,
            0.17317793462844366,
            0.0008819057830522005,
            0.415234671286699,
            0.08113045767143094,
            0.06348665558811101,
            0.3391393969880089,
            -0.19635789308439075,
            0.40208067663018987,
            0.2447071738124971
          ],
          [
            -0.02095136146772658,
            0.6963431552846632,
            0.5891318408285917,
            -0.6178937048792968,
            0.60829185332617,
            0.04922032312418724,
            -0.5224811621812107,
            0.3046028870157678,
            -0.38383478516197744,
            -0.1289347555710946,
            0.014658579791135487,
            0.5219362726230456,
            -0.18859136278838004,
            0.003987614708147766,
            -0.3077285823629806,
            0.21933075003252261,
            0.23032662376496504,
            -0.6155089887940366,
            0.5828262280019735,
            -0.44107642162811317,
            0.17859537500511735,
            -0.9385561593900692,
            -0.11991558637202228,
            0.37755953050998925,
            0.15888439199415236,
            0.2644914520145351,
            0.6607764516838405,
            0.25551566330919384,
            -0.10229042379678328,
            0.02632180011696327,
            -0.11036847610338806,
            -0.20174743567944475,
            0.3760754369587708,
            -0.01609735151884141,
            1.095676852635811,
            -0.6089597505425475,
            -0.34992534266059433,
            -1.0104088829520304,
            -0.3745624274077685,
            -0.44255696828960817,
            -0.10179467583717243,
            -0.5603859324225761,
            -0.06472266457362895,
            0.47412376024254566,
            0.15058819794898293,
            -0.17140421071558876,
            0.5983123623941345,
            -0.23975829336336243,
            0.7281586736937203,
            -0.2820678866046418,
            -0.2787863745067184,
            0.8358357632659287,
            -0.4760556169933291,
            0.34600133834899416,
            -0.8629572826382362,
            0.47906416736351054,
            0.47304141533746136,
            -0.16541124179477376,
            -0.41899726069233034,
            0.5279563680418818,
            0.18727525443911852,
            -0.2318351399201981,
            -0.9105233224015854,
            -0.3939315211093576,
            0.36385252039183846,
            -0.3940232504972715,
            0.025344347339523236,
            0.6383488380521722,
            -0.04406620796532288,
            0.455759577547316,
            -0.4921123429846036,
            -0.15837852682740985,
            -0.23899834856588034,
            0.6336697629928562,
            -0.2297733026429786,
            -0.11293332126707618,
            0.44488434899800905,
            0.5717674920249304,
            0.29444118928459273,
            0.15406731882604827,
            0.21790910687688803,
            -0.26630478228811566,
            0.07463991944073209,
            -0.5255432202236524,
            -0.16647305736881773,
            -0.6395134054783087,
            -0.46482683084686244,
            0.5028781427991986,
            -0.19094897622378199,
            0.6267246751589789,
            0.5022244694451735,
            0.7881238459104909,
            0.42749132200802864,
            -0.4224696197017628,
            -0.27589381198313145,
            -0.11195637960366658,
            -0.3150140872518637,
            -0.31503548820644633,
            0.043262915854532104,
            0.09370432792192317,
            1.0258839962519986,
            0.34778751559828847,
            0.5614816348548136,
            1.2543254996292452,
            0.11217024578764283,
            0.6208665728412855,
            0.36365763852818855,
            -0.5657036887125109,
            0.5094982861915616,
            0.3666793083551388,
            -0.14078305702053537,
            0.03281044121689462,
            0.42059700578632697,
            -0.11326210146657327,
            -0.5159961682057262,
            -0.26135275810810027,
            0.8629809003950338,
            -0.28431659252064484,
            -0.3813777068536325,
            0.3153860139571066,
            -0.25760366376636895,
            0.13041222238692157,
            -0.46741774090753313,
            -0.17749484941340005,
            -0.03196657296517387,
            -0.4965909315179561,
            -0.7128252971774643,
            0.945129582424264
          ],
          [
            0.0013758620864608767,
            -0.1794069298416294,
            1.6149337262273162,
            -0.4095383853562099,
            1.3349638912037844,
            1.4046965920732737,
            -1.214418727800852,
            1.5126821776202246,
            -0.9176163882354947,
            0.8468552160239038,
            -0.5959225875561592,
            1.3440626563269549,
            -0.054498396278896306,
            -0.3444759843896394,
            -1.1850620845039328,
            -1.1818648144777308,
            0.7356728274819752,
            -1.707110398332301,
            1.3242682900417313,
            -1.4466030088695474,
            -1.1829068480706186,
            -1.999805516924478,
            -1.4550317880256074,
            1.9553789080049906,
            0.8478014742934596,
            -0.8999361769258626,
            -0.3966664419241661,
            0.14692083817835222,
            -1.3837711785481666,
            0.36939877355199346,
            -0.501936444619908,
            -0.5667003359188796,
            0.4753869464764402,
            0.7279961244897954,
            -0.005169546339857172,
            -1.1909372048817906,
            -1.3168320170159686,
            0.022184466092960625,
            -0.6739295227101579,
            -0.2667098499524001,
            0.4650158548672645,
            -1.2313246586686064,
            0.3428600570046574,
            1.2887488071748303,
            -0.8567970818686104,
            -1.0870057192971245,
            -0.6667913407110626,
            0.38093160369119955,
            0.49828782758494766,
            -0.5155759705854766,
            -0.9033550954842189,
            0.5449577249448827,
            -2.287851232927852,
            0.95879951763399,
            0.17472513407795517,
            1.6822521191453126,
            0.9499615631459871,
            0.25934993758115316,
            -0.3850531980555712,
            0.7151195327502384,
            -1.1929061136163526,
            -0.9747918324688711,
            -0.518885495806253,
            -1.7810450889956033,
            2.0213659177263827,
            -1.9359854620557444,
            0.23430135093344262,
            1.7026208840789394,
            -0.5728271119744524,
            1.7867530186010077,
            -0.9841137820623929,
            0.07054056371951997,
            0.2933281755493261,
            0.347472386914148,
            0.4976487980563602,
            -0.5915424537941518,
            -0.4351913433500904,
            1.0568224905591026,
            0.941494238222728,
            -0.660514187425811,
            -0.6870854288593702,
            -0.2726683924416158,
            0.2554391293427048,
            -2.5876741368103664,
            0.9948455574706323,
            -0.3382355745057547,
            -0.9817995635820084,
            -0.35366454524056506,
            -0.7710122780136824,
            1.408046381447885,
            1.7794993567510147,
            -0.44737615422171073,
            -0.3241255089864581,
            -1.5931499592361218,
            -2.576307238312912,
            -1.4762012215551006,
            -1.2207950804409449,
            -0.9097664767503434,
            0.45077012706633535,
            -0.6057689817503088,
            0.4127662003749649,
            1.082849264699896,
            1.582111762479245,
            -0.24002346684883838,
            -0.14109432539084316,
            0.08351887652970003,
            1.1710666810651598,
            -1.8952771361219125,
            -0.5364571812014548,
            0.44679958322784386,
            0.4728760152628742,
            -0.02386795396445761,
            1.956196678739822,
            -0.31210085719082103,
            0.15602748050486712,
            0.9524611104634815,
            1.714882573734188,
            -0.9285074568678221,
            0.08503922538127984,
            0.20933015926296247,
            -1.4122634494749282,
            0.34636802166786507,
            -0.6879562447169884,
            0.3035410698478066,
            -0.37188446358559096,
            -0.42123657545517135,
            -0.8938904242367204,
            0.10982252626426751
          ],
          [
            0.48816708464691616,
            0.6512839772691154,
            -0.7086045007589016,
            0.44096949035723065,
            -0.212431823551173,
            0.18752321181071277,
            0.1420572874143515,
            0.059711844759376916,
            0.11054785556080333,
            0.3594126696661382,
            0.6063761713858465,
            -0.5041036548439208,
            -0.26160299658428166,
            -0.5808024905370511,
            0.0921229558591528,
            0.6548384170226705,
            -0.12404409783104967,
            0.5209593639276394,
            -0.8127968126775852,
            0.6732746604935138,
            -0.10250090281432306,
            0.5582061644173555,
            1.1056500181780735,
            -0.3451710869521958,
            0.1100815364081907,
            0.42123855923551384,
            0.43844887092269297,
            0.36138890949485,
            0.14845836314658287,
            0.6171051882502467,
            0.6455823443954224,
            0.4493950510258929,
            0.1317273015203794,
            0.01383706263334658,
            0.7168352892061652,
            1.3319030770621556,
            0.9198952395509187,
            -0.8103472137910567,
            0.7468578228826374,
            -0.20492655916723998,
            0.6150764180880394,
            0.5252302654721135,
            0.21955632942199585,
            -0.679293666668298,
            -0.3453183657927462,
            -0.223177386481684,
            0.6688188545192733,
            -0.20810061122893925,
            0.2604396389334616,
            0.7198862656943509,
            0.7164893417102297,
            -0.21392425564826192,
            0.55600514043155,
            -0.7056394397720832,
            -0.3137396271170109,
            -0.29122083651862535,
            -0.7150605497881297,
            1.0331998573250005,
            -0.1054736392725666,
            0.05260053930906364,
            0.3830047418624912,
            1.3300432453255921,
            -0.5874781216366487,
            0.4341073616407631,
            0.11136823878503412,
            1.2421156953025085,
            -0.21200639511086528,
            0.16004994860823324,
            0.5637393697869922,
            -0.1086255687254031,
            0.2722014772133128,
            -0.1538076722476223,
            -0.4829980161003275,
            0.43332646238369077,
            -0.5955966926259088,
            0.40574372524978747,
            -0.0796974510876318,
            -0.9826073816041236,
            -0.10730158574973996,
            0.0822428551168729,
            0.869674473241243,
            -0.24047733340302643,
            0.547649780255831,
            0.7218894071865157,
            -0.22875817125376985,
            -0.23827545274070572,
            -0.26284702021822093,
            0.5666604006377463,
            -0.01566399584047507,
            -0.501920139185629,
            -0.97724317644106,
            0.7313376606393308,
            -0.7297181662218319,
            0.44465185839697086,
            1.3119274510969792,
            0.6586207187079762,
            0.2443924572928863,
            -0.15217775256256505,
            -0.7149115521264751,
            0.41835625680137506,
            0.5443169356671252,
            -0.31050468565613,
            -0.9915498954287492,
            0.7788609850918352,
            0.19666761309893144,
            0.4833168400720378,
            -0.9928383725594513,
            0.644454470805118,
            -0.46048669730626535,
            0.2526247044422907,
            0.25396379435476696,
            -0.0974338823947813,
            -0.3623316889132523,
            -0.15899124285495705,
            -0.6210353567583909,
            -0.09862003663462544,
            -1.1133961229626437,
            0.25371137234983315,
            0.528360518143034,
            0.011610567360233758,
            1.024297821241011,
            -0.5277117632421893,
            0.12715287157530883,
            -0.678681204952042,
            -0.19751732833289826,
            0.7866283997142758,
            0.2727858131185926,
            0.4080222739684607
          ],
          [
            -0.24089136508508394,
            0.6775209459719453,
            -0.4256613790916619,
            -0.09657952747460391,
            -0.9001357984758821,
            -0.7667112936651201,
            0.6002856030560776,
            -0.8101155517513022,
            0.04455346210646384,
            -0.16025332125571806,
            0.7489515828694149,
            -0.19662789223831328,
            -0.38967243815451375,
            -0.1076939790699748,
            0.4755163008758759,
            0.9580778097637452,
            -0.21932225554624052,
            0.22022105359445654,
            -0.4597564714429384,
            0.7157187678154414,
            0.40716200898323496,
            0.2711962331698677,
            0.09907547623066748,
            -1.0284563442995396,
            0.018748566477812128,
            1.31648814504911,
            0.7167795634976909,
            0.3994412308636817,
            0.7833550461414592,
            0.053845206496259505,
            0.7590995053390587,
            0.3352145007306204,
            0.5491148995548927,
            -0.14689521719071133,
            0.899297383897859,
            -0.18551405411189334,
            -0.04270946301545271,
            -0.7738321057282913,
            0.4430389898464862,
            -0.6284939730322892,
            -0.2761662652827395,
            -0.048329740318745325,
            -0.24947995940775575,
            -1.0508144616109043,
            0.07897251549569352,
            0.2761915585916177,
            0.8382927583562929,
            -0.7950022219421937,
            0.23363199712096142,
            0.3571988197675806,
            -0.17687445402491875,
            0.4109052807394522,
            1.1148123290803824,
            -0.4436979939501755,
            -0.9227818065843708,
            -1.3574765628464305,
            -0.5081520841237579,
            -0.34160849293958084,
            -0.46911055514838024,
            0.2342081581323836,
            0.8242300325947362,
            -0.12492849221988447,
            -0.6055234212633949,
            0.5503399436059143,
            -1.1203203845815053,
            0.18779684680694425,
            -0.5286416809138125,
            -0.5337220483025162,
            0.6629005258552121,
            -0.4494903429808854,
            -0.09936104495325133,
            -0.7840553335157512,
            -0.6396805326080083,
            0.31135734318727515,
            -0.6264714562610517,
            -0.22511130493342854,
            0.2727515849333605,
            -0.2387285776792573,
            -0.06164898242855818,
            0.3366145730576838,
            0.06289080726470252,
            -0.17479969502589798,
            -0.6383132017870112,
            0.41231708122055477,
            -0.7862205856378264,
            -0.49774539727148887,
            0.1492075390071963,
            0.3934126087210005,
            0.31121221692974,
            -0.6873060048867077,
            0.010189470238228686,
            0.8281019467957463,
            0.1880262310778057,
            0.3164708545137906,
            -0.09020044764418521,
            0.004338723602061141,
            0.8722530203087404,
            0.37943189614625883,
            -0.8831953077774187,
            0.2995931881261425,
            0.6916126070823205,
            -0.5005827688216371,
            0.042972394392909154,
            1.0089839278624875,
            0.2661327969304952,
            0.5916543614766608,
            -0.23506989667553604,
            0.47404846701753656,
            0.14872452202164993,
            -0.15334544762727484,
            -0.4328578195023605,
            0.04346818700572697,
            -0.7403133987781527,
            0.038345594251063465,
            -0.28470284131661755,
            -0.6095511439277774,
            -0.025389837167321586,
            -0.19647249326040486,
            -0.43236245757672365,
            0.16006171690175325,
            0.2354246510738182,
            -0.3172769788221868,
            -0.21585419892962826,
            -0.25265577352890045,
            -0.13809637783224696,
            -0.22903854645363023,
            -0.2855181783432347,
            0.8577739501230953
          ],
          [
            0.014298593951552516,
            0.8450608917144191,
            0.26026886898877966,
            -0.35693100351969087,
            -0.08717019488111818,
            -0.09424733605226139,
            -0.45510339338903655,
            0.02630367363530437,
            -0.28743569443687844,
            -0.27470686368340663,
            0.2997777029976068,
            -0.026421448459479382,
            -0.24149833860711062,
            -0.2641500420518136,
            -0.08648120310402425,
            0.38935247687489855,
            -0.1897642263773723,
            -0.17421845327301594,
            -0.21608739065383017,
            -0.023015001372192426,
            0.3979331982480825,
            -0.46525725109078137,
            0.38319010132481374,
            -0.3262167600696088,
            0.2018604181570912,
            0.6388089084610101,
            0.7162657656284525,
            0.17128860238917454,
            -0.03247133391164289,
            0.023656568412151177,
            0.176929600434639,
            -0.08685323164441476,
            0.4478406465409134,
            -0.1601799432154887,
            1.0261169820095435,
            -0.1832595072263022,
            0.20574123942165407,
            -0.9282474242478119,
            0.161098386841884,
            -0.7032704039733356,
            -0.08550855001016261,
            -0.15714585606236128,
            -0.280980881219481,
            0.05592040150637465,
            -0.1932823453682864,
            0.14686201897659604,
            0.7228366628675198,
            -0.504983493578115,
            0.7163522327992164,
            0.30584192310309566,
            0.08408880567273999,
            0.30156455214893574,
            0.10176927754171589,
            -0.44843791203866834,
            -0.6389235261876539,
            -0.21956002985455297,
            -0.1621522760306696,
            0.25721338727202614,
            -0.4239105035764028,
            0.3572348666665393,
            0.43338929157485806,
            0.397032986826066,
            -0.7238858366965538,
            0.07079497558071257,
            0.08766004963387844,
            0.2589740825762678,
            -0.2834521530976895,
            0.49040192641652985,
            0.5242067423092186,
            0.258676751977675,
            -0.44843433503871843,
            -0.22002419089817463,
            -0.5907333720130601,
            0.4064853363430058,
            -0.5344389228545581,
            0.1496965987921951,
            0.45581482917077065,
            -0.26131594820286214,
            -0.009351956312014966,
            0.23551301381747,
            0.4058588994874197,
            -0.19537596916434802,
            0.2739586695137081,
            -0.10486099776349127,
            -0.1958951461916155,
            -0.8938367581219304,
            -0.4991634622200374,
            0.6064190525603741,
            -0.25280720375737303,
            0.12158470029565789,
            -0.2109115217080272,
            0.6219520556232069,
            0.22519877759075635,
            -0.3204666705752967,
            0.9025732966399019,
            0.01407916367840898,
            -0.21177086644392945,
            -0.12534454982829657,
            -0.31554934236836407,
            0.04284384915691577,
            0.8688276708486938,
            0.2530981404569196,
            0.05157285702833645,
            0.9444696358680101,
            0.10318079925029719,
            0.42258045457786225,
            -0.14288551051806428,
            -0.4245945989209801,
            0.3861744831262987,
            0.4065816511181526,
            -0.17060161116147984,
            0.024487270723856053,
            -0.08663262818834806,
            -0.26140134655680003,
            -0.6290278845699256,
            -0.3462647898768409,
            0.3216207238667983,
            -0.04572264929989963,
            -0.2162081999201295,
            0.1714943160634442,
            -0.10598112481126001,
            -0.11431939807553677,
            -0.14778667914144344,
            -0.45470553134244146,
            -0.07461224533298673,
            -0.22211080789164336,
            -0.5924436008311603,
            0.9488238684825111
          ],
          [
            0.4385206844938717,
            0.10572146194553966,
            -0.6983614047009851,
            0.14679551411756014,
            -0.3299959588668904,
            0.29152525582471606,
            -0.24047468059340738,
            0.40879893388893107,
            0.05044568775287989,
            0.20822367982895393,
            0.14678367164360157,
            -0.6898407713387228,
            -0.29647893882945875,
            -0.5892566682704966,
            -0.2821690115686248,
            -0.035451260397458065,
            -0.27704839938147496,
            0.35358753308809215,
            -0.6936424872469059,
            0.530691919581729,
            -0.18246178870112387,
            0.4256141859775939,
            0.5683893213674689,
            -0.15567723153272822,
            -0.10684941341211596,
            0.06075107606403218,
            -0.2662064432167814,
            0.13174026943775624,
            -0.29436659649374025,
            0.40645195883498275,
            0.220378001876656,
            0.09812247477025761,
            0.24233524773225867,
            0.14951532451478425,
            0.15238113668252662,
            1.1460720646650997,
            0.9386640613538089,
            -0.0843499113382099,
            0.6245116448716117,
            -0.13779427686435802,
            0.7623862680749623,
            0.6235361208831026,
            0.25157428051878006,
            -0.3292623891742784,
            -0.2641538245234144,
            -0.3646002016259686,
            0.2626371297530682,
            -0.09117572854369836,
            0.17516972196469638,
            0.5555837193134824,
            0.6947976751928057,
            -0.46669734105913113,
            -0.29991689964678125,
            -0.7964743125117338,
            -0.12896525669565548,
            0.3676032523208576,
            -0.44008607688281953,
            1.5249905122251413,
            0.04647535196591944,
            0.12165839559880655,
            -0.1807453292908076,
            1.4081476771333068,
            0.035852228247116515,
            0.24755972848780708,
            0.6903515429218757,
            1.0531357170043785,
            -0.23242260135773396,
            0.288164252468375,
            0.20218431993255237,
            0.06373260923826925,
            -0.017624213952175918,
            0.3930601440138917,
            -0.5265458388831961,
            0.04730466794366539,
            -0.5221720430802848,
            0.5009828914951711,
            -0.1845190923341729,
            -1.0613120690511766,
            -0.1431201389583701,
            -0.24233224304975767,
            0.9319529539748445,
            -0.10891011336848283,
            0.8232994270420418,
            0.24690186843708184,
            0.15382028352004581,
            -0.16425318012028733,
            -0.10397910618094817,
            0.2911658105408414,
            -0.40980968477428464,
            0.02377511991070736,
            -1.041135622306951,
            0.1479265514162371,
            -0.7742801869988319,
            0.13545408745150078,
            0.8959313922734948,
            0.2801884709574698,
            -0.08412910667440802,
            -0.019127418209944423,
            -0.28134608718674436,
            0.21992147047005345,
            0.17922266318807453,
            -0.16323347275306438,
            -0.9491484469586777,
            0.324815440923335,
            0.13176578123354596,
            0.2588369159583934,
            -0.8107767449110808,
            0.2944845208662042,
            -0.7795907406804095,
            -0.19215746952980486,
            0.34788273537704123,
            -0.07632335883638586,
            0.06700330689956996,
            -0.2336734543309789,
            -0.5453015774147392,
            0.3168714052364867,
            -1.1419463555002913,
            0.21384135413208025,
            0.775653706825767,
            -0.23205193788466622,
            0.7195628311076955,
            -0.706666122266768,
            0.0306973711163798,
            -0.5151189708546589,
            -0.5902934069115021,
            1.1572973760754899,
            0.49264770092193455,
            0.03805810144032995
          ],
          [
            -0.543760724586643,
            0.09422517883493686,
            0.35538784665748074,
            -0.20740874777115306,
            0.061539487339241576,
            -1.129502379001172,
            0.86453446872715,
            -0.9820769959177589,
            0.2230116601310607,
            -0.2812757584225141,
            0.278182206029974,
            0.6526582113429165,
            0.027100461716218223,
            0.9346433221962579,
            0.8346673663798928,
            0.021007772394614144,
            -0.007249976871728354,
            -0.1578234640554891,
            0.667388284082866,
            -0.2905670202674014,
            0.773906747279246,
            -0.011610926516080084,
            -1.204310626117124,
            -0.02076581071654075,
            0.024924784388606784,
            0.7411225728670697,
            0.15376964017787206,
            -0.04781184688004545,
            0.9026242633403551,
            -0.6289367178957398,
            0.11450033123363307,
            -0.12807857074974538,
            0.2966604794795113,
            -0.07798382937581715,
            0.7018032140541735,
            -1.4726047264470978,
            -1.310185214219262,
            -0.15554917404534824,
            -0.7140167976592191,
            -0.4150227847042822,
            -1.0929358062151582,
            -0.9600344040712829,
            -0.7387351758931169,
            -0.163688525918444,
            0.9605832893618389,
            0.9406587328315306,
            -0.10287252817690329,
            -0.7232311372797958,
            -0.27612181518837614,
            -0.8854214185743462,
            -1.1700055404313578,
            0.6748314169846118,
            0.964261964858679,
            1.0214868312990795,
            -0.5163856989771913,
            -0.8837086441338331,
            0.6475188086230409,
            -2.5505775326609434,
            -0.8009143558370128,
            0.12690308336131517,
            0.502503444193607,
            -2.2277745197935994,
            -0.5937141829380824,
            0.22317299152448355,
            -1.694810857037196,
            -1.318363005075585,
            0.15649823559078876,
            -1.155466766496762,
            -0.1809038523393458,
            -0.9606064955016193,
            0.035955867293827895,
            -0.9022540553049786,
            0.5946443150139453,
            -0.1350906305283709,
            0.6785165315872583,
            -0.6095892477573458,
            0.35566028378058856,
            1.0800127183587251,
            0.15394157444101159,
            0.4917462686951711,
            -1.1785977274523989,
            -0.03795511946237143,
            -1.189140712938068,
            0.26701135149896843,
            -0.8613576281771556,
            0.44774810864019277,
            0.2762683646038333,
            -0.45618946316233483,
            1.0612077795297732,
            -0.30127081182191556,
            0.983798248670264,
            0.5422655836439216,
            1.2956966519533615,
            0.4798043716183238,
            -1.4119432598252475,
            -0.5216280171781009,
            0.36110158979834966,
            0.5164053447021378,
            0.0114907267679258,
            -0.014600640478613505,
            0.44316286407901695,
            -0.024435348524775285,
            1.150066477558629,
            0.6624842226464913,
            -0.021117806380882696,
            0.2963217330661251,
            0.6769170859967821,
            0.3225478295849442,
            1.1468748220840395,
            0.18264010733510316,
            -0.683226136526593,
            -0.18129537342832086,
            -0.19835193247242627,
            0.48582501798887356,
            0.8103540177405829,
            -1.1549717444874097,
            1.345864552906746,
            -0.353450658515483,
            -1.2052947884156404,
            0.5923685200286408,
            -0.5716283386466202,
            0.6020360404086003,
            -0.2804936335510304,
            0.26856466285381325,
            0.7574555364180723,
            -1.3138366065868965,
            -0.18011141810533213,
            0.6999404324312667
          ],
          [
            0.2714458881805748,
            0.2692530328550489,
            -0.4899664204167496,
            0.38334291271940174,
            -0.29507223289273543,
            0.44778670233919676,
            -0.04432220228244758,
            0.3575174261657467,
            0.1308421508507713,
            0.13173444067590914,
            0.455385310545954,
            -0.56977649744629,
            -0.2515465114408099,
            -0.4865286362418125,
            -0.17467149853361333,
            0.38332944495370824,
            -0.27196776924977933,
            0.5202842403845767,
            -0.5218979711029358,
            0.4203370887460459,
            -0.46362930474578273,
            0.7821054121559998,
            0.6718187970856143,
            -0.20624796956003824,
            0.0013154598573973668,
            0.15588364548010933,
            0.10843944627605837,
            0.36660331759488546,
            -0.1935989160422984,
            0.6090238060427748,
            0.4347490730036286,
            0.34132246941111516,
            0.0709467209902273,
            0.2042821560664482,
            0.4071465221611054,
            1.1002722586328109,
            0.764777915533389,
            -0.23115517108163003,
            0.5153724918626784,
            -0.10839084784485647,
            0.4660705891967985,
            0.4116249423719231,
            0.342562367949681,
            -0.3645275206839974,
            -0.39719460321684874,
            -0.4656269820578664,
            0.15631084335123438,
            -0.144281117137672,
            0.2654371813105453,
            0.4873560079546663,
            0.8294078216549631,
            -0.5374276106225545,
            -0.11023018933354015,
            -0.6395108430490404,
            -0.10507784118904503,
            0.24843793102124057,
            -0.6631125583351165,
            1.4534727114167731,
            -0.06876560679503421,
            0.18158350645126992,
            0.11796604566089806,
            1.2719731733470019,
            -0.10794889164289752,
            0.09916842191594429,
            0.46008564789722345,
            0.9265204981627819,
            0.09702919577052295,
            0.09641122131285154,
            0.26334456617071744,
            0.19236167427839643,
            0.13520337697376206,
            0.20951197373562483,
            -0.3090614600662709,
            0.06848623497216942,
            -0.5051251468774366,
            0.47925552549691613,
            -0.19292024149398004,
            -0.713380264904762,
            -0.2040959295462542,
            0.1309878193314975,
            0.6087765961900403,
            -0.35944018247989085,
            0.704473851280207,
            0.2502622694085337,
            0.1760526493698433,
            -0.14730931654199628,
            -0.3670112569673163,
            0.5397896235155604,
            -0.3758139227086367,
            -0.268871118342555,
            -0.7867564117861076,
            0.23745175377472502,
            -0.9384938813397247,
            0.13912733858981224,
            0.8730526850210724,
            0.5916236292680314,
            0.03662722304007428,
            0.07287731197753078,
            -0.34852099069110215,
            0.18876417004404528,
            0.29235144073095987,
            -0.3996872168028949,
            -1.076555583326566,
            0.3472165482686596,
            0.06347890863310107,
            0.2893893597434409,
            -0.6730445753340883,
            0.38110326895979435,
            -0.7615557341701283,
            0.10488460060975811,
            0.3556864228804503,
            0.038613686025857144,
            -0.11217231460978094,
            -0.36641727549690095,
            -0.46916120660982114,
            0.3434362874348028,
            -1.1254198631403336,
            0.2534190412631806,
            0.6740687211618629,
            -0.019278373493076654,
            0.7381482831001976,
            -0.4818122557974907,
            0.11577482010922292,
            -0.291401970515742,
            -0.3785089775817946,
            0.7919998525266896,
            0.22677305617269644,
            0.22599491481846343
          ],
          [
            0.2096521702114085,
            0.3084281947896898,
            -0.03344886636475927,
            0.1157301629275419,
            0.1368359002236852,
            0.08107636949789199,
            -0.05545724821682257,
            0.14686298415877658,
            0.010318259227742287,
            -0.11443087413246769,
            0.12579200846648234,
            -0.03501647586965996,
            -0.006275606111187461,
            -0.06572117580390685,
            -0.17127011448057555,
            0.17711777108110785,
            -0.03894789972804668,
            0.1492206391078964,
            -0.3058653852996934,
            0.1177221525417655,
            -0.031218276568613656,
            -0.17167340380999288,
            0.29270569748792236,
            -0.2816177224108714,
            0.12297268968032853,
            -0.06394345099104472,
            -0.07534017429522101,
            -0.08851019447273728,
            0.16807533281514556,
            0.17735723398857828,
            -0.010043541786950395,
            -0.18285610610307157,
            0.12803372795698584,
            -0.09127063316587737,
            0.12703421979359866,
            0.2080961993568002,
            0.4157125920543968,
            -0.03920477984345249,
            0.19326965272016194,
            -0.19571697423876322,
            0.3882861473261935,
            0.25545839849254043,
            -0.00957385562516707,
            -0.18643307290897296,
            -0.07201269066224078,
            -0.027577947553070192,
            0.28252907915505726,
            0.07287189485078807,
            0.44762545720723423,
            0.3045086871880041,
            0.4156467082997051,
            -0.010522679550806427,
            -0.04812638143638972,
            -0.20364707061096823,
            0.08127016480201894,
            -0.21130846850342946,
            -0.22451725548937732,
            0.7864899955821224,
            0.17018237396149755,
            0.11461070738446322,
            0.11116559519728661,
            0.7044973576314975,
            0.02104881832442976,
            -0.019615970532883754,
            0.3789932050371777,
            0.3601650177623844,
            0.06434360882801608,
            0.174063476394005,
            0.3600625569890209,
            0.0655579819819685,
            -0.18425946692529677,
            0.04490057373341796,
            -0.12746577930131175,
            0.18870261988572481,
            -0.40961397227592644,
            0.19827052771225362,
            0.14478068343536854,
            -0.26456754407057487,
            -0.10543271633702177,
            -0.1189015777145579,
            0.5783418398705296,
            0.03221447486900185,
            0.2245791275289989,
            -0.1395416283984879,
            -0.0037083815732292277,
            -0.5776807037694418,
            -0.1677228969796177,
            0.36918277050205645,
            -0.05352297132385893,
            0.1228502927756492,
            -0.1891613710024582,
            0.06572505675074454,
            0.13504186106537805,
            -0.2712800204550088,
            0.3732088304271871,
            0.2648278468740538,
            0.17393300781365226,
            -0.06556548051929646,
            0.0024899489881389084,
            0.20064988348756385,
            0.07054884929621744,
            0.0926807291849744,
            -0.36647129121599703,
            0.27178736996417924,
            0.0026432233025275786,
            0.05309567841081584,
            -0.13237770797910164,
            -0.2975538299675809,
            0.028892345031200504,
            0.09790745533334709,
            -0.15743368168591532,
            -0.08214544163457628,
            -0.024022028533804664,
            0.04538708882143078,
            -0.30643685718679237,
            -0.03637700085068827,
            -0.1718327680149894,
            0.021602708315405773,
            0.054112824818440416,
            -0.15703939969309488,
            0.1650738966637444,
            -0.29821187079657957,
            0.13180557924138175,
            -0.15723628562662287,
            0.08869802842497512,
            0.4390219371912701,
            -0.07680840889330573,
            0.06241756362439167
          ],
          [
            0.039950659196741956,
            -0.3264925258464858,
            0.041444081983441516,
            -0.21316480470815408,
            0.03370386041691746,
            0.2063412804827267,
            -0.20776577601000948,
            0.3373252082335278,
            0.09564625951686963,
            -0.23349825143089345,
            -0.2512053776436665,
            0.18830010149620344,
            -0.1465602297319491,
            -0.11240214161304181,
            -0.10710011125764136,
            -0.17842308638690604,
            0.05044320611310429,
            -0.17582484238750481,
            0.011642960542719901,
            -0.24361837719617632,
            -0.007481153756337531,
            0.07360060490202155,
            0.07184376194614141,
            0.3634993653638492,
            0.11597417187604472,
            -0.3687746810575242,
            0.0332701818798061,
            -0.3526830447490165,
            -0.36274144167374445,
            -0.12324873720521108,
            -0.3596635738013275,
            -0.24569591062854554,
            -0.06962719592841184,
            -0.2873260460512975,
            -0.09832000983731017,
            0.25159500481598973,
            0.11100470279601873,
            0.25364640591030235,
            -0.061461519955245236,
            0.11575755816433089,
            0.11922803943761963,
            0.20590522502219144,
            0.34658960374596676,
            0.2067812630598509,
            0.01453822066118155,
            -0.01694254573325267,
            -0.14995387409756233,
            0.31589828803975517,
            0.07121283035991526,
            0.06422197827984949,
            0.0009062116858858535,
            0.07185180608345733,
            -0.18739407904083794,
            -0.17941805738716232,
            0.16023749731498163,
            0.3935456133871497,
            0.21302019052598622,
            0.17885927510548721,
            0.37267708595436927,
            -0.18323648269777373,
            -0.23882184848009394,
            0.23582703709854802,
            0.004549530833129746,
            -0.11559832054169131,
            0.4095411434450246,
            -0.09725107021628444,
            -0.2364423070007944,
            0.22901234715407928,
            -0.2987439418124118,
            0.3079044999584642,
            0.09513110650597044,
            0.18060852121480578,
            0.035703355569043776,
            -0.24591492891603792,
            0.06894826215612575,
            0.1575280090623848,
            0.17532522065903844,
            0.034822891643635306,
            -0.23561759193459214,
            -0.0718459752908744,
            0.22041021885409334,
            0.12498926390051537,
            0.3022761058330181,
            -0.053320080414845955,
            0.33870982511704584,
            0.23914982034468282,
            0.23681357207072673,
            0.01184079613048147,
            -0.12250567139730252,
            0.06320110270971746,
            -0.033957111883653704,
            -0.0967846386751482,
            0.12355530618638047,
            -0.2799083049787251,
            0.22500325647376226,
            0.030406728176736474,
            -0.3236346099166205,
            -0.06468929323013893,
            0.33880881756742887,
            -0.21519647728177133,
            -0.2729879742857613,
            0.14052572064912422,
            0.1168151088327461,
            -0.31769204302175963,
            0.024579084426295885,
            -0.41013780646809306,
            -0.024567026166775426,
            -0.09907841191447131,
            0.03928582344541264,
            -0.011911822622508533,
            -0.21805328823066641,
            0.025246117862622756,
            0.14629119849172675,
            0.2998318750826728,
            0.07834635638260985,
            0.2691048514710582,
            0.00849605756238621,
            -0.0024314320837303927,
            0.14162629182158123,
            -0.00033510278129336246,
            0.02907884565946715,
            -0.0951542827729833,
            0.30588761768419453,
            0.20435503401003205,
            0.23502700443405716,
            0.1413616039117982,
            -0.27106907790985846,
            -0.4528145903530618
          ],
          [
            0.06932526000288523,
            -0.00016325228365587894,
            -0.20386738445360839,
            0.18421040769180677,
            0.0072059303555028036,
            0.10092739267266633,
            -0.21057981727973982,
            0.2547883382650717,
            0.16098812620543043,
            0.12981028923742016,
            0.07437108262277078,
            -0.051307102815720734,
            -0.15843464847307556,
            -0.10001596722146067,
            -0.15251235270274063,
            -0.11961778585773802,
            -0.09344570991462177,
            -0.12840452966223515,
            -0.27425794844502116,
            0.27457443798554204,
            -0.10404271470738673,
            -0.16386181180805917,
            0.1836911306876249,
            -0.24340711226856357,
            -0.15326486833413946,
            0.0422630756374256,
            -0.11746461142646016,
            -0.11293169144056683,
            -0.0844709306108182,
            0.145619253171518,
            0.19122969515401367,
            -0.08356437933030576,
            -0.02645839695978409,
            -0.0772062376241331,
            -0.060680517025835566,
            0.11705025416711237,
            0.20233221007251256,
            -0.08843340856475158,
            0.12007935907814378,
            -0.1315884728133604,
            0.19187838302309565,
            0.17740482982124325,
            0.20098522870861624,
            -0.09189756776211994,
            0.024286730131273686,
            0.011351035930616635,
            0.3500299265330007,
            0.15255334469727896,
            0.40235835505424256,
            0.2410400800087489,
            0.3178169440494645,
            -0.1839728671185086,
            -0.08498644233660084,
            -0.08639550107030042,
            -0.14104088550574945,
            0.1770806667327313,
            -0.26054826911668083,
            0.674119324662477,
            0.15564629632774568,
            -0.14038326784494498,
            -0.017747060990740103,
            0.40932305378214523,
            -0.15059182504369156,
            0.18981368650712868,
            0.3206793415374033,
            0.45771140085815987,
            -0.22706149190687103,
            0.13779560610761457,
            0.09360513922618884,
            0.24598511883366536,
            -0.27410057106959923,
            0.30340883194963053,
            -0.342525546954303,
            0.28025573301506795,
            -0.22360032545208192,
            0.10792277936228448,
            -0.11210709058188012,
            -0.1689033311576325,
            -0.2114434079886383,
            0.10310104156801078,
            0.3631822563509926,
            0.03758420277152936,
            0.130490450111351,
            -0.14395214623206823,
            0.14200635759633998,
            -0.3130681471901548,
            -0.026838665795434806,
            0.16684235808346173,
            -0.29370354553787104,
            0.029753325402152277,
            -0.2866170925708428,
            0.17384965948326478,
            0.10144686784198816,
            -0.0551842596661933,
            0.5458097548316491,
            -0.08083896839334373,
            -0.05095431288711207,
            0.0008899007457674103,
            -0.08482347358423635,
            0.05124525505320348,
            0.16497402837485828,
            0.13000900585400538,
            -0.17011909943608178,
            0.07939905410540289,
            0.12654864064343968,
            0.11135708475307503,
            -0.23215925888820052,
            -0.2509275841726728,
            -0.08802187774941271,
            0.16371762633163206,
            0.012615578940361456,
            0.1368976261164461,
            -0.15080833677968236,
            0.11957722886050805,
            -0.3185272034458753,
            0.268257856091039,
            -0.03303016612062022,
            -0.08223605075251858,
            -0.06323545106914816,
            -0.04429992782929369,
            0.3237124880532523,
            -0.01193661082579189,
            0.1856138462709661,
            -0.011428258664538055,
            -0.02117827012232002,
            0.33871082223202736,
            0.10288814437870535,
            -0.029721929577396895
          ],
          [
            -0.07066310050645057,
            0.10986111799689761,
            0.346880336369958,
            -0.24681527314109192,
            0.058314384484144464,
            0.1536033757057985,
            -0.2681971819869038,
            0.5479913757204239,
            -0.07807567676505793,
            -0.0298096318683116,
            -0.3311692616742561,
            -0.05282217024797958,
            -0.10308322804530075,
            -0.033221890430614964,
            -0.5315653489108985,
            -0.03239919569324501,
            0.12491783558802846,
            -0.26260455725897475,
            -0.10280130714171709,
            -0.18506311603836317,
            0.20119794760879572,
            -0.09061606862864507,
            0.021494310164795836,
            0.21221840465150651,
            0.023788999585365764,
            -0.24573868237512725,
            0.1299934599453577,
            -0.2425795753993592,
            -0.42513415108586144,
            -0.02766861885846309,
            -0.013961338990086567,
            -0.12533517873698172,
            -0.16866978304194688,
            -0.25302096682747593,
            -0.32837323523960554,
            0.20722771683637442,
            0.09049934164822925,
            -0.050111551181136534,
            0.08402090978961776,
            0.3017893430608559,
            0.0637945419221222,
            0.27638308939239536,
            0.14841915950547707,
            0.28460959664517776,
            0.0577823044507203,
            -0.18195962891171785,
            -0.014123498769955252,
            0.27102979942433114,
            0.18526740507497927,
            0.22593098655375882,
            0.3107046475282221,
            0.21930254476994518,
            -0.1842571576257188,
            -0.2912095100156101,
            0.003611555259531237,
            0.19433086899130184,
            0.2035242116102947,
            0.37598679467668333,
            0.18824667625271474,
            -0.29775122014713246,
            0.04861358981438066,
            0.5656093142694274,
            0.2197540583362493,
            -0.19829393559568667,
            0.5964489829310218,
            0.03986521363131126,
            -0.0012175494433207886,
            0.22751238789776956,
            -0.12906285281788488,
            0.4623989464370287,
            -0.16670956556080002,
            0.44206079168073786,
            0.11388913683224182,
            0.08196493420953488,
            -0.1284888851260639,
            0.066530647199587,
            0.2212043680717921,
            -0.13022711353136,
            -0.20866009004871255,
            0.12720495062449264,
            0.21567282423516593,
            -0.10038295635091633,
            0.19606564129694598,
            -0.015645268336103642,
            0.2749923096197552,
            -0.09513305281129193,
            0.1400494097591596,
            0.05697934572250814,
            -0.2445614414539253,
            0.10166973735489236,
            0.03791681462885423,
            -0.2146713253001961,
            0.14863252787731535,
            -0.0959317547678057,
            0.4021856668409983,
            0.1548619663536886,
            -0.08749922668566205,
            -0.32228439384372215,
            0.11394379470523566,
            -0.05847213231489078,
            -0.10620211798290669,
            0.33452404125388563,
            -0.13492981119185096,
            -0.18835106741562235,
            0.03959931102628219,
            -0.29752103983577105,
            0.0852533121205731,
            -0.08586198202239284,
            0.029013331175233824,
            -0.024129432046337843,
            -0.037577842023914905,
            0.23852549298470377,
            0.0949621897728339,
            0.2174678422494857,
            -0.0672649893079869,
            0.38578099761574836,
            0.12958581910581007,
            -0.1444527328377977,
            -0.0832136110462846,
            -0.09740691345756253,
            0.172004909361134,
            -0.19814086878953646,
            0.09820748897572298,
            0.062408644106715774,
            0.08638696241099489,
            0.0860567678590449,
            -0.19390276775154425,
            -0.052526771958776704
          ],
          [
            -0.15253718511851277,
            -0.020548684943721935,
            -0.12233850257208609,
            -0.0860832257902704,
            -0.059003818259788725,
            0.019648530783108593,
            -0.12033903593082905,
            -0.021879780947292937,
            0.15895737586223213,
            -0.15775363046283342,
            -0.033920782964500976,
            -0.2428222294332481,
            -0.23169222209624327,
            0.019993071751840532,
            0.05135063327405629,
            0.015383623451953852,
            0.06493340631330387,
            0.022770726939378254,
            -0.2954046097919836,
            0.08439293891507497,
            0.11378156748920948,
            0.1639191785242112,
            0.0574959474864129,
            -0.13274038986906603,
            -0.26454125819366514,
            -0.1229961403536604,
            -0.11875891751379362,
            -0.08684319705964628,
            -0.002595384471607303,
            0.14092156126949407,
            0.09119900797195227,
            -0.0427241522824961,
            0.023168977083028227,
            -0.0670183023316129,
            -0.2020638589173524,
            0.07847947290684758,
            0.1806991066264135,
            -0.1395595849806597,
            0.11413405745285518,
            0.149113669040351,
            0.20993481823113372,
            0.295823431018115,
            0.009021806592829583,
            0.03709603060466174,
            0.0985099282317369,
            0.06886774789055944,
            -0.04635695269595112,
            0.09415791398890457,
            0.16871505178119306,
            0.2001570515511274,
            0.3140135612863987,
            -0.25443786858898754,
            -0.13176980706991467,
            -0.2972414983632595,
            0.17499405127105574,
            -0.15072910538235612,
            -0.2289067561624497,
            0.6452187198203622,
            0.1715388189610658,
            -0.12057498682374332,
            -0.05673804794284321,
            0.4210004162290346,
            0.24519647540127262,
            0.16470910379681974,
            0.37478737231235576,
            0.4648948810022686,
            -0.16921905094564518,
            0.1751515425990163,
            0.03232171133747817,
            -0.033938541385152905,
            0.029442756912326583,
            0.28703924599460706,
            -0.3121758930129524,
            -0.10547258229873244,
            -0.061717467247678966,
            0.12213562181025857,
            0.0456499399169022,
            -0.11512008407389569,
            0.049657920902693456,
            -0.2508146050797112,
            0.12008058680437046,
            0.1850542725490243,
            0.11469045553899307,
            0.034597858811668915,
            -0.0930453536242262,
            -0.38892454552988853,
            0.11218015001617396,
            -0.0011200917038441404,
            -0.11444091538078478,
            0.11852423180803484,
            -0.3138418739972035,
            0.11249576837247478,
            0.07729101639369859,
            -0.02886875833308628,
            0.5362375962677154,
            0.1385055125766078,
            -0.029342766024810875,
            0.028506069590480465,
            0.04608745322295082,
            0.01174427184825324,
            -0.003914343597974079,
            0.19643790840001663,
            -0.355630863434842,
            0.10417517143460482,
            -0.22466112639571503,
            0.05707382871136663,
            -0.11772315004184931,
            -0.22166352819764054,
            0.16030363275278905,
            -0.010622657704715443,
            -0.1284355191453909,
            0.19700391833630365,
            0.16975186765242703,
            0.09042223101430089,
            -0.13582525193465078,
            0.20578081257408726,
            -0.14256355188579087,
            0.17847572478435397,
            0.05719468264720649,
            -0.2628662733186651,
            0.021062301212138573,
            -0.11273408066750473,
            0.0056371306922585775,
            -0.05439814326879452,
            0.15730173370227016,
            0.4404202252179016,
            0.18278496552707438,
            0.03657956599116754
          ],
          [
            -0.10559382787626849,
            0.013591760928364359,
            0.19173059036172027,
            -0.031255338894243444,
            0.38969959907536655,
            0.4584365778439195,
            -0.3993634167989767,
            0.5386449158648009,
            -0.04100000198400674,
            0.11093942753636726,
            -0.23609808308897867,
            -0.0007162804730502058,
            -0.17857216962699377,
            -0.2790977789841739,
            -0.5522407016184544,
            0.2033827200783243,
            0.19157751685128616,
            -0.3999265209313876,
            -0.13703461393555047,
            0.13164005735987394,
            0.08416017482963235,
            -0.3659364118661456,
            0.33582006454260216,
            0.022022429630645934,
            -0.08209498220341598,
            -0.2802302508125375,
            0.09268435052524825,
            -0.0045547314881435996,
            -0.34013816753764636,
            0.23213765722769192,
            -0.12447171181045381,
            -0.20592048962485712,
            -0.15964285629986863,
            -0.1991956107392684,
            -0.19971411400138991,
            0.0904152554644197,
            0.1568341751304946,
            -0.19394488201726656,
            -0.02792460633105701,
            -0.10163883465341586,
            0.21223014031525808,
            0.2742060515074118,
            0.15980851074946842,
            0.20798710324115277,
            0.12430548163212927,
            -0.25165370580685037,
            0.3682198369932569,
            0.1350741394482825,
            0.35168814227808715,
            0.010889488664956143,
            0.0470861147375992,
            0.04260697465382786,
            -0.2992742838618407,
            -0.31235634971418835,
            -0.001012675630918481,
            0.45963397488615143,
            -0.003289230219319988,
            0.48973798006594893,
            0.2724040149877426,
            -0.026954785793015846,
            -0.11031582536732215,
            0.49377217249359967,
            -0.08451521395275442,
            -0.14515689076485097,
            0.774238129469665,
            0.4131556260014906,
            -0.2889430266317163,
            0.6529090690906219,
            -0.10270700454805509,
            0.4698279357164828,
            -0.09364705726032378,
            0.3933506709724325,
            -0.3081504518079917,
            0.009134430949051172,
            -0.023883877393431396,
            0.02954425192918908,
            0.18895657163201326,
            -0.016125630111323484,
            -0.03936241035841089,
            -0.06619362124261514,
            0.25309936507988195,
            0.1684635290743885,
            0.4535268094527993,
            -0.10290424740922832,
            0.40847011229805724,
            -0.4898376204809708,
            0.19060945132482277,
            0.3887592302271033,
            -0.27500119731789224,
            0.45526816775141105,
            0.14879747780003044,
            -0.033674096757034075,
            -0.05199045866245738,
            -0.46397548093839386,
            0.31283231686838825,
            0.2278404974290242,
            -0.11583940340724243,
            -0.1361826815798338,
            0.10281048189961435,
            -0.1450115830716524,
            -0.061033269534138054,
            0.417953634568765,
            -0.1961290145973287,
            0.1835804961824065,
            -0.030801157951262776,
            -0.041845904606868205,
            0.004038296081797965,
            -0.24690472780031192,
            0.1476810736650636,
            0.061217340698501724,
            0.1683629986741669,
            0.25568157765036525,
            0.25454077737057934,
            0.03705908753341922,
            -0.34951527552971506,
            0.3994924759203753,
            -0.03973944740843299,
            -0.07600811959794108,
            0.20406388405233275,
            0.10406564645841207,
            0.09952170332607381,
            -0.03874524578688587,
            0.10971833593704831,
            0.010752326032278946,
            -0.10182663577250035,
            0.11875076707486663,
            -0.3770510296183221,
            -0.2615855084874668
          ],
          [
            -0.04967603525048825,
            0.006327734714896371,
            -0.11795511622223465,
            -0.015540527009844159,
            -0.1838543119253034,
            0.32378453822664943,
            -0.17595019313788982,
            0.07513160834068544,
            -0.016969879467057067,
            -0.1535803466855874,
            -0.2236343598772603,
            -0.06445763931639578,
            -0.02196350118365795,
            -0.0855117982884099,
            -0.2161382458436267,
            -0.2620979765570231,
            0.0052956092500621235,
            0.18715495322129078,
            -0.07341136890126715,
            0.18810813728221235,
            -0.15099229044570764,
            -0.0713783890752678,
            0.20736741420066843,
            -0.13385717061129138,
            -0.2818482461433835,
            -0.16505501477176276,
            -0.19865961184419476,
            -0.16621924514880676,
            -0.2347260780788067,
            0.016131030563467433,
            -0.01601298315956415,
            -0.19514362484727468,
            -0.09098540011656439,
            -0.14339034523373184,
            -0.2592713588391704,
            0.03761032977927678,
            0.3733045897724222,
            0.18047500569073804,
            0.07514708135140853,
            -0.0743014534308067,
            0.3392176577116116,
            0.32234395926469844,
            0.1333891240584404,
            0.19798551078722726,
            0.25346906841707706,
            -0.13211874309900778,
            0.05577394558833673,
            0.1060902504751641,
            0.15522202986934328,
            -0.09307763211961875,
            0.3027683070393639,
            -0.025823183180408143,
            -0.1832394874782789,
            -0.017963021281778367,
            0.18476211648386054,
            0.15164694347864852,
            -0.06537609654503224,
            0.3242204196228991,
            0.09439368767110254,
            -0.16576904097652986,
            -0.3209327529326192,
            0.3069308116265454,
            0.15365848438082955,
            0.11455663131743869,
            0.03281968786233626,
            0.31741863393261466,
            0.09560389801278645,
            0.033555094798827276,
            0.10630269948225175,
            0.11790027487984976,
            -0.17928504095526665,
            0.3103344522802954,
            -0.041214525017827755,
            -0.19835987093718616,
            -0.19912743067096125,
            0.22733098906755658,
            -0.09113526073509196,
            -0.33512473154665984,
            -0.2506737636726672,
            -0.005990448987394694,
            0.2303008334237961,
            -0.07257465153341494,
            0.1828321783845201,
            -0.09255566074007907,
            0.19276262412491502,
            -0.10314979560829193,
            0.047194703448051406,
            0.21344456276055174,
            -0.18824036058226337,
            -0.02343648079141402,
            -0.19619426187105873,
            -0.20481713463009352,
            0.10246973296581269,
            -0.12696423808273255,
            0.429438869775991,
            -0.16991397022171156,
            -0.2195237466253338,
            -0.07367130426175772,
            -0.006839652289428408,
            -0.11376238675030458,
            0.008569325551083187,
            0.0960545957968259,
            -0.1799148871585237,
            -0.21681208022104978,
            0.013888435021243645,
            -0.13301112877190432,
            -0.29965602444443107,
            -0.03316230101121138,
            0.1108647776673422,
            -0.0010660208547445856,
            -0.03219997910562483,
            0.12879708865602504,
            -0.03932912918907678,
            -0.11059221148790405,
            -0.03294421359622503,
            0.06127241565177878,
            -0.30527576020610875,
            -0.12700752861937087,
            0.025920772924199035,
            0.03100528945150935,
            0.0021849432722087577,
            -0.16186198838305038,
            0.15433171102371915,
            -0.050720452555840116,
            0.0395828781901796,
            0.4180103922609771,
            0.2229781463507372,
            -0.06392876448017232
          ],
          [
            -0.0229066501206454,
            0.34681581035973463,
            0.5296757426507035,
            0.01610087590301835,
            0.4246243299446419,
            0.47265674371406186,
            -0.7468233380403689,
            0.528236895730736,
            -0.23082112337557747,
            0.07753404056608194,
            -0.009272559993824819,
            0.2645418030873289,
            -0.1932495356531347,
            -0.10664079572178033,
            -0.7029948599663666,
            0.08824671826649409,
            0.1992627847034495,
            -0.2717521135700627,
            0.13015803193680636,
            0.11535589553070176,
            0.042479425544856765,
            -0.4613266210647044,
            0.4276827445392097,
            0.032110900200825014,
            0.09528952569257587,
            -0.04015906789082487,
            0.6121328536604396,
            0.08113671275746406,
            -0.3538084230683898,
            0.1477772232653944,
            -0.15512290533903478,
            -0.019018777485981398,
            0.016932010092465425,
            0.08200007055734534,
            0.044933456060168124,
            0.08515681678292211,
            0.1867325771285425,
            -0.12288591213781722,
            0.034181906936211065,
            0.06128369124237449,
            0.31402887599257845,
            0.09051535826009066,
            0.3824339130521089,
            0.2294377806109646,
            0.011619201106421503,
            -0.19783283650041264,
            0.5463450026131734,
            0.223048737579657,
            0.2931392505820294,
            0.07800233953394242,
            0.33994827095803576,
            0.2872487800873834,
            -0.19777100540216308,
            -0.4067645883195964,
            -0.30182003444091166,
            0.3006612268914795,
            -0.11495226518093563,
            0.8991706293607554,
            0.2799843060901821,
            0.05489914948684166,
            -0.11032110654107403,
            0.8390215942766903,
            -0.06999754634604015,
            -0.0012225995403779117,
            0.65241982355099,
            0.29629673887268765,
            -0.04367295998552569,
            0.8805307590386187,
            0.12683047652272145,
            0.6632034693670098,
            -0.17019401949202834,
            0.29133007521811305,
            -0.4393825867957887,
            0.43188469456182704,
            -0.43596936402324743,
            0.0864365856472229,
            0.0631436595862742,
            -0.2646194414791264,
            0.11655854090888523,
            -0.11961643293317736,
            0.705375152535056,
            -0.028844828507097665,
            0.5217980432116401,
            -0.08882379771843847,
            0.29612663287450675,
            -0.5591547374212579,
            -0.15987337584257577,
            0.29655404085828674,
            -0.574876116350553,
            0.5637145599401996,
            0.008064884126918796,
            0.1152054452636872,
            -0.10118340660200585,
            -0.31184401860345845,
            0.830269121694059,
            0.32298372703160133,
            -0.4527476786570849,
            -0.4126624699838983,
            0.1745772740112823,
            0.19155267847342503,
            0.16096993533302806,
            0.25878926300077437,
            -0.10688151039631945,
            0.33944903240398117,
            0.2569533130401369,
            -0.16092621447322933,
            -0.2954754475694676,
            -0.2569825761763745,
            0.05784351090626387,
            0.05840011761336389,
            -0.12613800000838962,
            0.3604828371568379,
            0.09396131827679564,
            0.05211405603739631,
            -0.4334354134497205,
            0.11993157205298399,
            0.05945115247652147,
            0.0069260077273076434,
            -0.0024745071638936156,
            -0.11459280682968659,
            0.24085411352930688,
            -0.40575875330915157,
            -0.08479401822125435,
            -0.25173054542926726,
            0.001254988348245509,
            0.0966675493811624,
            -0.3101061446098012,
            -0.006170817872469642
          ],
          [
            -0.12797463038835363,
            0.053466663621110945,
            -0.1422027575487211,
            -0.031991954480236166,
            -0.06430151596841974,
            0.1411061359902504,
            -0.11084707387905031,
            0.026830154421147796,
            -0.17930224890855329,
            -0.21355323773678744,
            -0.22262773758594906,
            -0.18329117876774406,
            0.07630090593553232,
            -0.008726075675029435,
            -0.14386547813939218,
            -0.3715572965152977,
            -0.10426933659344595,
            0.19575893563985394,
            -0.03365394513225316,
            0.2130737547734578,
            0.11747048383257339,
            0.030461438552128142,
            0.19934050027576694,
            0.06075021960763004,
            -0.04038342426946454,
            -0.08392868690851124,
            -0.14995794938878285,
            -0.15078668600141826,
            -0.29566225560591175,
            0.23984425061942077,
            -0.07394297202123634,
            -0.2444190777338815,
            -0.00040758103999616514,
            -0.05398082974817316,
            -0.2624137547194157,
            0.2593171247463614,
            0.131139065028272,
            0.14366364534051146,
            0.11719806163061323,
            0.30739983184024666,
            0.29327908675073444,
            0.1881305570663703,
            0.24354112744435086,
            0.16852397065777058,
            0.2752324138542871,
            -0.18042904328240353,
            -0.0175267592368331,
            0.36991255095465114,
            0.26220789587729787,
            0.19955635794022844,
            0.055459324655185147,
            -0.21096982524813943,
            -0.3171296031771879,
            -0.1401461174411352,
            0.1211236430996629,
            0.14186883574876494,
            -0.24246819703518713,
            0.4220602174463959,
            0.28259237670035314,
            -0.1625751174998557,
            -0.27073083178095725,
            0.6071920674744524,
            0.29341945971878175,
            -0.16913301326349825,
            0.4188542919956461,
            0.10830062241032935,
            -0.050348609063472945,
            0.13179642121126728,
            0.06330615584526889,
            0.06717949100249555,
            -0.07104024108704947,
            0.1182867589342789,
            -0.2599925630970409,
            -0.11926007728486329,
            0.017250862572749402,
            -0.008108653040315912,
            -0.2763508570963982,
            -0.19996616836455655,
            -0.14754260713115935,
            -0.14268287479721894,
            0.17730388636770533,
            0.1469556070214759,
            0.3229835799668504,
            -0.17233894619112822,
            0.07709296700460821,
            -0.11714098050275809,
            0.29584210354836893,
            0.07830820471281606,
            -0.12535699142981355,
            0.16798351497923986,
            -0.21905673272063292,
            -0.23856951556089048,
            -0.10058668847702364,
            -0.04087361152940992,
            0.22058930316457206,
            0.11986584040254328,
            -0.01310184785041688,
            -0.0009102412507259918,
            0.23405857809342795,
            -0.12225932494401898,
            -0.1310024864257987,
            0.05614853959239618,
            -0.19634209575219266,
            -0.2475194152594605,
            -0.3006387989850514,
            -0.10711903530116246,
            -0.11287145609701832,
            -0.12229543760127339,
            -0.053796649573067845,
            -0.032949405353669164,
            -0.17800765353536283,
            0.07223531110857408,
            0.26233518595211264,
            0.01452095337250568,
            -0.18535426419401452,
            0.1967087703845991,
            -0.2459986547640148,
            -0.01865050116348474,
            0.18522011767521268,
            -0.32713354458420024,
            0.053510216959256764,
            -0.0486089952726464,
            -0.016416656135018227,
            0.11983313214097685,
            0.21471360599183384,
            0.2711376980037534,
            0.151291150223253,
            -0.28961625659773793
          ],
          [
            0.36223988342771035,
            0.5575562343537893,
            0.499913617270523,
            -0.22972701628726167,
            0.23894525037179837,
            0.40147456796826597,
            -0.8577281286009968,
            0.9023955267420457,
            -0.16087684698770344,
            -0.05990966118170895,
            -0.2114254060767588,
            0.15013367699323504,
            -0.34933510996642714,
            -0.1840721986923657,
            -0.5855352834719557,
            0.30870181713706696,
            0.2966074686327906,
            -0.40094393148724716,
            -0.15014455792386017,
            0.2796759321296114,
            0.06414891038265431,
            -0.6274846167070248,
            0.5966263903184015,
            0.29314262832464927,
            0.19198609722606225,
            0.017309592662489,
            0.6838010649425952,
            0.06582207682921702,
            -0.13359250654185334,
            0.2925430290463384,
            -0.05455179387004129,
            -0.38969820550588047,
            0.19245143009947405,
            -0.09149872777747924,
            0.38593067963927546,
            0.4301565252488363,
            0.40767185804057776,
            -0.601953253679162,
            -0.002560949825057698,
            0.004865675477784292,
            0.2661454882302895,
            0.15359054900277366,
            0.18751557485623419,
            0.19862244336377485,
            -0.06428602965387206,
            -0.3788037904846371,
            0.9704236385894601,
            0.36618043049242344,
            0.523604593209915,
            0.34017380597952346,
            0.23604456010969244,
            0.21744705009550083,
            -0.3044832480075147,
            -0.6394417462095799,
            -0.38335989725523567,
            0.48903542607461803,
            -0.06344693571361411,
            1.1849227462553424,
            0.37006289891985955,
            -0.01446555613021586,
            0.2718575356132728,
            1.0648307819509057,
            -0.42424702128710734,
            0.184355804395083,
            1.190969184276668,
            0.6309012837168246,
            -0.2498953222589997,
            0.8073872359618954,
            0.4015893623835686,
            0.9427328452676845,
            -0.3792563449911783,
            0.22027809282061878,
            -0.38299981022110474,
            0.49603718932089297,
            -0.6770076033299497,
            0.3036173782173005,
            0.3767995164617836,
            -0.1562056770765569,
            0.12838866697407145,
            0.12389906721557378,
            0.7206621224165842,
            -0.04380243919958296,
            0.6158232760419823,
            -0.15705638082865472,
            0.1654318907938464,
            -0.9739280072174087,
            -0.0869847490004867,
            0.5445352761548939,
            -0.7150137095678464,
            0.6132505781588752,
            -0.091755822273398,
            0.19906943037655642,
            -0.22550353882792845,
            -0.5400190829542616,
            1.1019812297294955,
            0.3833403031501886,
            -0.32627818989130714,
            -0.5493742387677537,
            -0.0745812077522673,
            0.23145831015805046,
            0.40294234163955944,
            0.30929885363297266,
            0.057932519350576014,
            0.6610176728865238,
            0.03465468120759433,
            0.06682049565336888,
            -0.2432900344079581,
            -0.11020656978876228,
            -0.04121194855552739,
            0.3047716185178457,
            -0.012904406882914098,
            0.43354801055166575,
            0.13779936348377092,
            0.034320410496296916,
            -0.7357709012298512,
            0.4281824862375424,
            0.23233609025583074,
            0.04925193967147991,
            0.00925812126475691,
            0.04331503521031783,
            0.3286211935834854,
            -0.24898557480710043,
            -0.03886637274930089,
            -0.1459490741101126,
            -0.18322576849683986,
            0.22203998016946075,
            -0.517155344770667,
            0.15905941768972137
          ],
          [
            -0.09246221492425184,
            -0.14933740513760702,
            -0.1760115595916658,
            -0.07000738186800384,
            0.0017274862167182539,
            -0.18499932848306339,
            0.12102958654394941,
            -0.2668882903342449,
            0.2139605981947079,
            -0.2649193844441885,
            -0.0471204978536931,
            -0.2295409406647054,
            -0.01850931153726226,
            -0.050505892696370486,
            0.053412676468027,
            -0.3019254527507352,
            -0.00311747108863052,
            0.17846465696770336,
            -0.14315539548364242,
            -0.04339550754395583,
            0.19252751526426273,
            0.11984701846110987,
            -0.07098427806243514,
            -0.227040976745888,
            -0.2455715047064692,
            0.12067762882778638,
            -0.3021166455199791,
            -0.19170602041327753,
            0.13513969420582966,
            -0.07511917010409612,
            -0.08161441402404422,
            0.14441688213363563,
            -0.02779976902670024,
            0.0818772157806107,
            -0.19716775211113724,
            0.009836167957299798,
            0.1253938043410801,
            0.28777686502818156,
            -0.17034782098893747,
            0.197997783701009,
            0.02193954505117915,
            0.20012947992740243,
            0.0857328725499709,
            -0.19245658696090143,
            0.3872425182716756,
            -0.05828962379382467,
            0.03549019497876103,
            -0.14739277446986146,
            0.060532578683551934,
            -0.18378476993973736,
            0.02117663042436811,
            0.04829149613678006,
            0.018430202534573586,
            0.03322122999119731,
            0.3166027223760006,
            -0.2600589301005791,
            -0.1261407757060168,
            -0.08651039793896861,
            0.22154816736953312,
            -0.23845451315832375,
            -0.2658229141829384,
            0.11017785732729277,
            0.299082615056366,
            -0.007335948088901132,
            -0.08116636567218184,
            -0.12608210087435784,
            -0.0934595767315259,
            -0.11741160027852854,
            0.05105538182815789,
            -0.2695554329536507,
            0.025009681253918985,
            0.020334013627595286,
            -0.05700697669749203,
            -0.10844516382926984,
            -0.13938671228482852,
            0.05671749770181056,
            -0.30387408193641335,
            0.10355495944612751,
            0.004704722405643292,
            0.05858607957990987,
            -0.164527555114866,
            0.0019574344799055086,
            -0.20210192273392222,
            0.04433166238943725,
            -0.09019759209896941,
            -0.03664923079691276,
            0.25016295579342773,
            -0.2960276070140379,
            -0.02780955409253897,
            -0.01607927436176142,
            -0.024010309953279605,
            -0.14621611132432297,
            0.32108624717780476,
            0.22658919759969548,
            0.16716157482431268,
            -0.20922642588325735,
            0.16123186161528277,
            -0.06860806123518658,
            -0.08167127973244757,
            0.01853460252980143,
            -0.07707101922226449,
            0.10978550925625435,
            -0.2390061327348582,
            -0.2975363567407724,
            -0.11001037575388374,
            -0.13242444583468166,
            -0.19930512401360684,
            -0.15265361208252373,
            0.037136572604870625,
            -0.325488658365103,
            -0.28969186361885835,
            -0.1036008336698523,
            -0.22798598872085765,
            -0.09662509005833222,
            0.08581461635593164,
            -0.001193705514034388,
            -0.2043504708206885,
            0.10253660843686303,
            0.12111296251056215,
            0.06108432235676028,
            -0.03443537705349202,
            -0.1337257221809544,
            0.1617462191464498,
            0.08032421902209262,
            0.2449313743160742,
            0.20026798632538914,
            0.024464549753209046,
            -0.1717553365320312
          ],
          [
            -0.18639031436601086,
            -0.18769026957665197,
            0.2666314802078937,
            -0.022052276784422585,
            0.11696069962503745,
            -0.0037120712126234127,
            -0.12157108216755587,
            0.27013748600946513,
            -0.12847613589661727,
            -0.1236856881035999,
            -0.15797120230609907,
            0.22636433135005862,
            0.034193731734993175,
            0.12953989483765063,
            -0.3213693815236101,
            0.19935866432117352,
            0.29625739528382516,
            -0.1775653249621951,
            0.012710568749892915,
            -0.014185020911291778,
            -0.09713591834652599,
            -0.37600715066581614,
            -0.046676491635318576,
            -0.0651670649358118,
            -0.055316071004341015,
            -0.25453777788956716,
            0.08662566210792412,
            -0.30586291264132875,
            -0.33175463168972974,
            0.005827177726822704,
            0.03431150608308495,
            -0.17600208119718241,
            -0.1535740244067445,
            0.03035304042926183,
            -0.28958031760098807,
            0.03526078457299473,
            0.13451213600634093,
            0.08268871812435652,
            0.14020140067965317,
            -0.021804962043218676,
            0.193654258731211,
            0.10299684609678815,
            0.14331293642558895,
            0.04920977527928771,
            0.028527318100109746,
            -0.10608438947915233,
            0.12091564972211462,
            0.04682528321823847,
            0.008919808021121705,
            0.09483911953678581,
            0.11152015510510165,
            0.15380671312593935,
            0.10177670578145914,
            -0.24379507408026702,
            0.2644922074242255,
            0.3466839227644522,
