{
  "labels": {
    "labels": [
      "walk_front",
      "idle",
      "walk_right",
      "walk_left",
      "walk_back"
    ],
    "rows": 5
  },
  "mlp": {
    "layers": [
      {
        "activation": 1,
        "biases": [
          0.19828011912111906,
          0.3175363350118427,
          0.23083409078430897,
          -0.06734783009401214,
          -0.17737368153771801,
          0.28474449603122254,
          0.2104281299703887,
          -0.12183671492593764,
          -0.2503054816681795,
          0.3151476275661836,
          -0.042052050823456553,
          -0.2540927460898223,
          0.0008373076572542507,
          -0.23370231024280883,
          0.1895823732246123,
          -0.20778197690593725,
          0.11471557926378624,
          0.2426865883400894,
          0.2575761874989954,
          -0.19439915140533084,
          0.2428285728223678,
          -0.0377120181354995,
          0.22785268744431728,
          -0.01673058900151976,
          -0.11672286024001541,
          0.07649097208176711,
          -0.07673906248257932,
          -0.09955133501087098,
          -0.16435683997058972,
          0.15207087084867427,
          0.03810491121525593,
          0.2037140664691449,
          0.28449193944774154,
          0.2567264211764192,
          0.16362839344737895,
          -0.20945457976621007,
          0.08244446082945828,
          -0.10782193647402047,
          -0.021769886869157613,
          0.12125080009790515,
          0.19510921369499046,
          0.24333554868093293,
          0.12981309372630387,
          0.1850670511227603,
          -0.36587351893743125,
          0.22950713830744796,
          -0.2602191797435041,
          0.17611302146818136,
          0.14271486417045126,
          0.2654207038604458,
          0.19009281426596986,
          0.00980377027428221,
          -0.052677834864911004,
          -0.05569960026933486,
          0.3445930273307047,
          0.511367711328436,
          -0.007764440276175786,
          -0.09225870935713658,
          0.33346435314547157,
          -0.33798498181651676,
          0.0898149522825859,
          0.3468015862563731,
          -0.21840324571902028,
          -0.16306516311568348,
          0.007600674047886163,
          0.32463024517874384,
          0.31043817041109634,
          0.228280526139091,
          -0.06476984546666203,
          0.35193040010238574,
          -0.1088126423448194,
          0.06179292142892719,
          -0.3563082330223731,
          0.10964012869731744,
          -0.17218373300649625,
          0.19197642478537338,
          -0.02414301917253808,
          -0.19612194816307632,
          0.15839854398163436,
          -0.047811376736149394,
          0.1028609962303914,
          -0.22332705989521026,
          0.167798472879662,
          -0.14405971914294538,
          -0.09002793168636868,
          -0.06892370143657484,
          0.3195576809075329,
          0.046751444439474044,
          0.1030178561471292,
          -0.007332175572508747,
          0.31366316104407044,
          -0.029363210760525487,
          0.2124745237433923,
          -0.14710677180541631,
          -0.055682220388300015,
          -0.0019526313457615136,
          -0.150131498044745,
          0.28637409066960584,
          0.3334744850688202,
          0.13827739196300867,
          0.2944370012794805,
          0.05588675428999496,
          -0.10424345198893244,
          -0.006008995710285716,
          -0.13236803466830727,
          0.15649121172379923,
          -0.11541010958534753,
          -0.05144402189158515,
          0.3214720955000197,
          0.039527484095635446,
          -0.39606462310897306,
          0.06988906452592822,
          0.2239427538695602,
          0.027346143964884818,
          0.1936052902028113,
          -0.09495918788595185,
          0.1917535819445251,
          0.3803084374654349,
          0.27011434171418575,
          0.12205277249795546,
          0.035671176978486756,
          0.06446949267549444,
          -0.1410665130255113,
          -0.28313037801007224,
          -0.09355526198458013,
          0.20721590985197755,
          -0.015698697896321067,
          0.2920753063761119
        ],
        "cols": 128,
        "rows": 51,
        "weights": [
          [
            0.04527498003425693,
            -0.060685123800081994,
            -0.07117832539261988,
            -0.17415473931725953,
            0.1586328468656779,
            -0.07592764453727227,
            -0.14902245989061658,
            0.03852535941456269,
            -0.03705027676257654,
            -0.024847320277963787,
            -0.1595603609574571,
            -0.10287025267317094,
            -0.04236951420458721,
            0.08683431626710933,
            -0.10957517381856255,
            -0.058550723902132326,
            -0.005581846853538528,
            -0.18244649180039382,
            -0.10634563680019891,
            0.10080290198667517,
            -0.05937766417673063,
            0.047766975726627456,
            0.04833689402398576,
            0.04045861167815059,
            0.0882088251019146,
            -0.17050055729302108,
            -0.09396388241837575,
            -0.11919673566219952,
            0.061959058817706386,
            0.033809564875637264,
            0.03208863511498671,
            -0.09568481217902626,
            -0.0776485742979228,
            0.052929765008579016,
            0.1795522008392998,
            -0.11986722777673871,
            0.01911461269865393,
            -0.004084414464401068,
            0.14428431561453986,
            -0.08321365884859783,
            -0.004196163150157592,
            0.12713089235091296,
            0.1317014135983549,
            0.17720547843841272,
            0.0922988270006035,
            0.09959601618050472,
            -0.15471046799562382,
            -0.0979644853684594,
            0.019237536252986107,
            -0.014588790925514593,
            0.08493458860924834,
            0.03262502880661807,
            0.015896250548865964,
            0.16284577231869898,
            -0.15990678188330235,
            -0.007101628979827293,
            0.09798683510561072,
            -0.13493095061671853,
            -0.010699936661187463,
            -0.1210741135829092,
            -0.0903320501312886,
            -0.1278796085454817,
            1.6762302863478576e-05,
            0.08014056999029334,
            -0.05325383619727294,
            -0.0030004522125627463,
            -0.16129246558668328,
            0.06031635313708544,
            -0.025975982004104697,
            0.14260808532819194,
            0.07644168849175229,
            0.03992221798651928,
            0.1640526581248695,
            -0.025081992518052487,
            -0.05018074733896845,
            -0.015471605542991172,
            0.04807987204674576,
            0.13014810686633918,
            -0.08890166695360506,
            0.006989880294070769,
            0.0738491189822009,
            0.0012124732404583242,
            0.005179551584815042,
            -0.1163918436497107,
            0.12888534671729043,
            0.14784909869017304,
            -0.12484004429290414,
            -0.038704157311773124,
            -0.176166215660877,
            -0.018488820058417395,
            0.15597322814467257,
            0.057220914541629656,
            0.020969640882212308,
            -0.13199196018132187,
            0.07257518396457648,
            0.0927458217436296,
            0.14946945463364267,
            0.12973463672904004,
            0.15671076947066567,
            0.161750635198285,
            -0.05290741527142771,
            -0.13441690666223852,
            0.13832811066371697,
            0.11318465636849838,
            0.1697406662298767,
            0.15420759890971947,
            -0.17282492995675686,
            0.00989534612374047,
            -0.07677693454902187,
            -0.08834292352482244,
            -0.002017063777905316,
            0.07885546010409328,
            0.1721209132364907,
            -0.04574432451443433,
            0.10951929947568431,
            0.049879025887425835,
            0.09461202479576358,
            -0.12392370506970064,
            0.12377843177821717,
            0.16013027925481538,
            -0.13391403757633413,
            -0.0036150699842236477,
            -0.03994456772367058,
            0.05944471338818456,
            -0.16387386022765904,
            -0.05656159729566614,
            -0.17764129831286316,
            0.09081256948004165
          ],
          [
            0.2529358618733833,
            0.3132203324051426,
            0.329887294493232,
            -0.026601778131708546,
            -0.24602114459489813,
            0.21601835649622766,
            0.07078777542642083,
            -0.05462926781273203,
            -0.2864544642742746,
            0.274242294897536,
            -0.19917935975316525,
            -0.20740614439147784,
            -0.028126677179399682,
            -0.37883173870639164,
            -0.07374986111886749,
            -0.20893024612828817,
            -0.004998575539234021,
            0.3248570023083399,
            -0.08378285667134065,
            -0.11632410894185562,
            0.12003645347288017,
            -0.08640960979424823,
            0.16299993553245098,
            0.33562945081421125,
            -0.11222905740837213,
            -0.1012523997485579,
            0.02968573001677797,
            -0.018685490164876483,
            -0.16561298351743092,
            0.23191106526896996,
            0.059695091179631316,
            0.14247411993867778,
            0.1609204094205787,
            0.2722013982229237,
            -0.05077136591902894,
            -0.25307897793837847,
            0.01507820604735969,
            -0.32403520238803724,
            0.08337923322191375,
            -0.08768135334229689,
            0.19861681956049623,
            0.11822270349825649,
            -0.10466406857468985,
            -0.06090500903974154,
            -0.14480394446341976,
            0.05436262812177491,
            -0.28705722131645317,
            0.09857319858707479,
            0.24830648972103297,
            0.08398266672044033,
            -0.03632951320086508,
            -0.09165049787431678,
            0.21353163457202412,
            0.12992672120694262,
            0.07132836696413156,
            0.3245028447966693,
            0.12688782401498172,
            0.08655238479641711,
            0.25515951517402885,
            -0.21073012632221833,
            -0.11929452083499932,
            0.2385558433172948,
            -0.14158925473538034,
            -0.30432835511027073,
            0.1548302772823651,
            0.2203505922513051,
            0.06874691782018615,
            -0.038779757384264535,
            0.007654650223157541,
            0.14152657345769248,
            0.06974015596605024,
            -0.07942042552172711,
            -0.24007361866234658,
            0.013445845136334619,
            -0.1538457618979459,
            0.10670022285297728,
            0.1030654708970179,
            -0.08686201415401644,
            0.06814627592844942,
            0.027731435190563158,
            0.09561476852473096,
            -0.2507741176246045,
            0.012252695085479357,
            -0.1717126846703283,
            -0.006992774167670241,
            -0.032646150872279074,
            0.27850230066102366,
            0.11372155031347979,
            0.3855391548947044,
            -0.2858451042947583,
            0.3716883612308854,
            -0.03250704259473025,
            0.17959687616685435,
            -0.15650022251060774,
            0.21270561167115518,
            -0.1693221781721601,
            0.07938946691428835,
            0.10113848516815038,
            0.18339348741915198,
            0.010983903966768052,
            0.3416705674308108,
            0.020496250204536208,
            -0.09321661109370845,
            0.06894199194417885,
            0.143655034372111,
            0.2517074090153823,
            -0.14449225626419576,
            0.2709592312578789,
            0.37859766226558944,
            -0.061924062304127475,
            -0.31715443212946176,
            0.034862282848509334,
            0.14227825803327304,
            -0.11286084421320437,
            0.2117621422730139,
            0.008825469085415361,
            0.009024130603403227,
            0.036556236645511456,
            0.0354406580232,
            -0.09588022739784349,
            0.19926455475276603,
            0.2450024216129299,
            -0.3852549984032979,
            -0.07743899653115295,
            0.05326040012814682,
            -0.025498976648052247,
            -0.11612343740121306,
            0.24361120420692503
          ],
          [
            0.09779929743279278,
            0.06799899991700607,
            0.05606778064368336,
            0.0061671660060893625,
            0.09013983085177982,
            -0.018080345790086553,
            -0.025534259837192482,
            -0.0813393973483297,
            0.07464392239395926,
            0.1038579694075856,
            0.191396522303273,
            -0.13425705286781575,
            -0.10300081425051137,
            0.12610784961391008,
            -0.10398661732113015,
            -0.0896065927436351,
            0.20030110856624386,
            0.011756260222068979,
            0.01674755036034492,
            -0.12030522083890685,
            -0.12092895188846868,
            0.12282589093491007,
            -0.09074145757890914,
            -0.20191266892591456,
            0.09591291173932039,
            0.028546435269085145,
            -0.187950290642403,
            -0.0838542185173358,
            -0.15431077478927996,
            -0.10007833167257134,
            0.17803459410353373,
            0.2259536049212915,
            -0.09705316017432294,
            0.06585991140107064,
            0.09775719643766563,
            0.09158042565775257,
            -0.11197836560427447,
            -0.15543884695603616,
            0.060814700243407176,
            -0.06638661215302087,
            -0.0030875631624120298,
            -0.06303256705877934,
            0.15905628090538015,
            0.15849657397777464,
            -0.17771411709078105,
            0.23171194612632282,
            -0.23242296526477707,
            0.23109690616478343,
            -0.029200907283372775,
            -0.032609288920399035,
            0.0028310846143367084,
            0.18156829906775326,
            0.18338212710861565,
            -0.12710812372622898,
            -0.05273613228253419,
            0.09798390503088202,
            0.18890004406809932,
            0.001521761711408117,
            0.06396931696596428,
            -0.2386143758111308,
            0.07789712436309175,
            -0.055921837727787096,
            -0.039516451557445785,
            -0.1375241791299392,
            0.001297535722516775,
            0.19258810293891518,
            0.2484911562138049,
            -0.03699779216519267,
            0.05073921904675055,
            0.03511380330515836,
            0.041099599816644496,
            0.09419884893854054,
            -0.15625052809245055,
            -0.08095391060913182,
            -0.11326578107514822,
            0.0886760886676256,
            0.05933078338203598,
            -0.09541743379671674,
            -0.0005979279452460547,
            0.0510038049997621,
            0.12985902407168248,
            -0.11901475675553243,
            0.21988060139293616,
            0.10300182149695161,
            0.00995025139382218,
            0.09415211363995424,
            -0.016332806790886008,
            -0.1527271959288309,
            -0.04900880696862003,
            -0.13356907360025666,
            -0.060776960515312714,
            -0.031364845879680005,
            -0.05559803036295982,
            -0.04686401822784331,
            -0.23032565779703995,
            -0.019962989536103506,
            -0.02737264732858051,
            -0.0001740022652704597,
            0.06828775542845454,
            0.1218970388866817,
            0.2138631012306219,
            0.22707701391202564,
            -0.210383984592099,
            0.1284954997148878,
            -0.043640940681091776,
            0.03983502608564429,
            -0.1129158921758888,
            -0.07903370035008175,
            0.0005062794060458593,
            0.13610743152582974,
            -0.27240245829554777,
            -0.13443010278431733,
            0.20295509781898055,
            0.009516965928898481,
            -0.11581566281096899,
            0.01725457443376444,
            0.18892416915494215,
            0.2466443106034005,
            0.07844511428839142,
            0.018786843560590984,
            0.18826705221257198,
            0.1979934445262139,
            0.06800796488372989,
            -0.009472059873330193,
            -0.08841579476592958,
            -0.0754653949748815,
            -0.044072574335383925,
            0.004905800973523989
          ],
          [
            0.29309527527615414,
            0.08982893588558293,
            0.24197603323761907,
            0.019381375232681734,
            -0.013605963551001344,
            0.00463290725944649,
            0.25950961773948006,
            -0.28165504542292885,
            -0.07083296900823133,
            -0.0884469987438088,
            0.030656783749155782,
            -0.18280534762866668,
            0.17003486349896346,
            -0.32717411161470505,
            -0.10870170972337055,
            -0.025128527563692177,
            0.00392648242874286,
            0.2276183455758289,
            -0.16228430034384855,
            -0.04753159643069566,
            0.27843050610410325,
            -0.29480295695798525,
            0.33814925548738717,
            0.283402603303562,
            -0.15795171512351586,
            0.09415008729822161,
            0.07304296452658701,
            -0.06437761779905228,
            0.034803416047274674,
            0.10361110499779168,
            0.03564129839959489,
            -0.058371263133203975,
            0.16774138625739302,
            -0.02644413987472365,
            0.12876387819692262,
            -0.030709346135184272,
            -0.05741322831674481,
            -0.4022354938704888,
            -0.1305515344760913,
            0.008633151046572024,
            -0.2178878030951228,
            0.3099425694696107,
            -0.2855139610168908,
            -0.1723566949014966,
            -0.5546357141979428,
            0.1485581939321688,
            0.12716363903915612,
            0.0969702754371314,
            -0.0364670750276539,
            0.21565739365796846,
            -0.007722741930847385,
            -0.19358618732519825,
            0.01537995241318149,
            0.14452238013220264,
            0.04985639140774719,
            0.21645908939446673,
            0.023726766131332525,
            -0.1490177631829171,
            0.3564596947787377,
            -0.20942683798390838,
            -0.029276770062506285,
            0.3436894907107786,
            0.09175730203374893,
            -0.11955562295843335,
            -0.04692669356188613,
            0.06821345202649015,
            0.21516607338190166,
            -0.15763287329019288,
            -0.42396912110356244,
            -0.032356777921354635,
            0.12560810122366042,
            0.022983608007626336,
            -0.18743072642200326,
            -0.1481625908563804,
            -0.3444288511568005,
            0.16716382227774657,
            -0.005926891699218865,
            -0.13351880483283626,
            0.07972759478238527,
            0.051111765357954066,
            -0.12075738147631718,
            -0.24314206921718692,
            0.25777263285420016,
            -0.05606591426947243,
            -0.1716902091429533,
            -0.16968762370940424,
            0.2694051753482853,
            0.126996909366303,
            0.09810737141130545,
            -0.09659003050258236,
            0.25785835091676135,
            -0.28641532450746404,
            -0.22766961007244546,
            0.17175085865900663,
            0.4475401349474324,
            -0.17603660022478346,
            -0.26422246938467325,
            0.15061009529931488,
            0.22794715772211246,
            -0.0644202941688929,
            0.21274893348564736,
            -0.07505854023942585,
            -0.04593008039075996,
            -0.10957195596946691,
            -0.30281652964478234,
            0.16499261805357388,
            -0.0099389969204924,
            0.4638580302660361,
            0.14842389117865976,
            0.08495206841778154,
            -0.06494203254614038,
            0.08070148056295896,
            0.21081982068588215,
            -0.2238657330488952,
            0.29259377200934367,
            0.2821854406295237,
            -0.07300279093429927,
            -0.06901379914710838,
            0.26125994200357605,
            0.19490829094052667,
            0.09701860324764883,
            0.18898175312701887,
            -0.0937195589548109,
            -0.2840827746467284,
            -0.14715720300252016,
            0.04802989323169395,
            -0.005901814182524094,
            -0.16288586549066755
          ],
          [
            0.6797716625711663,
            -0.2863553585803217,
            0.5733063623048907,
            0.6728656095548592,
            0.23738108260942478,
            -0.338874018974288,
            -0.047676293895245,
            -0.715959488856666,
            -0.5472625098554788,
            -0.0314414500263461,
            -0.4407702717921102,
            -0.42341429111872886,
            0.1368561426654959,
            -0.8312793794786719,
            0.04072496913957607,
            0.4203469089896268,
            0.032289839468810956,
            0.4455349313884989,
            -1.3490791237078295,
            0.5644360819488579,
            0.4962599812315528,
            -0.5115962619557656,
            0.13235471846550345,
            0.8874053781086274,
            0.023070681268077084,
            -0.32987477202268345,
            -0.38340990286312376,
            0.12553138244427783,
            0.3808495661672646,
            0.7175643656145237,
            -0.44832991919318477,
            0.3101007917424,
            0.0467453586074382,
            0.6529682513708592,
            -0.292481642238929,
            -0.3007838199850713,
            -0.09049157518275143,
            -1.1954669856437994,
            0.15756241043676797,
            -0.26522571222234087,
            -0.36235990266828644,
            0.08794507694417487,
            -0.6531869706991656,
            -0.772388242159158,
            -0.5549838304610208,
            -0.1033216226250638,
            0.006784412568656774,
            -0.5241873029375306,
            0.37328037188117164,
            0.14275745918892543,
            -0.5653383757029031,
            -0.5407506476098196,
            0.08125380859331123,
            0.21238572528636776,
            -0.0913985681854475,
            0.1681965996385392,
            -0.14865920663865412,
            0.28771789385764973,
            0.7077490655608062,
            -0.3004450467280908,
            0.09670669607486358,
            0.15784792146169707,
            -0.04777604699254638,
            -0.2692772803731963,
            0.9212810845607387,
            -0.31550826647775354,
            -0.2415698950907898,
            -0.949136746680772,
            -0.7951484938346897,
            0.09879789889177093,
            0.6088990260690919,
            0.07593345212404476,
            -0.025040208086317305,
            -0.594414949575409,
            0.20193599328227776,
            0.16954679474443354,
            -0.07214666821710271,
            -0.6019153332833366,
            0.9312885305460045,
            -0.18179513464305394,
            -0.2558490410148152,
            -0.12573377796309368,
            -0.017052260604821963,
            -0.4520012750642712,
            0.13672953809825197,
            -0.14487710909820675,
            0.4048375052104175,
            1.098809701268034,
            0.53023702409068,
            -1.0552586740170602,
            0.7470226876336546,
            0.4191175409027288,
            -0.521791019340007,
            0.5910087929958555,
            1.1769799053193297,
            -0.7983252608118863,
            -0.02983022347874942,
            0.18532251846641823,
            0.2053015397320971,
            -0.5167069254263128,
            0.7018908244186371,
            -0.48196811902346853,
            -0.132054146857835,
            0.04953794238125593,
            0.1669406356381754,
            0.39990156562912077,
            0.14180664166580392,
            1.3344976341423889,
            0.5888592403338236,
            0.22730890912520826,
            -0.07361052013107257,
            0.1893036222021047,
            0.46197204282822124,
            -0.38294631333288925,
            0.7313108179046065,
            0.07769147608740817,
            -0.13240003984543255,
            -0.5059761102331395,
            0.2670849283491506,
            -0.3715584422856112,
            0.46984923595821887,
            0.2159221439770605,
            -0.844510649300186,
            -0.701151622412996,
            0.2075673421032635,
            0.31400928552278123,
            0.03704900619944135,
            -0.3849783592498577
          ],
          [
            -0.07749622908395559,
            0.2060351311677618,
            0.005725994201988276,
            -0.13184713639070814,
            -0.4812125910229642,
            0.45496789600087306,
            0.0476603105594125,
            0.13138605347891633,
            -0.09808687162526024,
            0.6220134712545045,
            0.012785525524638986,
            0.07074537553133659,
            -0.08404911497344797,
            -0.059265602677954124,
            0.037143920872521864,
            -0.09182622221549998,
            -0.16520222489079953,
            0.0780126610827245,
            0.4580506068774515,
            -0.025839454164633107,
            -0.04410696609989201,
            0.048465120231387604,
            -0.1338840949300708,
            0.11449544740316923,
            -0.17209835733091045,
            0.1260208449769329,
            0.05548457928862352,
            0.06728417237253638,
            -0.1355995402095405,
            0.28691462428558134,
            -0.0748739934567941,
            0.4795102906419898,
            0.050149838218720426,
            0.16040059229977788,
            -0.15194587019803316,
            -0.2093935520459969,
            -0.09272757676553525,
            0.21920034257868207,
            -0.028785717369339735,
            -0.03735181231370925,
            0.3151522249859047,
            -0.020345644080171817,
            0.31861003515341096,
            0.21854707443701143,
            0.34825248566345385,
            -0.02051257768574735,
            -0.08309476513024135,
            0.2771757383783427,
            0.07132138975541621,
            0.028130729656883673,
            0.49974751321146044,
            0.04329517350266483,
            0.17156429936096154,
            -0.012587570542787427,
            0.3471612179982944,
            0.3143313985091222,
            0.278847377885321,
            -0.0379702061139353,
            0.25476319627249283,
            -0.17200802382501404,
            0.21223142840632778,
            -0.05187776260591582,
            -0.20606897913469086,
            -0.18637094430476603,
            0.09622968091252346,
            0.6395652336332488,
            0.1595179153327925,
            0.33615295835841935,
            0.3629230392467311,
            0.32088434520023656,
            -0.08359650763632774,
            0.20806865168025912,
            -0.13293502054088588,
            -0.15028799678831667,
            0.26276550144659705,
            -0.15831475687939978,
            0.2639987893170911,
            0.18702420814784115,
            0.05874341489189244,
            -0.16905090741046142,
            0.07971361555110844,
            0.22798414502645503,
            0.09780991395268579,
            -0.02094076905653628,
            0.04396093494358415,
            -0.011744889035867553,
            0.02442048424416453,
            -0.176503265468451,
            0.13735785219921648,
            0.13496148091612825,
            0.14663594019363704,
            0.2872145112362534,
            0.5154524277347982,
            -0.10428537823505031,
            -0.44497538556760674,
            0.03316903605501293,
            0.02952394794403601,
            0.3902002836450923,
            -0.020665478681343358,
            0.23358965838236748,
            0.0953942933160683,
            0.02356398106582485,
            -0.00819928082676601,
            0.07361159221463806,
            0.1530611772649673,
            0.018999225502117145,
            -0.08179610075454863,
            -0.3515560070540823,
            -0.07743078323898898,
            0.05911580783489753,
            -0.5963902902818512,
            0.037848016376414335,
            -0.19068053445934066,
            -0.07873097069848045,
            -0.37256964082094907,
            -0.40874001184746156,
            0.1582998074882375,
            0.3672435887912994,
            0.21821192798723066,
            0.014154751074990694,
            0.22797668344371097,
            0.11647895446533894,
            0.20678079491940662,
            -0.09137275948734819,
            0.26264288083124926,
            0.15315132106393872,
            -0.04081467352596837,
            0.7007969930604946
          ],
          [
            -0.37632510306146005,
            0.11226041266456921,
            0.11055146206659396,
            -0.2837285853081806,
            0.46650758651345736,
            -0.03349830407799743,
            0.427592804531012,
            0.5450719323962078,
            -0.06576926340479664,
            -0.6772359859986061,
            -0.010125916014241957,
            -0.519834195755979,
            0.4572401301292303,
            -0.11225072319113642,
            -0.067200539472163,
            -0.14587015621156435,
            0.24962837302545354,
            -0.6342294937157772,
            0.7097657664680916,
            -0.48610116935782866,
            -0.4506608130512034,
            -0.19188089660044044,
            0.47402921090586464,
            -0.6095074509154121,
            0.30037089279428797,
            -0.17854033632544467,
            0.05823690013454175,
            -0.538164357414205,
            -0.03357149524021226,
            -0.8314575256035078,
            0.14189882400432197,
            -0.8848262160895488,
            0.16721159213926323,
            -0.992194010026711,
            0.5264245338991224,
            0.6134034880084432,
            0.19246803573186405,
            0.3102226499417818,
            -0.060690136297167865,
            0.75156736410604,
            -0.08522589018484578,
            0.5062857943884768,
            -0.08590186694126756,
            0.40005269230247975,
            -0.38614337853216507,
            0.6965882226580367,
            0.42844022805729925,
            0.4225084615452414,
            0.0023189954190593956,
            -0.3414583787885863,
            -0.26526960509702724,
            0.03215058417536219,
            -0.8674561071613577,
            0.13047580646382326,
            -0.02118374940505765,
            -0.029954915208364758,
            -0.25687830360479735,
            -0.3419100126496197,
            -0.15933544222740967,
            0.43186498206278895,
            -0.02605910010611093,
            0.24990422052913422,
            0.5341844344091933,
            0.5113689010787531,
            -0.7753821533465538,
            -0.5934210706073427,
            -0.0491566703977252,
            0.8640168388523872,
            0.02583882007400411,
            -0.7165154187067163,
            -0.6704442795179211,
            -0.13171536100030246,
            0.089488300982129,
            0.8049741374195375,
            -0.5641081725614974,
            0.21068264213972313,
            -0.3719655767996838,
            -0.2419442075480033,
            -0.4412946375369414,
            0.6550918432265922,
            -0.3266341767518051,
            -0.081250816405334,
            0.08662091316583899,
            0.6374233225400731,
            -0.4324606695407658,
            0.09854955280579006,
            0.08749828645595725,
            -0.04938990312533529,
            -1.0248051060997625,
            0.6873363786830883,
            -0.365205772805789,
            -0.8808088821609372,
            -0.33057314654857717,
            -0.08512241141424426,
            -0.23469651065126027,
            0.3107152602235578,
            -0.2904905610415753,
            -0.16335885438651382,
            0.004143298881088892,
            0.01594246785791076,
            -0.005342973767410003,
            0.11746108978095929,
            0.26323563067354294,
            -0.33685159410437826,
            -0.6014618943954717,
            -0.33083389374607075,
            0.05514437111667175,
            -0.2428365894494963,
            0.29889093239461967,
            0.09714823952991913,
            0.7537815016403615,
            -0.6841498807866883,
            0.23933782450918809,
            0.46265739338047296,
            0.2970940118267982,
            0.5979720604663943,
            -0.02464397936244703,
            0.17198064774709462,
            -0.11427871850480566,
            0.5974992985160246,
            -0.958490088092488,
            -0.48117523301922677,
            0.30254087513665934,
            -0.18756133362538016,
            -0.7570699156824651,
            -0.2616319720410095,
            -0.06563410516330205,
            -0.5159267969997137
          ],
          [
            0.3373223623617094,
            0.07065170609058527,
            0.17707931540489033,
            0.24545498665359244,
            -0.11445150968281731,
            0.016770011877973175,
            0.1878845301383093,
            -0.019047271605751495,
            -0.38735259362564406,
            0.3608322333358147,
            -0.08145548550691072,
            -0.3206865322145562,
            -0.0632856834400356,
            -0.3985353661448085,
            0.14630351291750782,
            -0.12603367521708972,
            0.03288460964749883,
            0.08505151400242439,
            0.06765113410071974,
            -0.027743284388333248,
            0.3351446934761438,
            -0.17755393926480403,
            -0.03196375904804562,
            0.03989671157331651,
            -0.0741707648857894,
            0.1480515665828631,
            -0.14045165428320147,
            -0.12293108494061845,
            -0.10481599512358442,
            0.1814608022346135,
            0.017745455533401015,
            0.2992019928585682,
            0.058697177263326496,
            0.2549695353870839,
            0.12941298895661654,
            -0.11389628930823559,
            0.06367774584210721,
            -0.13662891778179992,
            -0.12519638050814666,
            0.0030276844646330275,
            -0.047934861519752216,
            0.1367368151620096,
            0.17701117243899686,
            -0.062045465152748815,
            -0.2727496754411525,
            0.0786371009433827,
            -0.3198005618657779,
            -0.096946202986554,
            0.007948824801559626,
            0.04767934098040125,
            -0.07448710039703321,
            -0.10630364035473319,
            0.0577064137532563,
            0.009402050319610073,
            0.34362722845490784,
            0.23928081362660067,
            0.11041733753557899,
            0.13613415070130067,
            0.2680112462958382,
            -0.3746969708982579,
            -0.04719219373084507,
            0.26724710439218935,
            -0.04827066817749946,
            -0.02113859475541552,
            0.11316399615711827,
            0.18211456184227134,
            0.30055291931556416,
            -0.15298343206293355,
            -0.21621283623062298,
            0.4578660225749805,
            0.19931099006175487,
            -0.03395671790920891,
            -0.2179856459457883,
            0.08847387583250309,
            -0.013735464914491654,
            0.1451783113862724,
            0.14509643048645296,
            -0.024273847403646485,
            0.14839824649846692,
            -0.052516264093969686,
            -0.006487490990106448,
            -0.12420543516899954,
            0.04931107027935447,
            -0.09082796543580415,
            -0.024890026449810122,
            0.04309713278845173,
            0.1570354785291992,
            0.20018291054000956,
            0.23903718625550263,
            -0.02310223532585142,
            0.23343177272204313,
            0.17435779633015352,
            0.0928701308736589,
            -0.19351911183203185,
            0.2951088851367737,
            0.013821185836051731,
            -0.03686351751929656,
            0.39099274733667194,
            0.359719238247034,
            0.058067584721087515,
            0.3026638343567451,
            0.0707758970078902,
            -0.14278881447734076,
            -0.16103238837540734,
            -0.05345048009283674,
            0.09794700893627098,
            -0.15039530677697718,
            0.1053588558241235,
            0.2480978128713615,
            -0.02613106862482048,
            -0.2194602631262981,
            0.24110314117191403,
            0.1653376923948978,
            -0.0721022546698388,
            0.18268316453062847,
            0.04774629526174931,
            0.19903016954785946,
            0.262356165264018,
            0.1986935182339408,
            0.19850205796867315,
            0.254616646153157,
            0.16713292871194782,
            -0.3863353292175859,
            -0.13727199858035283,
            -0.08834083624299363,
            0.028496686545393123,
            0.07090054129422879,
            0.3393593967649534
          ],
          [
            0.21220295247755575,
            0.10182932494036707,
            -0.003889834663233483,
            0.1454139398794831,
            -0.1297956975701348,
            0.19622599854423917,
            -0.03084378845737262,
            0.1055773172982049,
            -0.21002116623883071,
            0.3854203536251443,
            -0.038483870875657224,
            -0.2445737509852737,
            0.02409119259391198,
            0.030754822159848302,
            0.011730466882021787,
            0.06881351626352894,
            0.11680660626098664,
            0.1414669200473952,
            0.13205447180960028,
            0.02178614897416286,
            0.06906574520823151,
            0.13902074116123378,
            -0.02629293349687888,
            -0.13478187613756057,
            -0.05904835492849298,
            0.02301571164147571,
            -0.025013527130866686,
            0.07574261868770704,
            -0.26919034220605065,
            0.2815750882412023,
            -0.1637305047692505,
            0.305074860225606,
            0.22977410956874797,
            0.1352010356650376,
            -0.08603370985639061,
            -0.034469573433563765,
            -0.07362391086964931,
            -0.16848155160594805,
            -0.04646527062631208,
            0.19206913502827982,
            -0.03780531369853707,
            0.0017509580216164306,
            0.007325412222074179,
            0.06263435378213242,
            -0.010020531402408144,
            0.02279768370878103,
            -0.13988740057812668,
            -0.05016360021349194,
            -0.013737644653698708,
            0.12770542435608156,
            0.09932870257612747,
            0.09476547698296799,
            -0.10752642334652951,
            -0.017505078967135317,
            0.31846158651058176,
            0.3284732533842945,
            -0.09142150533012885,
            -0.09202675705376422,
            0.19801548397403135,
            -0.3334264679199785,
            0.1467887151189331,
            0.25042424385651973,
            -0.2884203249226517,
            0.015538611115172407,
            0.12373874867481276,
            0.2949005624606446,
            0.1299870315009353,
            -0.02553720964536438,
            -0.18786440573390756,
            0.35006466126199753,
            -0.15300400219723942,
            -0.10429059740946998,
            -0.3560407865364239,
            0.06802486680123875,
            -0.22113322449335038,
            0.15363139543476687,
            0.061763720497729886,
            -0.21497332488094753,
            0.14341389684697836,
            -0.19286900946335048,
            -0.00011159217550664655,
            0.026747059405737676,
            -0.09478177144613893,
            -0.26322918999517775,
            0.06044433521541222,
            -0.10844980686036074,
            0.2537625369057481,
            0.16738271557345774,
            0.19014963611834101,
            -0.18697008160080078,
            0.16963103063628263,
            -0.05065727253474153,
            0.01582646045056104,
            -0.1720689782836886,
            -0.1869861397462097,
            0.030052153499827764,
            0.011674763233528625,
            0.2506339064937691,
            0.20076707463876076,
            0.12446221756878785,
            0.1992202231610154,
            0.018383937809196414,
            -0.2118249570391512,
            -0.06976938126446497,
            -0.11465627536501541,
            0.06790627910127925,
            -0.08381543317706244,
            -0.15940677237047993,
            0.054039311330825464,
            0.11374693375538113,
            -0.12850966354439178,
            0.0034057818698921077,
            -0.051665808540496495,
            0.11203025906716887,
            -0.07438664373812393,
            -0.1221686033128818,
            0.2929416069291447,
            0.12539477594999576,
            0.13373301323080952,
            0.10881014621038074,
            -0.019428462866739896,
            -0.027334914652552347,
            -0.25010092962967717,
            -0.31125158105776674,
            -0.08509268862299148,
            -0.04306617903835713,
            0.1070086919713032,
            0.35454527716295275
          ],
          [
            -0.002422254081596272,
            0.145984343906288,
            0.31758320385136585,
            0.13540797108030286,
            -0.055926977012640815,
            0.1869627925148181,
            0.11390819316519511,
            -0.011990780336956667,
            -0.2604991854194002,
            0.13175180799791442,
            0.09123685499347563,
            -0.11312624712587943,
            -0.16701436843142548,
            -0.019551912507748494,
            -0.06551500592102837,
            0.1306720045226614,
            -0.020727624522786824,
            0.06802561091497018,
            -0.022006523639774157,
            -0.09552642349727475,
            0.268707273315475,
            0.015149354983832951,
            -0.10246015673153207,
            0.17702196848631627,
            -0.1336512221980016,
            0.11215605155422917,
            -0.20476856082666153,
            0.026035662408554858,
            -0.0013548572762648221,
            0.17047772847168088,
            -0.1412273353225793,
            0.21395793446727743,
            -0.021088850280915224,
            0.3426438703484728,
            -0.15171870781585456,
            -0.03962748990254583,
            0.02065179728683066,
            -0.235126795908495,
            -0.02063492837974637,
            -0.12749144850202773,
            0.20565389976761747,
            0.1088233135464933,
            0.07699021366968355,
            -0.2031579157686723,
            -0.19062186690101915,
            -0.047213131654301715,
            0.04948412393341511,
            0.00204636949606989,
            0.05246666498964017,
            0.2922516281335205,
            -0.07745380663505419,
            0.08057101203525746,
            0.14785058536694046,
            0.03107058261987811,
            0.17727806720290418,
            0.1010385705500352,
            0.12103710389880337,
            0.17732717649699672,
            0.3532634876098846,
            -0.2511448514242458,
            0.1970146421378149,
            0.15140279053187514,
            -0.15848723542516516,
            0.0005605349962427635,
            0.3175722419887094,
            0.008590560060177532,
            0.23304369107845924,
            -0.005177141623234079,
            -0.13454795493351696,
            0.22374935122661743,
            0.26498709556572886,
            0.1597075638178702,
            -0.021011178564165085,
            -0.11796193941553862,
            0.15850744812016057,
            -0.09243649117122818,
            -0.09645119959406775,
            -0.1283190348985037,
            0.06966311812537453,
            -0.08389278614589195,
            -0.13386093869962853,
            -0.12935930833431047,
            0.1494471568860858,
            -0.07316501654625925,
            -0.14479884550438477,
            -0.048249904908646925,
            0.1755975305472485,
            0.002833170966062195,
            0.28854651183986396,
            -0.35701381472288385,
            0.09730983503321379,
            0.31176207111725524,
            0.21432080090621194,
            0.1609020951873438,
            0.032508752051689474,
            -0.19573242793080586,
            -0.01893651532495466,
            0.05534225391791739,
            0.20208112840404457,
            0.08303234049918383,
            0.07336863402351204,
            0.07847311881569143,
            -0.07035958750482976,
            0.17095076953741092,
            -0.1075173177796053,
            -0.009063657115982775,
            0.10135926775146666,
            0.2586407581732713,
            0.06674675807286484,
            -0.13270118423614424,
            -0.13101836278044013,
            2.2983936926818742e-05,
            0.07690329110066806,
            -0.021517925738224784,
            0.2194368271608714,
            -0.05303903603951178,
            -0.09073423509900667,
            0.02670014530338641,
            0.2230615498294807,
            -0.21085441006131775,
            0.11672489331528138,
            0.1427716089605186,
            -0.04078971679016122,
            -0.022840174857713544,
            0.175391540335531,
            0.02630755264063052,
            0.09105103918821153,
            -0.0235581737038182
          ],
          [
            0.14392573045027188,
            0.20525616691827403,
            -0.03690580620637497,
            -0.10793408467923482,
            0.021552469483368114,
            0.2699820377822224,
            0.03589259968988309,
            -0.07908568685084226,
            0.001143853127074817,
            0.04301033242008446,
            0.19071054171300916,
            0.05523149658509091,
            -0.2084161771122398,
            0.07200997540155048,
            0.25408445353078546,
            -0.08907441721940057,
            -0.07875920441665323,
            0.09941480279106066,
            0.1038105226106414,
            -0.080719973403242,
            0.1719078524890473,
            -0.05586413363624166,
            0.1318863744273545,
            -0.0018925574260038255,
            -0.03258051062203837,
            0.02053911045045534,
            -0.16698480486439668,
            -0.0157224131472049,
            -0.1868382544857584,
            0.10132904496973216,
            0.2106868686862733,
            0.31023520128357907,
            0.06822056372096656,
            0.19990908672357477,
            0.04914877237482995,
            0.02404501841195717,
            0.021935546153234203,
            0.10362826234389445,
            -0.0018469937272673153,
            0.08119096326687456,
            0.13073061967514857,
            0.2717179815748021,
            0.0354598973145098,
            0.018024142838510292,
            0.02404024240301497,
            0.31443535261162514,
            -0.2713223672457171,
            0.23636784472923836,
            0.07921872447507532,
            0.2098803837076591,
            0.26843208589889167,
            -0.004292787826966166,
            0.15042941848297509,
            0.04149980998388253,
            0.2698496861496017,
            0.2641596379598717,
            0.08463829143406038,
            -0.1326532671801475,
            0.17788148352755345,
            -0.19554103827204222,
            0.15180919984216507,
            0.05392282797784648,
            -0.04488495888979261,
            -0.04302805213515922,
            -0.04026282162468763,
            0.2979069491443777,
            0.18265166169921573,
            0.2617977602013373,
            0.09667947790617397,
            0.3279022708041032,
            -0.13895033673054008,
            0.14463338756429728,
            -0.3335633961914977,
            0.2627465545041606,
            -0.05235467237749106,
            0.15792916595238737,
            -0.14606189384217416,
            0.03182612038724068,
            -0.04887165762847158,
            -0.11623492916159577,
            -0.020713600603092266,
            -0.0016601610063626709,
            0.09448361377972099,
            -0.05941624503348919,
            0.006844145698338205,
            0.049194276037920204,
            0.2155394703488194,
            -0.1734879853676865,
            -0.09986261198037694,
            -0.060968907266321676,
            0.05304073949155393,
            0.06702767228889057,
            0.09094815899177222,
            0.04067563495240762,
            -0.09282731581906706,
            0.01912127420030168,
            -0.12098996021911332,
            0.318874039894081,
            0.029087049891307712,
            0.1461025768399477,
            0.028343998271234995,
            0.20351513860146747,
            -0.23369490285348452,
            -0.12585670888710623,
            -0.2358225306988678,
            0.16316061883113042,
            -0.09984384512578266,
            -0.13233968526281412,
            0.023415137630881752,
            -0.10651076951747787,
            -0.38808777359504654,
            0.01691137981929079,
            -0.04631418549804614,
            -0.05455370073072586,
            -0.12649915572431178,
            -0.1972266256964969,
            -0.011152014880858143,
            0.3745035552201567,
            0.14346643644621462,
            -0.10357409877442547,
            0.02126392430275442,
            0.21044726137683026,
            -0.16174860475982253,
            0.035756763139570706,
            -0.1542300055318866,
            -0.020037480134142152,
            0.1519714568465518,
            0.4037751845115378
          ],
          [
            -0.22322822708100887,
            -0.07774037340537818,
            -0.18866061042183593,
            -0.08836427030309983,
            -0.02700043804597312,
            0.17832853322879197,
            0.22550523756492066,
            0.03520362107150682,
            0.0511361445347784,
            0.02968653684022595,
            0.02821459960783718,
            -0.09461659724532967,
            -0.09071704796395713,
            0.21135434038004036,
            0.09863401841941247,
            -0.07977584670856523,
            0.12969817473116757,
            -0.014242636537388385,
            0.366974313509719,
            -0.20076185042382932,
            -0.14680277078188514,
            -0.02762301946688886,
            0.089561304375565,
            0.007221475787298668,
            -0.08428604020863889,
            0.14135300458560332,
            0.0028823667482112993,
            -0.23414600007005204,
            0.026186871505307154,
            -0.00010554029071125816,
            0.08259510705488872,
            -0.16951312365502103,
            0.16583351364729007,
            0.10285027527095499,
            0.07089017943938096,
            0.1659633209511723,
            0.16879350665134543,
            0.1218645329193796,
            -0.1110164027240677,
            0.11250411620954708,
            0.23621000453428895,
            -0.017975251359538647,
            0.02339392636677712,
            0.18880517953493858,
            0.08115914357682583,
            0.28138331388034865,
            -0.013167324997096894,
            0.1720865132198923,
            -0.21644052436292868,
            -0.025182040721075296,
            0.050047099343715984,
            -0.08757870066935111,
            -0.13811756048383653,
            0.13611038300623735,
            -0.012768377478099623,
            0.017552658285301684,
            0.16580688266797325,
            -0.13370664583142425,
            -0.1596573923020677,
            -0.12529919328097783,
            0.00041575310401230706,
            -0.09029876726734337,
            0.006172644352257718,
            -0.14100385904688076,
            -0.05100045287638253,
            0.03231549057567944,
            -0.0028510557346311275,
            0.31027655530370857,
            0.15115525283574013,
            0.06252096815046602,
            -0.19792202613088705,
            -0.13679305122292812,
            -0.03808823416428862,
            0.06219975525167181,
            -0.14578161912268192,
            0.08884100942603364,
            -0.1259038119597944,
            -0.08388959394866488,
            0.019579161605464707,
            -0.0928544489401224,
            -0.05932059248448529,
            -0.19732455016954692,
            -0.031417762834512766,
            0.08489226375156596,
            -0.10155129081873236,
            0.07244819539280523,
            -0.01084315096714391,
            -0.23748426225460015,
            -0.16689333193347694,
            0.21167054325326923,
            -0.15811136711343685,
            -0.14827392334437509,
            -0.1006408871825381,
            -0.31461641116883843,
            -0.4244152986050516,
            0.22921722246070095,
            -0.20833059976844254,
            0.08208911891684262,
            -0.04391610188859605,
            0.13470823743416427,
            0.0630419161162316,
            -0.018618226061265612,
            0.01693758475060879,
            0.011808585569315935,
            0.015470824883656666,
            -0.08378700213998394,
            0.001171052814088507,
            -0.20355253955808741,
            0.05601894495524248,
            0.13981703988200894,
            0.091100883945272,
            -0.13064937738790583,
            -0.10248242165565692,
            0.12156744848419038,
            -0.10044701560557123,
            -0.15664406705662798,
            0.14862667596704315,
            -0.01037252778166426,
            0.15371440587364957,
            0.030944631934992445,
            -0.20150006932339914,
            -0.05576345229763833,
            0.27754948486303516,
            0.07204312809918341,
            -0.24570108967618173,
            -0.15788840805169732,
            0.11845594042419384,
            0.13631534938083154
          ],
          [
            0.1773121026541876,
            -0.16173197315464988,
            0.05958841425314746,
            -0.031229893267849654,
            -0.13437652479501833,
            0.11776409694316697,
            -0.18770515552717354,
            -0.09330822002939022,
            0.18439950422902956,
            0.34101383340106356,
            -0.15158679111719636,
            0.3152617062046265,
            -0.09336280823524962,
            0.008603435316428753,
            -0.04207425740456415,
            0.09704643864741937,
            -0.28634904054167776,
            -0.04870218306528568,
            -0.2185322211126717,
            -0.023664398653934958,
            0.01125459217837192,
            0.17783120899592142,
            -0.025492215961481914,
            0.22124494173182202,
            0.21193927117543523,
            -0.12102401617160043,
            0.20255746978572697,
            0.04297707673910399,
            0.11172055880464668,
            0.08165605168905861,
            -0.11661658545673897,
            -0.015747472010840938,
            -0.0008036760168520677,
            0.04816135992524694,
            -0.10563980278083666,
            0.08597564155750939,
            -0.28456937667009985,
            -0.011616887861973652,
            0.08657012001644357,
            -0.3238940322815632,
            0.08732637800358657,
            -0.15936805128072215,
            -0.15248498299949106,
            0.10534561594171114,
            0.012430061978838378,
            -0.09209298040500954,
            -0.16143254660608042,
            -0.2561019256437861,
            0.07487765840727015,
            0.12778152549607585,
            -0.025790867941689825,
            -0.07942916057694742,
            0.10901034721334284,
            0.1310304649026134,
            -0.004698662266359757,
            0.0587221017563851,
            -0.10941929834308527,
            0.21545713059403976,
            -0.10987017182014956,
            -0.11680481279249753,
            -0.13011511635143796,
            -0.14400104860521315,
            0.0030240305003233696,
            -0.13793672793372427,
            0.21851958086816395,
            -0.03417838871779998,
            -0.18171892379557228,
            -0.26963806045500804,
            0.022320659921484614,
            -0.05540265964996582,
            -0.01914868464192852,
            0.07077312525342483,
            0.16917426973106187,
            -0.2692170864039694,
            0.2809930876778981,
            -0.13086312851600224,
            0.14666756344742155,
            0.13680517766696815,
            -0.04873762340189965,
            -0.1910305483322343,
            -0.17214756074081594,
            0.12050818144018792,
            -0.1728574879252478,
            0.1217884941767518,
            0.005699185582792546,
            0.06832489129051368,
            -0.19862551917555984,
            -0.10907001257156959,
            0.18544843627895213,
            -0.24702901102916466,
            0.0071146649660229384,
            0.32420450866279155,
            -0.1382154094183749,
            0.025450085971552707,
            -0.10673136673660695,
            -0.0938577219239531,
            0.03321488671884205,
            0.07785595744745913,
            -0.02600102349550286,
            -0.1324260073601631,
            -0.27014934491916376,
            -0.20340078128791644,
            -0.11633151295845509,
            0.06892073375068974,
            0.06806429338032632,
            0.19004633949228697,
            -0.055870197578746145,
            -0.13112646007090034,
            -0.14181990037368356,
            -0.08411678079725154,
            -0.21667367281868657,
            0.1977191619380614,
            -0.2307646433373623,
            -0.03585145988436643,
            -0.04066016901832056,
            -0.19225219715199762,
            -0.1426905650333966,
            -0.13762254485703915,
            0.10329163581072542,
            -0.2799141000040608,
            0.33389866475367663,
            0.10652835031326499,
            -0.12759213668952876,
            0.21073575184711396,
            0.3521601353415258,
            0.127893984211705,
            -0.0385851127720258,
            0.04605299297632102
          ],
          [
            -0.050381680603145164,
            -0.0026454943682600596,
            -0.14479503055017184,
            -0.26039429594994107,
            -0.09313753384816723,
            0.1409786339254442,
            0.0456167509313891,
            -0.10356690240545167,
            0.2132214322991499,
            -0.12424083130809851,
            0.24915905969836855,
            0.05060586773895044,
            0.15716515453112295,
            0.090438905271287,
            0.1889037353882769,
            -0.025342169687425316,
            0.09447395556281471,
            -0.10617997270955754,
            0.3435253760735613,
            -0.3222341606945704,
            -0.1968337610125678,
            -0.012558795929359906,
            0.1850740691998282,
            -0.1389075562741326,
            -0.12270419769329642,
            -0.10444791119421165,
            0.013649731116694515,
            0.07524239186253606,
            -0.10083537012137599,
            -0.019517637970106697,
            0.06033001527572368,
            -0.062114957010716745,
            0.19574089595536937,
            -0.17375908898456993,
            -0.05633868859700026,
            0.06990275209369017,
            -0.02501750842135349,
            0.23085606264401465,
            -0.12389822782897858,
            0.05329593002648283,
            -0.07301078146009111,
            0.14113235518351083,
            0.19623606581067105,
            0.0891628429418453,
            0.012175141429729329,
            0.2475105662665359,
            0.04397321710122149,
            0.17628233927490553,
            0.1319774639356765,
            0.1642842316938476,
            0.11318280310525575,
            -0.03459276526356364,
            -0.27870669736143283,
            0.050667088843479244,
            0.21397412579781103,
            0.20674130669739446,
            -0.0003714489500821871,
            -0.015618251452647869,
            -0.15590400851754632,
            0.06177627220252765,
            0.06853187432563408,
            0.14291188632161897,
            -0.11258778227019842,
            0.14362640000991733,
            -0.14304244333320693,
            0.13395852092323945,
            0.0769659524603089,
            0.2694169362922455,
            0.15715039022272428,
            0.04324550314587024,
            -0.28332649555520634,
            -0.14906159001195202,
            -0.04540791890667046,
            0.26083165418200716,
            -0.2506618882067847,
            -0.07610180852786766,
            -0.005292055980081051,
            -0.061743097414221626,
            -0.21473697387193633,
            0.1752509374355425,
            -0.10676822171399347,
            -0.17907101084720295,
            0.014548693116820484,
            0.008767870071571102,
            -0.1797949979721841,
            0.09093222692686795,
            0.028655331546305503,
            -0.18834035595886614,
            -0.0763649252344227,
            0.31678276194767935,
            -0.21802322358345314,
            -0.25097871387448173,
            -0.01202531263513846,
            -0.21304215225090362,
            -0.12754944306621024,
            0.29385188557939534,
            -0.12715659625836248,
            0.10502088846157304,
            -0.09074314125479047,
            0.20462239121033507,
            -0.05764050377608864,
            0.26929115499157885,
            0.008591606939896452,
            0.10908726892478977,
            -0.0558416455946479,
            -0.11445223204711052,
            -0.05688539107758075,
            -0.2746201807074649,
            -0.12375590993066678,
            -0.08807877046530614,
            -0.0904628852979426,
            0.0031547308456940926,
            0.1603831115263434,
            0.3120680352299739,
            -0.079489753214335,
            -0.039489261736418,
            0.03433169933360929,
            0.19389414163468052,
            0.14181464902448804,
            0.1062744696737754,
            -0.20210516324406938,
            -0.06091683127643355,
            -0.0008734370135539727,
            0.04844524247752522,
            -0.16889678202458835,
            0.09495911940076558,
            0.11814324212797823,
            -0.12623980442228686
          ],
          [
            0.12196356545421423,
            -0.15828479436271983,
            -0.08107776428275669,
            0.060621607704745485,
            -0.06334309949931738,
            -0.12174055449359691,
            -0.24259731192675654,
            -0.11036987343487269,
            0.03653502178285581,
            0.20096831909294918,
            -0.17893356671873062,
            0.19365302077470797,
            -0.1222204593714573,
            0.2061708933796567,
            0.07675847537636178,
            0.13597880527718267,
            -0.21134972938860389,
            0.08455799183899203,
            -0.17227566696144433,
            0.23376788041682178,
            0.0769127696469606,
            -0.04423878144517252,
            -0.208546283311116,
            0.22815035688232374,
            -0.07781581376684112,
            -0.058564338690019854,
            -0.05426585361762364,
            0.2597813872985072,
            -0.019876308121080842,
            0.01611474383725605,
            -0.1092552630760517,
            0.11845633202555758,
            0.05149013194610516,
            0.36288803220252247,
            -0.07008108065303185,
            -0.07942692208657247,
            0.03559977206618804,
            -0.04622297364591912,
            0.1582909914703827,
            -0.20317728985264855,
            0.017734972885438675,
            -0.093059391680714,
            -0.15390928759302883,
            -0.014917991434579217,
            0.06086054807958888,
            -0.15929451548472168,
            -0.0921604498256257,
            -0.08353093349157475,
            -0.13373653905894076,
            0.042810643493158836,
            -0.14979854586733274,
            0.11068502965456178,
            0.29848073272387715,
            -0.028026336600453,
            -0.06157380200430137,
            0.004510669010946895,
            0.0539197918492052,
            0.2115022238379242,
            -0.17944901001579608,
            0.15338081236940515,
            0.02574650260516516,
            -0.2783951964775935,
            -0.016236417945117165,
            0.004490424249975489,
            0.2877929491789032,
            0.24936132277570258,
            0.11558814749516147,
            -0.15597241998798106,
            0.10164276970567063,
            0.020875601667653048,
            0.16085800788362262,
            0.022395793708446497,
            0.1314458246576028,
            -0.03624222613822331,
            0.18057008920990744,
            -0.061463626517363874,
            0.2456882427563615,
            0.054213223049853716,
            0.2333694975553317,
            -0.21261881924372425,
            0.0630943506484718,
            0.177977318182562,
            -0.14331218939226031,
            -0.14132753023230962,
            0.04486515188648383,
            0.06050479699202133,
            0.053452992050549195,
            0.15522980463700345,
            0.17204117822944734,
            -0.0664032809532669,
            0.11025440182946177,
            0.3819720167243834,
            0.11315372445375707,
            0.12253206764158127,
            0.0015330231649481523,
            -0.05604314528141326,
            0.13941911361229178,
            0.08021192714735957,
            0.13019013557221945,
            -0.1282192622068943,
            -0.19766059481647139,
            0.012600410404438914,
            -0.042549846818845716,
            0.0003032896588699801,
            0.19989091580882776,
            0.027920884612657643,
            0.05637351163535748,
            -0.08052877262291627,
            -0.27488250259382,
            -0.08249852696124166,
            -0.016277863857229506,
            0.2888380827300134,
            -0.22665056512047715,
            0.006864287038874135,
            -0.1625281160295493,
            0.026566774015652207,
            -0.12137291638595554,
            0.18590309134868918,
            -0.15421589731691135,
            0.029403349738453825,
            0.12419005084301023,
            0.14453839405613128,
            -0.02541635770667362,
            0.17690065662564994,
            0.11712631875259386,
            0.14833481647353794,
            0.07913105181839736,
            0.19117774788205527
          ],
          [
            0.059758967325618285,
            -0.006519945232367362,
            -0.0017372550963782938,
            -0.2551575260160261,
            -0.031883951399063915,
            -0.033563716675504875,
            0.1632695921738286,
            0.2132068242481729,
            -0.10046102368907014,
            -0.17123821213632467,
            0.13033969308128712,
            0.06742641311048242,
            0.12161430440919542,
            0.22647264075967727,
            0.10529723553777087,
            -0.18476493004057132,
            -0.11298046316022618,
            0.06654665583550043,
            0.4333293251725105,
            -0.12147615638278823,
            0.10946294260516962,
            0.1521641708169554,
            0.0942771362107694,
            -0.2963910141970754,
            0.0024366111926876293,
            -0.11223968367040413,
            0.22055357885067373,
            -0.1163584234060278,
            0.031158586530061306,
            -0.21270796532238254,
            -0.02313124754788523,
            -0.1367819356595236,
            0.137276254024502,
            -0.09255547062174775,
            -0.03533826237194098,
            0.06287372881799684,
            0.04401104411152641,
            0.22974169549979656,
            0.17122999308749698,
            -0.06737601745533975,
            0.1957329808462064,
            -0.0525318017905147,
            -0.058271622351006774,
            0.16457489042254653,
            -0.08456163887611591,
            0.11167221218763385,
            0.053955946104426715,
            0.002872341541241428,
            0.0496348231273523,
            -0.10131921716804289,
            -0.02223299029424133,
            -0.083539204882007,
            -0.08249244992552268,
            0.0069615587660630494,
            -0.03902700711693782,
            0.03374628174245911,
            0.007747537731474462,
            0.11647013434263294,
            0.03405254640734528,
            -0.0064209234317250605,
            -0.09589642248285965,
            0.029644834088621452,
            0.16458643221781097,
            -0.12625083128267464,
            -0.23200231640857577,
            0.1756394357071423,
            -0.005324480405703105,
            0.31505929402173904,
            0.25951708635206594,
            -0.03915015489118145,
            -0.2592933244211088,
            0.1076076256193648,
            0.12992438472983972,
            -0.0018928795737348228,
            0.09854592377252037,
            -0.057565555554769034,
            0.04817625042720632,
            0.031047804549347684,
            -0.06139236617703213,
            0.1350078263467009,
            0.1210526516754125,
            0.12721383220961444,
            0.010306144556459432,
            0.03533426467226529,
            -0.11474192783553028,
            0.08641387513315694,
            -0.06442047822882205,
            0.01779057425255996,
            -0.005845662845255439,
            0.02990622307810637,
            -0.08613928636239697,
            -0.1344786694381742,
            0.05809077807486137,
            -0.055041876769030176,
            -0.2919192710490167,
            0.0012337464812527434,
            -0.16079537156930385,
            -0.09119642626386874,
            0.07213810129214997,
            0.1886400702979311,
            -0.1211197246896622,
            0.06551179186022267,
            0.08681120626783788,
            -0.01703591232533813,
            -0.21002783167678668,
            -0.190731303558767,
            0.05155456424409512,
            -0.19437939874798632,
            -0.014252677130476283,
            -0.0325701751599518,
            0.07146427905156202,
            -0.1936615757222168,
            -0.16704101862969145,
            0.024411077332622932,
            0.018142086187810325,
            -0.05519610287725961,
            0.15987199762746088,
            0.07296531133793449,
            -0.14843585088298358,
            -0.007799507864858247,
            -0.010489304375064616,
            -0.148559590229449,
            0.020668337736147634,
            0.20370211608235209,
            0.04095323529898888,
            0.15441234966343456,
            -0.08550637460254361,
            0.018519514734920285
          ],
          [
            -0.1344480064433865,
            -0.06359461935609657,
            -0.1826317919338415,
            0.06292210800417712,
            0.10275147950159633,
            -0.13068580914407388,
            -0.0284633154178959,
            -0.015250721126820103,
            -0.10417204900783743,
            0.03162033229110061,
            0.07855380715883535,
            0.071393170522298,
            -0.0005425023950975577,
            0.08882575776117714,
            -0.12505251913173118,
            -0.008763728006233148,
            -0.2256700337983152,
            -0.01207128191944121,
            -0.055393388344076804,
            0.036732256818720624,
            -0.08048098583500196,
            0.14078640240694887,
            -0.015494479480250952,
            0.07071711318283436,
            0.0077699034286340864,
            -0.14747093039306863,
            0.029187104334339672,
            -0.05697391252250729,
            -0.10688525699751905,
            0.05051266651414177,
            -0.16862415225173588,
            0.15334904665908172,
            0.017018068922624672,
            0.02398580923168503,
            -0.30154116552379534,
            -0.153361641029319,
            -0.1424112214193023,
            -0.06303295660169805,
            -0.05889487806973294,
            -0.23586109264686686,
            0.03424440632724368,
            -0.1731686292747696,
            0.06692590444514643,
            -0.1821223374256277,
            -0.010063023062959845,
            -0.2946337327676531,
            0.034640465773100926,
            -0.052711137948912155,
            0.009001298701562325,
            0.028557920749257722,
            -0.03631763691697493,
            0.14521355631319557,
            0.28934919442554347,
            0.04691133863774051,
            0.0013437541895220454,
            0.027667621003211584,
            -0.15298764485188845,
            0.05590458544116879,
            -0.07849992180368978,
            0.07845275552376665,
            -0.066456201409793,
            -0.06799317600067405,
            -0.20130880763259335,
            -0.014237050133936712,
            0.11388504775251862,
            0.11164030919138153,
            0.13214840119702181,
            0.06736755465349112,
            -0.18618005886554745,
            0.17301012456217463,
            0.1288070934597755,
            -0.16266636325900963,
            0.11736613194700032,
            -0.17159459205033906,
            0.033120513969414116,
            -0.04358880284504064,
            0.0745881271925498,
            0.028342841852306722,
            0.19537608814135562,
            -0.2234494733457646,
            0.11509303777828074,
            0.22135763857401425,
            0.10787825631264078,
            -0.004149164923092782,
            0.11362384896731594,
            0.20137558699802605,
            -0.17238563234246645,
            -0.011991260740275391,
            0.06736186919345903,
            0.004139335878964598,
            -0.023712411320844926,
            0.3639516328769891,
            -0.02109881053614961,
            0.13589138550603005,
            0.04254284055977456,
            -0.06878303194783292,
            0.17509465519153,
            0.09397095121169757,
            -0.13242180846945162,
            0.06831945759179481,
            -0.10607765282105003,
            0.06389174572906148,
            -0.16081922828668654,
            -0.01596257709780188,
            0.11121847416681202,
            0.015811193198322547,
            0.06983110022574741,
            -0.045731360511401,
            -0.15323990241278515,
            0.1043926118229137,
            -0.20887396584093795,
            0.32215090259086737,
            -0.22784752447656306,
            -0.1998970577338447,
            0.02825313389009187,
            -0.24055264552060676,
            -0.04467966557902889,
            -0.06452413985749629,
            0.013115823674302309,
            -0.047602946034199296,
            0.10279635512944695,
            -0.08964444841031408,
            0.03159972867889873,
            0.11659063362959954,
            0.04430607702587018,
            -0.14099832052486577,
            -0.06113693031862074,
            -0.048773702527837616
          ],
          [
            0.09027818099289148,
            0.05880414071794967,
            0.02343646774413904,
            -0.2871194661609701,
            0.19563857235332374,
            -0.0013936885188102722,
            -0.04173469501554087,
            0.03425044884907048,
            0.18150227692027107,
            -0.19736078925237682,
            -0.00995094119432215,
            0.15031641321720268,
            0.043009595399905495,
            -0.04971054546539338,
            0.013844567934634141,
            -0.09072982376204261,
            -0.10351538885051983,
            0.017638554916222522,
            0.4367941798644864,
            -0.22558438042269524,
            -0.22218706080282813,
            -0.015717319236240205,
            -0.1065254213580773,
            -0.32755621942476837,
            0.184541642575034,
            -0.10735887776914142,
            -0.08569289319760856,
            -0.19021910531533173,
            -0.2218334361602596,
            -0.026368847303949432,
            -0.10121281427218659,
            0.06719534645640036,
            -0.08712008736074739,
            -0.19911134582503714,
            -0.04837542666195901,
            -0.04951189883797483,
            0.08877237470946964,
            0.10885902577728143,
            -0.11941130969964238,
            0.2238235179131302,
            0.23336545138287276,
            0.048941714494851137,
            -0.06324615825493417,
            0.18814726879457327,
            -0.023514053946538865,
            0.25064717746999005,
            0.011623161698196698,
            -0.008910637199134442,
            -0.23436188906428612,
            0.07398328363356037,
            -0.04230390383182907,
            0.013050777751435734,
            0.04199203815388242,
            -0.16196674949377807,
            -0.048568789969763174,
            -0.055392176808234946,
            -0.13412208431452755,
            -0.15107135929402865,
            -0.016980437753005256,
            -0.10292910337380855,
            -0.18166481897837672,
            -0.016397783456198273,
            0.0830445897393994,
            0.08254851894293644,
            -0.23299093253313816,
            0.18252844842368934,
            -0.007810253051739598,
            0.26442020548018663,
            0.13366935239503067,
            -0.07520824084442819,
            -0.24158925023403488,
            -0.1596036900427242,
            0.06518289188980955,
            0.30863063770169014,
            0.06040097423087516,
            0.11234451566617246,
            -0.14560848926457098,
            0.1920962839158769,
            -0.24409796350218416,
            -0.03938433275783933,
            -0.011276156232035855,
            -0.0972297768735192,
            0.009516316245089087,
            -0.002538357742666822,
            0.019606209800231915,
            -0.03823619887573215,
            -0.12175548113130935,
            -0.257059220092165,
            -0.2027787612557173,
            0.30466496849598124,
            0.022811625071428542,
            -0.12709208322734442,
            0.10466582270691308,
            -0.1848728428296754,
            -0.17172941876927503,
            0.16764117260573716,
            0.13592549529297449,
            0.011758709272479346,
            -0.05284466843292704,
            -0.017703608069701292,
            -0.17989635142651966,
            0.08283349849680735,
            0.07190830537047027,
            0.14283838663318513,
            0.03715568092128395,
            -0.17836552307779865,
            0.11771358792895659,
            -0.15336523471529828,
            -0.16341515139569515,
            -0.20371456375062696,
            -0.1350913533672394,
            -0.16500931103824062,
            -0.0344853474241959,
            0.0644902797106771,
            -0.08453252841301252,
            -0.06391112502302213,
            -0.2044328148491519,
            -0.11991720025075425,
            -0.11494698905992153,
            0.1001614401529784,
            -0.29612331386677304,
            0.046436322456977014,
            0.2291033510458718,
            -0.1149302146940762,
            -0.1802419257649091,
            -0.01885219158649577,
            -0.035994230505534554,
            0.11624623528625926
          ],
          [
            -0.05779618086539879,
            0.03694551943697825,
            -0.07355689260419933,
            0.14398104337587173,
            -0.20418711321539507,
            -0.07947584937137525,
            -0.25230602132381447,
            0.07177570568286197,
            -0.11724217303832496,
            0.012875211287349681,
            0.06747439600806815,
            0.14034289501666636,
            -0.15884377852162446,
            0.06992448975328405,
            0.00041432087056529095,
            0.08794138747180831,
            -0.2179659568445148,
            -0.06892542862213101,
            -0.2461834748274237,
            -0.04816971535973138,
            -0.06281128150754334,
            -0.13687020070407607,
            -0.1351428434627374,
            0.12359756959902439,
            -0.10943381012119358,
            -0.08309578473003894,
            -0.043703438700992255,
            0.012985923587333668,
            0.21433761267739226,
            0.025373955138738948,
            -0.1730807546852829,
            0.19825175870253867,
            -0.18654765737697038,
            0.22244787376069672,
            -0.17331314522610705,
            -0.13658529310775552,
            0.026978089205182177,
            0.1273871695170559,
            0.15275833223036658,
            -0.20729224071838587,
            -0.20343697370208016,
            -0.2767976805629205,
            -0.02141229744724494,
            0.05373842722423952,
            0.30879504216448117,
            -0.3466125345747026,
            0.1592242925737652,
            -0.11414954122550519,
            0.13213798610213595,
            -0.031961205137154156,
            -0.06679386855841993,
            -0.03679426872575514,
            0.31257569638547045,
            -0.05294588028878658,
            -0.10695517844274402,
            0.01634538219281763,
            -0.03243882712560553,
            0.03741042601026639,
            -0.16973715740597062,
            0.06369637511512893,
            -0.031837711562190604,
            0.07908730160070453,
            -0.04696638787955159,
            -0.02811592999208618,
            0.10865621629014524,
            0.062167019033139655,
            -0.12788285843180186,
            0.022765449774223713,
            0.05476344691713117,
            0.1372882141170343,
            0.0006848843575653254,
            0.05486769890324008,
            -0.014611804352421666,
            -0.27747970875005695,
            0.09546568857864937,
            -0.1626237840789207,
            -0.11272752484162833,
            0.0610397709264906,
            0.2152197221242343,
            -0.2061582277693853,
            0.11524924990179085,
            0.13773919587235547,
            -0.09664991830127802,
            -0.05038458050638493,
            0.28957961902423957,
            0.20686681505710908,
            -0.1715890297186745,
            0.21570643230646833,
            0.22099625215781118,
            -0.016076259915611915,
            0.19746765792738089,
            0.10693918286359809,
            -0.031270387198164794,
            0.06270284212656733,
            0.27911314070467524,
            0.07810567961842846,
            0.08764117141832832,
            0.14789007354383096,
            0.17624369287239292,
            -0.2073028467533169,
            0.13383947049527942,
            -0.24188785383327693,
            0.06291072264557711,
            0.09895809595827519,
            0.3357836094448917,
            0.018907835535061653,
            0.11660317073516567,
            -0.015712645254112992,
            -0.1327287352102359,
            0.07334288905355933,
            -0.23888680043049926,
            0.23197110489696635,
            0.0774982888712994,
            -0.017439476877456946,
            -0.22529525674808612,
            -0.1788930181473604,
            0.16483200357143132,
            0.053581227283500996,
            0.1032437468001671,
            -0.2817956945028708,
            0.23630908984248342,
            -0.019138661700932705,
            -0.013863384214691382,
            -0.11803790593331065,
            0.3082785638251287,
            -0.065990417309417,
            0.12681943424080336,
            -0.12904323546476743
          ],
          [
            -0.19922627791848474,
            0.08241244198186852,
            -0.22385010148183762,
            -0.23234879737922753,
            0.14546946948376707,
            0.03326174374763754,
            0.05114628647964943,
            0.012206181852768849,
            0.026794783578653787,
            -0.049789328289807304,
            0.07241378768481886,
            0.13742740058455186,
            -0.05224275986203977,
            0.20428053121090245,
            0.03424602291168751,
            -0.13311532988200048,
            0.07873710515115626,
            -0.04856907054945713,
            0.3143663592533798,
            -0.03645826448829333,
            0.10665386475219266,
            -0.02542139659429866,
            0.06734520525210912,
            -0.02428019807205251,
            -0.03387533655286985,
            -0.05078881275300565,
            0.10533281171691047,
            -0.0011133687238519612,
            0.10765778196293875,
            -0.2338337805053535,
            0.18526267888315462,
            -0.012712653840781622,
            -0.13307379305400638,
            -0.13472338547189594,
            0.23409595050317886,
            0.13323216118846995,
            -0.06820157032472388,
            0.2658265534707769,
            0.005625714654110186,
            0.10615805932073978,
            0.014268988830524543,
            -0.015460836171552096,
            0.15270695428045933,
            0.26458687716694695,
            0.08618883010877655,
            -0.08985369476853748,
            -0.0830316646959167,
            0.11173732733182297,
            -9.977492534680654e-05,
            -0.0803678215742338,
            -0.08756822030579688,
            0.17787619241714195,
            -0.08664975841309389,
            -0.13011602075104267,
            -0.04899438734414302,
            -0.15433124685902522,
            -0.17440684050617378,
            -0.20695076082789882,
            -0.02400730926570931,
            0.05204851069919326,
            0.023101573615672003,
            0.18028699398465303,
            0.10363227787433787,
            0.09876007843338787,
            0.01999794124499371,
            -0.13050505627177073,
            0.14097637242239852,
            0.021141562148819685,
            0.2256484517356839,
            -0.11321828183472164,
            -0.05767744281009055,
            0.04795178974440068,
            0.12769293325162157,
            0.22940444723455786,
            -0.064847958573814,
            -0.12928557682265815,
            -0.08092617742339762,
            0.0918261543574825,
            -0.16166830099710314,
            0.02212246161972013,
            -0.1826360816202307,
            -0.1706327138061848,
            -0.09451063031707324,
            0.2519644915933822,
            0.020316290278561126,
            0.1320850071834714,
            0.041663527320639084,
            -0.24240434743598457,
            -0.3169849483075624,
            0.12570983092898644,
            0.050495703774481863,
            -0.2987063722595057,
            -0.08027298590813667,
            -0.015885631710900763,
            -0.16258625946746177,
            0.13634748463775576,
            -0.06771262811105794,
            -0.010810128846688593,
            0.011334855820561065,
            0.17084184276569025,
            0.09737854560049042,
            -0.05953463873772477,
            0.22927480990682414,
            -0.11284583569917936,
            0.09391591126662598,
            -0.16897341580938666,
            -0.12788600868463704,
            -0.35425757785096046,
            0.14041523630994102,
            -0.02633933001425755,
            0.003199790961103768,
            -0.05211865212436796,
            0.02728061198626465,
            0.03932741118420129,
            -0.002753269960492362,
            0.15380972772521118,
            0.13180464728800653,
            0.16681321422238474,
            0.10584651969824123,
            0.07603967461390135,
            -0.18328478250598568,
            -0.12311219981934902,
            0.18752341988544444,
            0.11709177602017791,
            -0.06845615067184757,
            -0.169660933528519,
            0.16201041315785084,
            0.1500516123689114
          ],
          [
            0.019273382473101824,
            -0.13148704888544288,
            -0.0901698469815027,
            0.11780593151757235,
            0.023103410716704284,
            0.010781329656524622,
            -0.2839962276209315,
            -0.026645211773865685,
            0.1304981148692324,
            0.011637701958037639,
            0.06467120696978951,
            0.099187839121834,
            0.12185796148966654,
            0.16588172060802733,
            -0.0355849812367588,
            0.19490856468919743,
            -0.214973281792833,
            0.10772561243842088,
            -0.2916388706910396,
            0.23332580687139798,
            0.20360210487319302,
            -0.042719092798708606,
            0.0030024812831664664,
            0.09566277165754936,
            0.049012994156548126,
            0.12179876699579523,
            -0.008543196350988084,
            0.27166684289643994,
            0.17770129935177129,
            -0.044476614858018695,
            -0.31239715531014867,
            0.07873974764273596,
            0.007670601341018427,
            0.36192788779896923,
            -0.19127472872292045,
            -0.1471164886235577,
            -0.16769551957496348,
            -0.05296877932267111,
            0.14105354202423112,
            -0.1831179319060067,
            -0.05282267936339426,
            -0.10161083641707717,
            -0.10556670946368528,
            -0.0897341639850671,
            0.14612228222588544,
            -0.34429825663749425,
            0.06710044488108985,
            -0.299147757854679,
            0.03154012561012451,
            -0.14758802711228372,
            -0.18231347645170048,
            0.040764785068209464,
            0.04572380649430975,
            -0.06818506792990614,
            -0.13580389616540767,
            0.13227358616465987,
            -0.11219612357221159,
            0.13143468735994632,
            -0.03446951129229269,
            -0.05970556813804949,
            -0.12547419984779748,
            0.027290071563576192,
            0.07958023992919311,
            0.014127971637436731,
            0.34060734409148785,
            -0.03911016192592934,
            -0.16768586508514677,
            -0.15100032488994097,
            -0.18466115657159932,
            0.22467466258873806,
            0.02883179557158244,
            -0.02944973902067809,
            0.049407091734637545,
            -0.32230716386341407,
            0.3251591379891569,
            0.003503336465737919,
            0.15245166890973297,
            0.21053856436396323,
            0.14130984033394015,
            -0.1693758852443733,
            -0.14573852457919376,
            0.06108618375963841,
            -0.04966249210153732,
            -0.026455855780999578,
            0.25014882964182783,
            0.09855949891085036,
            -0.16219046865391223,
            0.06479856246549869,
            0.1955522787949317,
            -0.14951878264908544,
            0.13358366898212648,
            0.2761477085757088,
            0.043626333981947873,
            0.07276750186590063,
            0.17297246215152967,
            0.007650823348455649,
            0.06754331404555618,
            0.1385607189974647,
            0.178686941564906,
            -0.10288508035013252,
            0.04204362079086556,
            -0.161003024838116,
            0.09624675938623557,
            0.0240729916576734,
            0.25319681963952806,
            0.12073015664750857,
            -0.037168692422180884,
            -0.01660161772557749,
            -0.09903515409552656,
            0.06332439501267212,
            0.035106454948388946,
            0.25451934502596185,
            0.019598558818728046,
            -0.2914058882494718,
            -0.20799088659637952,
            -0.2061948977115028,
            0.02281135665132415,
            -0.12385978679129406,
            -0.1703354332730257,
            -0.03639920420933497,
            0.32653490945516583,
            -0.108385449502609,
            0.012688645378665696,
            -0.15149516575446662,
            0.16259657366289318,
            -0.13493573757320895,
            0.11613112672788638,
            0.23043254776809813
          ],
          [
            -0.030989842685127826,
            -0.16928219626658794,
            -0.1902351663240073,
            -0.014877146774772355,
            0.06890563077986465,
            -0.08462827348877378,
            -0.050802330069320195,
            0.184092186155735,
            0.009753449862960971,
            -0.2258332302087306,
            0.2119261848349613,
            0.06144529116936385,
            -0.1470538572118333,
            -0.004042548052249509,
            -0.07516421651496849,
            -0.1529933179749631,
            0.13914564410875008,
            -0.18398370117939278,
            0.4027391765027766,
            -0.2045549351064378,
            -0.14482773096333174,
            0.15632494318880755,
            -0.13364933353541852,
            -0.12476819075433532,
            -0.0015044239843034774,
            0.1424044191305209,
            -0.017262356658510728,
            0.046990179584336246,
            -0.03233855424024776,
            -0.19468164201149932,
            -0.10557131184982173,
            -0.2679964711061568,
            0.030107528545396105,
            -0.2552555191514695,
            0.2100187460040171,
            -0.04370228742532795,
            -0.16286754118837998,
            0.15405670607467917,
            -0.14733035287749485,
            0.18790711831826987,
            -0.11955877785331305,
            -0.10464550632877495,
            0.17847358343147118,
            -0.052606899173499075,
            0.012643141571621325,
            0.20719594205642672,
            -0.13223035331001742,
            0.28327209960843525,
            -0.20739104731490965,
            -0.1349664405478725,
            0.15532880881789415,
            0.23095561649303234,
            0.015695305427455994,
            -0.10882242112534116,
            -0.011236834663544889,
            -0.11267300978744298,
            -0.0820419117834512,
            -0.006934467050870229,
            -0.18239702387092546,
            0.031466137448326395,
            0.03434038793541376,
            -0.11433606857024906,
            0.05194996978245514,
            0.19840573312311383,
            -0.07772942175322316,
            -0.19126224512717432,
            -0.11546353673055675,
            0.18866598564464448,
            0.23961968138893633,
            -0.042777903289091014,
            -0.22876392839246007,
            -0.20403747781045115,
            -0.023159381698800677,
            0.15512247723623343,
            -0.18778668767057075,
            0.1200055005586558,
            0.06330458111854771,
            0.058688009354365266,
            -0.23061616810604538,
            0.0630363063057056,
            0.0848423108823677,
            0.15855278602603592,
            -0.20223045780295945,
            0.14556026967883587,
            0.1468928979277976,
            -0.06779513174638237,
            -0.18741698637130458,
            -0.3123942608794961,
            -0.25406550770097824,
            0.2768668500330467,
            -0.300313176090716,
            -0.2277429996560754,
            0.10229343372226142,
            -0.12375685529417257,
            -0.12139251134045212,
            0.16477855141457823,
            -0.13520966072177365,
            -0.05206005188566149,
            -0.09997151832555373,
            0.09826656688322508,
            -0.19716392098548244,
            0.04310042318995868,
            0.21769776293907087,
            -0.10861287251590773,
            0.03915004369089259,
            -0.21647260183822153,
            -0.18708922155873356,
            -0.21772421097566455,
            -0.04855436189634053,
            0.06251801994283734,
            0.03596786964225126,
            -0.2153835449155738,
            -0.07764671104349732,
            0.08619683867306759,
            -0.12383931685584196,
            0.06766641515487691,
            -0.12515391993418903,
            0.04589435596813961,
            -0.07743552475880124,
            0.17184750440010044,
            -0.28604072668938046,
            -0.1220990541278743,
            0.2065873167901165,
            0.10274978246741652,
            -0.0064857469468049015,
            0.09111445145959084,
            -0.1279505149431609,
            -0.023582204678045657
          ],
          [
            0.15253164430969768,
            0.0947070339711721,
            -0.09544401745379764,
            -0.05453190062959958,
            -0.07931345963384219,
            -0.11279798172472041,
            -0.04972608685324644,
            -0.13899629263608587,
            0.06247994304729605,
            0.2716733651276979,
            0.15350113845955643,
            0.08823894000165317,
            -0.15789091968078586,
            0.03977085533425232,
            -0.05897164661275188,
            0.053705179457896574,
            0.009967244321886146,
            0.1372175683391509,
            -0.16498738241775654,
            0.25419841730437737,
            0.04638434565637852,
            0.054961603319359585,
            -0.0957535416943467,
            0.25865326722556725,
            0.1718565921357925,
            -0.08328619452073877,
            0.1888459290602637,
            0.2224484254876475,
            0.2278449055008335,
            0.2532568592062761,
            -0.14338321271324125,
            0.20186731058535795,
            0.008124008041573772,
