{
  "labels": {
    "labels": [
      "walk_front",
      "idle",
      "walk_right",
      "walk_left",
      "walk_back",
      "crouch",
      "jump"
    ],
    "rows": 7
  },
  "mlp": {
    "layers": [
      {
        "activation": 1,
        "biases": [
          -0.2965316749670253,
          0.11715147561114932,
          -0.10564673509233805,
          -0.3689773895104908,
          -0.08407267763391425,
          -0.0867593768762173,
          -0.12898996538919702,
          0.8542516893217077,
          -0.12670032579266483,
          0.43273383252407077,
          -0.1845906182969989,
          0.07601728281414634,
          0.27905837588642984,
          -0.08294592747504581,
          0.13277422238351105,
          -0.1343438283311856,
          0.1423261609309043,
          -0.182990207627293,
          0.05501507952991466,
          0.3830983926726275,
          0.10352378218076634,
          -0.1905437107315399,
          0.3551715162816189,
          -0.13740078317982762,
          0.13078215655567127,
          -0.1510970202008832,
          0.061634973055760746,
          -0.15201048831109157,
          0.07438926127347618,
          0.7657628283022648,
          -0.020752928927608695,
          0.23730674598260382,
          -0.4240425392624322,
          0.4896285649245413,
          0.570041148562407,
          0.45815751647378433,
          0.17576268452892,
          -0.37662123916644047,
          -0.16416559139239223,
          0.13497010744734744,
          -0.22174832376443118,
          -0.6444731685405999,
          -0.24546341568037705,
          0.43746797280819716,
          0.6016484313315887,
          0.11558633002744488,
          0.36708106259579465,
          -0.16082252901261496,
          0.2704159404502864,
          -0.44925175869036155,
          0.5755340028269571,
          -0.24922916312776178,
          0.1956819399898264,
          0.06837254621812508,
          0.3180100877031236,
          -0.21270993917810274,
          -0.22333051262898332,
          -0.15933829688222956,
          -0.6484986799747852,
          -0.1752774047051738,
          0.03264902816112005,
          0.5835653861398521,
          0.31801416530493365,
          0.026034689415964866,
          -0.1841055246000586,
          -0.12677042610551564,
          0.15239778182927402,
          0.34355583870720563,
          -0.26068658699878816,
          -0.13990117502511198,
          -0.22720420455645698,
          -0.11666142347632132,
          0.2709272469778027,
          -0.010769761186763073,
          -0.2990803885126476,
          0.3034009548824858,
          -0.02477309170582098,
          0.48867069960791154,
          0.34266040757452293,
          -0.095311486601463,
          -0.010818505278456046,
          0.43923486899362146,
          0.15613560007765082,
          0.6308071695599233,
          0.08350205565652206,
          -0.047283884502504196,
          0.0725011537646414,
          0.11477220114084645,
          0.5389369250003366,
          -0.45370212300378865,
          0.17847427421098452,
          0.4810856928128716,
          0.2529057114230003,
          0.49723208199038954,
          -0.07212969242866166,
          0.0221757019382457,
          0.2486688999358879,
          -0.1481442736282644,
          -0.0982165110447164,
          0.0298409012209569,
          -0.026005412584102224,
          0.26930679473534636,
          0.018046142220856553,
          0.20522466069679457,
          0.22583251296608634,
          -0.4416804164298598,
          -0.24154653783666885,
          -0.4011943016889338,
          0.17092286334277176,
          0.4066169456767865,
          0.2959673443465005,
          0.37706995956221784,
          -0.044418370495243484,
          0.27864630794432227,
          0.3262955182113403,
          0.6312018995795344,
          0.16095669898016904,
          -0.24170053907484398,
          -0.4114909104855568,
          -0.369551301719788,
          -0.17000449423931577,
          0.32613455356731547,
          0.32836945102235837,
          0.02056602854368138,
          0.3495716300311984,
          0.7003547075275273,
          0.20339791713086935,
          0.18375612952273035
        ],
        "cols": 128,
        "rows": 51,
        "weights": [
          [
            0.10022180882074125,
            0.16790798778346963,
            -0.12714206721948862,
            -0.14374792192290853,
            -0.17507107854046305,
            0.11582192535235242,
            -0.10849121156672425,
            -0.09060024697710428,
            0.10363014373631531,
            -0.051141786036474596,
            0.15405115074966033,
            0.04814692125819968,
            -0.07212818922155036,
            -0.13239425545004538,
            -0.09566246244187496,
            -0.16686872500593394,
            0.17405416550007866,
            0.055164738723709576,
            -0.05719856480447835,
            -0.06830638416867714,
            0.1814184038914338,
            -0.04807987204674574,
            0.13735589709763518,
            0.07274280699321126,
            0.11802337446175602,
            0.1285612755285965,
            0.15340300837227244,
            0.1205488947598535,
            -0.16845555634367665,
            0.15477751720707772,
            0.05008017352178758,
            -0.04651539044615437,
            0.07811791877810022,
            -0.04116262839841673,
            0.13627193484579686,
            -0.1244042244184537,
            0.12158815753738922,
            -0.09388565833834618,
            0.029194344153892663,
            0.17631148895236048,
            0.15957153582603276,
            0.13471862811378113,
            -0.02917199441674138,
            0.10164101712984915,
            0.005458923299206352,
            -0.1311426701695723,
            -0.04909678508713015,
            -0.021416635625238403,
            -0.08035289249323074,
            0.17721665330698835,
            0.05781318257613923,
            0.16481254918801386,
            0.14549120142071034,
            -0.08786240417606936,
            0.1694277699097584,
            -0.16681285066305568,
            -0.08324718345432479,
            0.01428706947397198,
            -0.15798470448829005,
            -0.11782222682739424,
            0.18189892324018683,
            0.059623511285394996,
            0.17094755203604722,
            0.16550539103970435,
            -0.17339484825411514,
            0.03668150609958001,
            0.05933296470242799,
            0.09252232437211655,
            -0.10720610168052419,
            0.018902290195716535,
            0.019729230470314853,
            0.11612364680389503,
            0.08290076252847957,
            0.10095935014673435,
            0.08632027231262927,
            -0.022757619854316728,
            -0.14929065673643227,
            -0.14482070930617116,
            -0.163907384833386,
            0.01111340679848662,
            0.0850128126892779,
            0.04295060737052116,
            -0.08729248587871108,
            -0.08038641709895769,
            0.11097203239051916,
            -0.021528384310994925,
            -0.13074037490084878,
            -0.14992762424524447,
            -0.06977029195208764,
            -0.12906414461450086,
            0.1455917752378912,
            0.015829201337412047,
            -0.1387192310638648,
            0.07788324653801149,
            0.06690952559672056,
            0.037117325974030446,
            0.1777195223928927,
            0.0044420102588219445,
            0.04565492556582911,
            0.09643352837359496,
            -0.13671892958882298,
            -0.06727829625971708,
            -0.1265721489221303,
            -0.039531097586371425,
            0.010476439289674394,
            0.0942097295270401,
            -0.1800438950566285,
            0.15973915885466755,
            -0.003313348532681033,
            -0.09696992206522632,
            0.08798532773040156,
            -0.08654376968414235,
            0.02028797389909747,
            0.0849904629521266,
            -0.15183852677168105,
            0.11860446762768995,
            -0.038447135334533124,
            0.0013353967947905005,
            -0.1749816795918578,
            0.13190256123271665,
            0.09507019440736533,
            -0.14065248332745273,
            0.13754586986342127,
            -0.04072680852396627,
            -0.15668841973351436,
            0.10862530998963209,
            -0.07150239658131381,
            -0.12279504334355971
          ],
          [
            -0.15637856114144036,
            0.19418925867305253,
            -0.049507531376389066,
            -0.19492534495374586,
            0.06794695698968849,
            0.17418869914568869,
            -0.29009550784175575,
            0.3129049790273682,
            0.1456370373255316,
            0.1271029602109008,
            -0.27407170124421637,
            0.04620902898555832,
            0.06676225219520225,
            0.17932274391052286,
            -0.20275085243334134,
            -0.18394932941325418,
            0.26899162577151425,
            -0.06718714483141137,
            0.45342822381111286,
            0.07724155225871465,
            0.211368666803894,
            0.032767826795896314,
            0.25401132918286246,
            -0.15875760437377026,
            -0.010212680541304591,
            -0.05741945144397842,
            -0.20944324569043202,
            -0.3604062033888089,
            0.2230544560493701,
            0.37232836912962924,
            0.23386644124682468,
            0.36796989067802344,
            -0.41357761150948125,
            0.5328551477109327,
            0.5132525759894674,
            0.17593043942594572,
            0.06070835066820002,
            -0.23989160463800205,
            0.0738808812595106,
            0.17333402786362107,
            -0.08510050361700387,
            -0.3346506416239446,
            -0.198157010813653,
            0.42480728606467466,
            0.5199365272488518,
            0.3298893745445267,
            0.3090284469696469,
            -0.16670602618455657,
            0.10117091244319668,
            -0.42013360211814715,
            0.45064424600127273,
            -0.21158871131610182,
            0.07578377125106035,
            -0.23451885339541884,
            0.1568361125200493,
            -0.09857591109475668,
            -0.34203811837700615,
            -0.05009875411330826,
            -0.5988837990072768,
            -0.07674642903492192,
            0.35796043184811444,
            0.7083596595598467,
            0.17580943079757946,
            0.10146550181423672,
            -0.5150606152119008,
            -0.20958472688084592,
            0.08995559046607256,
            0.0981137275857099,
            -0.3016590065563204,
            -0.523102490198263,
            -0.3302882562827888,
            -0.1315092225971226,
            0.007932943924030076,
            0.04830280703325461,
            -0.5729212327527868,
            0.28696984751620647,
            -0.09949095569064997,
            0.43402811333129326,
            -0.17932671671450043,
            0.08698213168585121,
            -0.02069086786278472,
            0.4509702100865728,
            0.21146272073747055,
            0.5967387897304526,
            -0.07705152224897424,
            -0.060913040748586444,
            -0.12830199639684262,
            -0.22177991488539234,
            0.3821091998392274,
            -0.06901028282138943,
            -0.05731102175065207,
            0.2943618457309675,
            -0.008227715222367179,
            0.46587316845257015,
            0.026085695411612132,
            -0.26564599545319684,
            0.39727379544728386,
            0.06171694816907539,
            0.03115367129361019,
            0.20440960040256476,
            0.15274162834746416,
            0.42229084884903667,
            0.11577818856290388,
            -0.02322700869605709,
            0.3573395632892507,
            -0.0929665051508282,
            -0.15240045548615425,
            -0.5156284469231187,
            0.11138767263057764,
            0.43832327229268236,
            0.1447781186121634,
            0.24392894652389208,
            -0.196123786816753,
            -0.16500205537335047,
            0.5158289994929437,
            0.5622163884852979,
            0.22923533686271214,
            -0.17957910710540742,
            -0.19019878623327513,
            -0.27419947432778097,
            -0.13331168007354482,
            0.25388495789500515,
            0.14473131304974546,
            0.31451303442099077,
            -0.03167386119330764,
            0.4856822260528346,
            0.13291031920355126,
            0.08173363003675517
          ],
          [
            0.26238786387261975,
            0.028943653072900418,
            0.11366915924506216,
            0.17109905730440317,
            -0.01922735899425646,
            -0.2013964544185816,
            -0.2894532961032399,
            0.18658352467877018,
            0.06888207442155148,
            -0.030576064312516308,
            -0.0048538904480212,
            0.21139529445846408,
            0.05364273925547044,
            -0.12416808283947163,
            0.2575925466569038,
            0.11084450250017021,
            0.28272076735221197,
            -0.18065374853073124,
            -0.1587271360997383,
            0.08398192878515132,
            -0.13919420867077306,
            0.039610407296757286,
            -0.0960413084409045,
            -0.08582835529675278,
            0.04035161570202665,
            0.09132115922570289,
            0.2819093635176764,
            -0.16198226072134322,
            0.2526391001303782,
            0.10266916034746022,
            -0.10108402661169548,
            0.1939880425000547,
            -0.05136733524856034,
            0.09343244908376576,
            -0.21223784370236107,
            0.17242987301218698,
            -0.14155621828583229,
            0.07111497574370504,
            -0.23963810966355367,
            -0.003593071645174668,
            0.26958281544255003,
            0.2646529137382831,
            -0.08411054695303086,
            -0.15982234123915978,
            -0.36849435304207084,
            -0.27179637650484234,
            0.30663522006782135,
            -0.211593508107766,
            0.20322466489762261,
            -0.02873794294664529,
            0.21168682814085696,
            0.24391980022621834,
            0.0031017832597021425,
            -0.03175597898386853,
            0.08208650452787487,
            -0.07126513513164306,
            -0.05521180606603392,
            -0.1754342397050596,
            0.21277413351324534,
            -0.19565493258409644,
            -0.3663519703286285,
            -0.3576596447783176,
            -0.12106457437162885,
            0.11665209381370119,
            0.29456546755125446,
            -0.04740471342970151,
            0.09657289147161754,
            0.18294550106544138,
            -0.16273642957913506,
            0.47456847243614164,
            -0.08342803305560968,
            0.1523077786407853,
            0.2644211461298304,
            0.017703896176998624,
            0.2560613383457086,
            0.09706084200038596,
            0.2558033624748814,
            0.03315347646446281,
            0.05330468715733612,
            -0.1548775098962878,
            0.18236939115677825,
            0.16635488449134575,
            0.18187870928078467,
            -0.24847069181356995,
            0.21352779106527084,
            -0.1855424750285825,
            0.22306785061633067,
            0.06344810584953538,
            0.08384660613768043,
            0.09990029341315342,
            -0.06322910389707986,
            -0.1069438455926911,
            0.19304738471871416,
            -0.27713480690815756,
            0.09543390614415402,
            0.12216286872593621,
            -0.045601409029633395,
            0.12005108723986307,
            0.1291879264287843,
            -0.15933200128778555,
            -0.22200847134933285,
            -0.3118527724546924,
            -0.23677598641279224,
            0.0641827618756819,
            0.11717791861548495,
            0.3417067349084293,
            0.05585435596286143,
            -0.08655029315343957,
            -0.26264550909241097,
            0.11500006290219329,
            -0.010540171535567832,
            -0.19356806408637628,
            -0.17500758766211819,
            0.2831518711008602,
            -0.1603900891950023,
            0.1515467714092585,
            -0.06447633708553743,
            0.04063806461724243,
            0.3102511942298267,
            0.057019621925248155,
            -0.021542542779031462,
            -0.044026672676797066,
            -0.147824024317182,
            -0.09423079409058688,
            0.1847725284090529,
            -0.019529301339516917,
            -0.29423790252505144,
            -0.05211972534666603
          ],
          [
            0.40007491564387515,
            0.41924751566316854,
            0.3458114194443201,
            0.08548480516879801,
            -0.21231198417378422,
            0.06536447357097228,
            -0.4992586918105061,
            -0.07387143137023024,
            -0.3601626576292667,
            -0.2672646863854439,
            -0.5964969687292743,
            0.15234234794824603,
            -0.032667026970671385,
            -0.3067426783531624,
            0.07360542654873617,
            0.01037198167961683,
            0.33765095175400656,
            -0.08928419694628606,
            -0.2770691205622961,
            0.22037372180561063,
            0.09953177496400512,
            0.41614577912662115,
            -0.3074656414800941,
            -0.07032623574071233,
            0.19769798264181296,
            -0.22104471510264567,
            -0.02780819537924178,
            -0.3045239451772426,
            0.42600592723542563,
            0.020292626708643725,
            -0.04578075894321004,
            0.5693621993862279,
            0.06325551487311724,
            0.4592140111394846,
            -0.7892584253638226,
            0.375222159321986,
            -0.42414407908040525,
            -0.1423722098343295,
            -0.14759122737448915,
            0.2836723679225231,
            0.2128744821647069,
            0.6783082730212153,
            -0.132791492176713,
            -0.09690956883856354,
            -0.6994097140688988,
            -0.2989140067020772,
            0.3385427556511312,
            -0.15655333405728442,
            0.6831047615325273,
            -0.22815546671483808,
            0.10512986000418778,
            0.0349795816129254,
            -0.4744757942851949,
            -0.46140788507720537,
            -0.25725538746440096,
            0.1035042750419368,
            -0.22238239046419653,
            -0.002546171817520368,
            0.391235707492496,
            -0.045333390629651873,
            -0.31579701727476844,
            -0.8479391061657108,
            -0.44730215410467217,
            0.3622272646265436,
            0.013238438424247415,
            0.38678770418802627,
            0.04882789985338897,
            -0.28185636596807395,
            0.015307211875553936,
            0.5546295308976339,
            -0.03444281109916167,
            -0.20780915362841554,
            0.006329634205506703,
            -0.0011708979200688837,
            0.43821797500435383,
            0.4462454043937274,
            0.5782673209376321,
            -0.0010310728370342226,
            -0.39908813896905726,
            0.06861216549552544,
            0.26746891371640025,
            0.05310663821326923,
            0.23745281637415816,
            -0.4024109519309792,
            0.14399550116818205,
            -0.11607430673115383,
            0.3512748861643177,
            0.014935932114522769,
            0.5055820675480772,
            0.6819498400721965,
            0.13939036197910937,
            -0.07086575422130435,
            0.183361291940916,
            -0.38685005743868883,
            -0.038182921446888576,
            0.028149221698289165,
            0.5974259157139068,
            0.0559251163934203,
            -0.019978660926002274,
            0.2502545901053351,
            0.11206482862871685,
            -0.3269488183289727,
            -0.22421427763756707,
            0.20842720165633047,
            0.27722273517766394,
            0.6973110269726462,
            0.12250996875174713,
            -0.16903194813668268,
            -0.2548976929891708,
            -0.034804303139749845,
            0.027628325946430065,
            -0.22460071098800669,
            -0.03161796233439792,
            -0.3824499593972303,
            -0.5494793950785362,
            0.1291197974358381,
            -0.1716575683039339,
            0.1277406824296856,
            0.4052932856428646,
            0.41630146219876574,
            0.1871404089993254,
            -0.3800259927958959,
            -0.4289614119314386,
            0.4601890950706449,
            0.3425538817538406,
            0.20372481712069912,
            -0.6980925780100377,
            -0.23236686157711114
          ],
          [
            0.21064724215260952,
            0.1599237660208196,
            0.722272546846096,
            0.17011061475417563,
            0.2387797795281319,
            0.7497454954929068,
            -1.1771956817841787,
            -0.13092296426798528,
            0.21452851022294783,
            -0.15072321858310778,
            -0.4717291415328086,
            -0.6089304621784559,
            -0.6258204690988401,
            0.04794315928400732,
            -0.673489603378375,
            0.06623945761466497,
            0.9358494952410995,
            0.33202655312438584,
            1.1018867513605686,
            0.06376140829123983,
            -0.17452029122679427,
            0.7505990802840322,
            0.24269714693398403,
            -0.4859980681569584,
            -0.41615519797830347,
            -0.11585954898222821,
            -0.14161216836055185,
            -1.0555969632283375,
            0.5777882720989276,
            0.5778697471603016,
            0.6920567854808363,
            0.7383990754559293,
            0.22422759945996107,
            0.9333424612287455,
            -0.5581867690210046,
            0.6075612063169068,
            -1.1915039975785036,
            0.3925975596940389,
            0.47499663422604455,
            0.20006046313378592,
            0.8062992190039103,
            0.5354862755962526,
            0.15856039776319036,
            -0.2841412425747572,
            -0.42795663655765154,
            0.5931517982465316,
            0.12213327368406857,
            0.8482560426644137,
            0.7921454176651754,
            -0.21876199063009066,
            -0.028099753260670532,
            0.6975160991616877,
            -1.1190925744168954,
            -1.4503999662387697,
            -0.8158110050980254,
            0.18244146923165358,
            -0.5028015572020826,
            -0.05165385262615874,
            -0.2198724949543315,
            -0.012249700023746254,
            0.758124927953053,
            -0.11359287001977997,
            -1.7725503335388633,
            1.128528045526214,
            -0.7357282632919109,
            0.3401326531713063,
            -0.665966600481068,
            -0.539502303662822,
            -0.45411969685640957,
            -0.6698053018534492,
            -0.02354210474360376,
            0.41805547505829005,
            -0.51353784736422,
            0.1761448065297256,
            -0.3559820414976664,
            0.07414425257264494,
            0.25535978560512496,
            0.3244455514106258,
            -1.2959295266244413,
            -0.04563391515823357,
            0.5951237528548102,
            0.0777044383057865,
            0.34855826546337026,
            -0.16848417332350724,
            -1.3566461836633892,
            0.3425803429636279,
            -0.9295763635874525,
            -0.9470583119845123,
            0.3569169556187878,
            0.8500086406397822,
            -0.2459348272170809,
            0.2482580969365379,
            -0.5989479362953817,
            -0.4634138816496359,
            0.5151444863625622,
            -0.7342441129656148,
            0.9481381733137858,
            -0.02708590293919618,
            -0.07554725258605342,
            1.4124821140305197,
            0.6654729841422269,
            0.10821511280940242,
            0.12083592416720824,
            0.38314706189708114,
            0.8296739262478883,
            0.5744297410473048,
            0.2738277444999298,
            -0.736750748697029,
            0.30803286123946305,
            -0.2536613340797933,
            -0.1602762291333799,
            0.23583151389563378,
            -0.3240943513577096,
            -1.4248917189043926,
            0.09361795512293002,
            0.2505082499259022,
            -0.08509690817960898,
            -0.1084674433378886,
            1.2824376963246793,
            0.6288856502420339,
            -0.13890206949017606,
            -1.0740759072543955,
            -0.17247487852001864,
            1.105956546107151,
            -0.10084447726094938,
            0.46500672585982844,
            -0.754366513477588,
            -0.8325808765971578
          ],
          [
            -0.5565955567347712,
            -0.5403017115747069,
            -0.37010661517535726,
            -0.3614314729652032,
            0.21934864517588457,
            -0.07924743274176242,
            0.5124762252838804,
            1.0448230970229637,
            0.14588573105884184,
            0.537632280958068,
            0.23288151426843892,
            0.0322858428275201,
            -0.006073276111240893,
            0.14744893194837594,
            -0.1154512018102785,
            -0.05303717308287639,
            -0.08585566756455769,
            0.16951675671629166,
            0.5518076884648027,
            0.03968308947963101,
            0.08701017663960799,
            -0.5495517434280063,
            0.7357773165427686,
            0.1230287898021383,
            -0.10095910605286777,
            0.33576665045717424,
            0.04350162728963836,
            0.19925859140194868,
            -0.26034260304885504,
            0.658428560207875,
            0.16097822891145686,
            -0.24432251360802348,
            -0.4362975738226504,
            -0.017808487988003278,
            1.0868790197001348,
            0.03741879602069121,
            0.4402546328770692,
            -0.025065508738623912,
            0.10160550019035007,
            -0.2055835921580684,
            -0.5914822673822796,
            -1.4718084405441174,
            0.04497381486285115,
            0.41707117089051166,
            0.8757237078504508,
            0.1533829333732493,
            0.05250318353124652,
            0.32537317239642977,
            -0.22898007113160188,
            -0.01565434769734145,
            0.3654788617480308,
            -0.4548152978522685,
            0.4041591669974079,
            0.26188350071384126,
            0.28070474857806516,
            -0.16070611540832605,
            0.11535255730670499,
            0.07266834565700331,
            -0.7025119958499921,
            0.04652371178723904,
            0.3993256568109497,
            1.2796914462679887,
            0.7758351373653665,
            -0.2735088086660058,
            -0.11362933386850356,
            -0.3870704985756418,
            0.04637527366405784,
            0.4361393540249305,
            -0.26162877850009825,
            -0.6049359639139805,
            -0.09594865780188903,
            -0.006210043526161849,
            0.15855407821196693,
            -0.04435464811242131,
            -0.796532436309107,
            -0.055248986254913236,
            -0.508052454017822,
            0.25217735009215453,
            0.49892347302057916,
            -0.19445661005874823,
            0.015052867281513298,
            0.1931847803674359,
            -0.17287626718140991,
            1.1133729229274651,
            0.1443474822659426,
            0.1738412811462693,
            -0.30244477127067065,
            0.2291417478911896,
            0.08783430671961732,
            -0.8400222598992777,
            0.22142239303798777,
            0.43629392947348156,
            0.01007031065962861,
            0.737326407158416,
            0.056063343101315256,
            0.10023740566185188,
            -0.07778732737025953,
            -0.15789550775324568,
            -0.18597021280229642,
            0.11178785238186248,
            -0.0026118689924971216,
            0.574674688812989,
            0.4218350562006304,
            -0.2437831294464449,
            0.08923482070933395,
            -0.9181640878780417,
            -0.46192718947942896,
            -0.2626490832363438,
            0.28516224279418073,
            0.05881746358072743,
            -0.05523892459844121,
            0.6528706138924592,
            0.2874071196409588,
            0.27448749157483887,
            1.0923321535453032,
            0.4272294728444128,
            0.26179313219390116,
            -0.1792662513507223,
            -0.45407602391352836,
            -0.4888045497216458,
            -0.1865410070797116,
            0.26032028701078336,
            0.7353989720564704,
            -0.3012504316411429,
            0.12256359216982586,
            0.30053193541718504,
            0.6798339381655356,
            0.17479841590257014
          ],
          [
            0.5287881302849838,
            0.6903155170053473,
            0.029976307596951822,
            0.22151231515522518,
            -0.5225172222768023,
            -0.18591133657885095,
            0.2237668482217316,
            -0.4612775915004055,
            -0.7629767041837247,
            -0.5269409756911414,
            -0.4975342248913284,
            0.40791326823410967,
            0.5581837148801803,
            -0.3715765940020931,
            1.1473051392108569,
            -0.31540757795944535,
            -0.09953034028943034,
            -0.7653474276839466,
            -1.7453432398106221,
            0.5731710758055927,
            0.3010961393701754,
            0.17145240143443008,
            -0.9986020242056348,
            -0.06248123156579328,
            0.8991520680829701,
            -0.3972490864908962,
            0.36687279067221246,
            0.3266777653893966,
            0.42658088108850767,
            0.13273578911273343,
            -0.7620582804008417,
            -0.05980960738522495,
            0.13840290368382455,
            -0.15176075634612232,
            -0.9843496046272533,
            0.09887077538577074,
            -0.023139341536595578,
            -0.3438877191673668,
            -0.4672354461850012,
            0.23255031894532874,
            0.008271949651490638,
            1.3867580499034857,
            -0.20621583470234522,
            -0.4264009690314225,
            -0.9663980508077883,
            -0.9054130761100212,
            0.4616076560962921,
            -0.9843330676584482,
            0.11220222810445518,
            -0.10577110188350346,
            0.3909854321780404,
            0.06467056182158523,
            0.22182901319253095,
            0.9733674425620908,
            0.31130996249254517,
            0.11095186383699654,
            -0.3239812059289361,
            -0.05886314397170535,
            0.5112191372869586,
            -0.40532243734230056,
            -1.3857509974505682,
            -1.4869443076757463,
            -0.016423609470538003,
            -0.5436629141962173,
            1.023647165534735,
            0.2545642901753874,
            0.4315647145922996,
            -0.03296329095564759,
            0.12025267869856364,
            1.3100546101178216,
            -0.1580370911740018,
            -0.37108907963774834,
            0.5121981584815399,
            0.05358871648417524,
            1.4836625910432415,
            0.6042139186461823,
            0.8128520507308323,
            -0.16355909881608063,
            0.3860055483416921,
            0.1381756539232743,
            -0.16317072428882037,
            0.3090951444832562,
            0.04636734795438229,
            -0.8610890824494695,
            1.2059889475382315,
            -0.2938742872237501,
            1.1517001560686553,
            0.6849739843034174,
            0.1800763490719354,
            0.35541252353030794,
            0.11912371465928781,
            -0.46311134478524507,
            0.8469189147234913,
            -0.6035629278261507,
            -1.0861627832393772,
            0.2636954604421453,
            0.0009766779457906797,
            0.13252358788176596,
            0.5160357099363847,
            -1.0490864640832724,
            -0.4721481580098704,
            -0.767974207358852,
            -0.8358691532565956,
            0.600680339617351,
            -0.3657750772588038,
            0.480491763174257,
            0.12830160821004616,
            0.39075704712532777,
            -0.8663750791142595,
            0.43255106263411364,
            0.7441574392134216,
            -0.9165169914256887,
            -0.05514456181590193,
            0.5012230390430742,
            -1.473519235129965,
            -0.040239268524686185,
            -0.38672177355072274,
            0.14791851991384916,
            -0.13850844552157038,
            0.1512023380397858,
            0.27412558478834664,
            0.11716731062272254,
            -0.7317030889986906,
            -0.38161246382388464,
            0.355379207435952,
            0.4102936889006669,
            -0.43468946046634327,
            0.3271489302224255
          ],
          [
            -0.22219010288322494,
            -0.035202465395292704,
            -3.0308394401603622e-05,
            -0.12311330442888573,
            -0.056635721212628436,
            0.03708768806485848,
            -0.1712688912272198,
            0.7280700709317534,
            0.005121977673150941,
            0.3705935517875887,
            -0.19121193896129832,
            0.05708573589414505,
            -0.024862715218414988,
            0.04900740226962033,
            -0.10226290852597288,
            -0.05051540415179552,
            0.040528427857780186,
            0.057915224618101724,
            0.4081877369635363,
            0.22222770995620925,
            -0.08059503814002356,
            -0.09108818762076121,
            0.4464477203305697,
            -0.2986883225241717,
            -0.0572138599920303,
            0.0005358312214860183,
            0.1659703304792282,
            -0.3963245300040171,
            0.27051787568009755,
            0.7361367605308707,
            0.07297931083534293,
            0.18874902691086068,
            -0.463729348623605,
            0.630011972130224,
            0.4823963212998204,
            0.22155071653869107,
            0.12005889371386783,
            -0.07939422664119498,
            -0.050689995070985296,
            -0.055950843975413736,
            -0.041473456161902365,
            -0.5984841921539285,
            -0.28690903734982803,
            0.37086614376871163,
            0.24615550584539134,
            0.4459661362586418,
            0.13174513351897685,
            -0.11857449863431778,
            0.28141114251122024,
            -0.4173813103480587,
            0.23443498622323836,
            -0.21347529439836463,
            -0.12561148400767272,
            -0.18967385683839455,
            0.07364501916397877,
            -0.08577904399722418,
            -0.1600502568637917,
            -0.039613231541847274,
            -0.7432659525421758,
            0.005736940213580419,
            0.18251390760116468,
            0.5562967528640672,
            0.1664356934468713,
            0.40348733922505137,
            -0.5122929254170492,
            -0.055761957781581314,
            -0.12391340206372473,
            0.3141941331187393,
            -0.4441683441522881,
            -0.42155894377635356,
            -0.21718982240593754,
            -0.06310250185161921,
            -0.05896179721223755,
            0.11966429505704432,
            -0.45855931698390245,
            0.007217158636849414,
            -0.10807567650906078,
            0.3260660358088659,
            -0.013004093270249869,
            -0.04107420177007394,
            0.27027730114254417,
            0.40046068550552527,
            0.33699669264143894,
            0.7060714734469039,
            -0.26199796955690474,
            0.06215070924379818,
            0.04474416341516766,
            -0.009857233949929326,
            0.4726751219391178,
            -0.14691714454642696,
            0.19232705999047825,
            0.5189432431448898,
            0.013770874038074846,
            0.4234822550713906,
            0.18872903226004906,
            -0.24527510950394757,
            0.37411198466550827,
            -0.013921971254499775,
            0.01678974369000072,
            0.3146240567902108,
            0.12308145096487434,
            0.29442874370883737,
            0.2698228431521182,
            0.127438349975887,
            0.2668377527784238,
            -0.29153749481370644,
            -0.08042388160740382,
            -0.25402555488971823,
            0.15884630677378564,
            0.44116502349690867,
            0.18521693053317664,
            0.20800301666357895,
            0.03659630060822757,
            -0.29344252274698546,
            0.2700568049001786,
            0.6319212791398677,
            0.06449022312491527,
            -0.1729209752378371,
            -0.07263280579363272,
            -0.2620698497117108,
            -0.2576224577218652,
            0.06585763181388708,
            0.29555973070820685,
            0.030006900438663282,
            0.18930752296019024,
            0.481309695426927,
            0.03378830809196371,
            0.004476842476738528
          ],
          [
            -0.022398201377941455,
            0.05508519974782088,
            -0.004963149301211925,
            -0.13865739723062298,
            0.014240106791751684,
            -0.1544473304755625,
            -0.007440098366287974,
            0.404202251375314,
            -0.24354025403974636,
            0.12873141599443805,
            -0.2963697096658795,
            -0.0003657989268566618,
            0.22623417454033354,
            0.016608444287606727,
            0.2481666804238471,
            0.10831054979976738,
            0.23202466797824745,
            -0.22300959848493956,
            -0.19878995257454243,
            0.20956956530050097,
            0.20460348036423687,
            0.1299254042526769,
            -0.1973096821857948,
            -0.16306666428139244,
            0.2814832530493774,
            -0.019803800651611126,
            0.17807915640160646,
            -0.13750141741867425,
            0.04550193719619582,
            0.182258388453817,
            -0.05636095235865698,
            0.2306423535383635,
            0.008943824926285466,
            0.22457054341347052,
            0.07397650374404462,
            0.08792595894943808,
            -0.177985073086125,
            -0.0687880112573689,
            -0.1518462189085952,
            0.31009051359272766,
            0.11966568003361736,
            0.13648090215254632,
            -0.1847246919177632,
            -0.05965205387520997,
            0.1532028189045344,
            -0.1019044051406825,
            0.2766629867164922,
            -0.16739578886145404,
            0.20097833314165026,
            -0.3722540777593775,
            0.3134190217547543,
            0.1509900705549999,
            0.03784608251621009,
            -0.20600187943780934,
            -0.02571428022643035,
            -0.09576226595918706,
            -0.20846722802603065,
            -0.0006625907838648383,
            -0.08144867589899113,
            -0.11801883838106497,
            -0.02930212831499667,
            -0.18630728363515112,
            -0.07540029278280719,
            0.1718482330386029,
            -0.031325457027522395,
            0.13688661748727196,
            0.07837474122859192,
            -0.060289872832760494,
            0.05361414288871886,
            -0.004927199207511009,
            -0.18363446794438532,
            -0.15373176289152723,
            -0.05812190864421852,
            -0.1331662159080511,
            0.20764668982135087,
            0.28020735359285137,
            0.1389182851080033,
            -0.02389964686443517,
            -0.033096363769987903,
            0.11117413794228372,
            0.1551143352993225,
            0.17736612004974697,
            0.10820095388635492,
            0.1764880993159221,
            0.11052453797207663,
            -0.10681218602270424,
            0.04353344383711985,
            0.11565633303598384,
            0.164061852501721,
            0.053755200018940234,
            0.20528743886923348,
            0.24416155696581626,
            0.1834724990620494,
            0.19697748526187467,
            -0.14627626007299321,
            0.06656905768219501,
            0.2878542054972734,
            -0.048604433844547316,
            -0.055489100279229216,
            -0.04065721852960436,
            -0.001471156160638499,
            -0.08194119085701826,
            -0.053988692934287895,
            0.04073109529866063,
            0.1469577949957656,
            0.0914751222567296,
            -0.09164497719788206,
            -0.15662964003195476,
            -0.05800528248635594,
            -0.002774824839255557,
            0.14723231901992342,
            -0.001224244574354096,
            -0.2369971450803908,
            -0.057088241654939684,
            0.03183332761123286,
            0.3404812176702307,
            -0.048630699576000844,
            0.02561429224520796,
            0.13463766037070163,
            -0.027956408352637036,
            -0.13114661820696466,
            -0.020644015076823206,
            0.0011081194914387695,
            0.16466411884508986,
            0.07303352130674486,
            0.32445052469737895,
            -0.005470503338310626,
            0.24097926322567398
          ],
          [
            -0.17704364771576897,
            0.23635448447489305,
            0.18334532056433758,
            -0.27601240780214903,
            -0.0810171312293872,
            0.24327464446749394,
            -0.42106727834311536,
            0.2799116238387268,
            0.07703776635663914,
            0.13019614494020468,
            -0.1995696623030847,
            -0.1581250044314165,
            0.04892630249641846,
            -0.05537793399775504,
            0.01860115465924274,
            -0.12212492770537006,
            0.061045394723715646,
            -0.06125971177351987,
            0.18768968330336597,
            0.12035496927948558,
            0.04104321477858593,
            0.17985292144874968,
            0.07849924752366584,
            -0.05020064908930076,
            -0.14431605921601293,
            -0.17859535360692988,
            -0.04784894594629691,
            -0.1842559109085852,
            0.10650888261315825,
            0.23771282157114032,
            -0.09031157759485214,
            0.1838997875855772,
            -0.27228441707850354,
            0.48064713146705446,
            0.12370108188420006,
            0.4062853245045293,
            -0.273984109132351,
            -0.1581789295053759,
            0.0934458812187619,
            -0.1114095218908534,
            -0.03372524769801136,
            -0.2091277933055278,
            -0.037039312180748366,
            0.2747454910501318,
            0.02204300615411518,
            0.3504506474255856,
            0.26645816015600227,
            -0.01045499967014328,
            0.43175009437450174,
            -0.12619881447438935,
            0.01974148320401393,
            0.056142976585875616,
            -0.27215832014160346,
            -0.22419154018783674,
            0.054312799966940536,
            0.14846620806181982,
            -0.28720968599236074,
            -0.12197635624318985,
            -0.30103958219028915,
            -0.23624499772602153,
            0.24949159150973285,
            0.22880650483052262,
            -0.2709779434522043,
            0.3016784390683519,
            -0.31159149427257093,
            -0.11332010452916735,
            -0.1406118085374573,
            0.14648049284561226,
            -0.31715189096419943,
            -0.0925437233814595,
            -0.14974597072677667,
            -0.01631250768419469,
            -0.15897647580997337,
            -0.025197254883602808,
            -0.14809296647614897,
            -0.059406264204604924,
            0.025263100468836966,
            0.27575789217888497,
            -0.27165478895080775,
            -0.19343219585280566,
            0.25573177879367776,
            0.2588388628550607,
            -0.019796817473728065,
            0.2284837237899283,
            -0.11141263463003512,
            0.13796317174542175,
            -0.1863206800487853,
            -0.0958645923130399,
            0.18510740467004938,
            0.025459480722520668,
            0.08050646644360011,
            0.22360037599456584,
            0.12240850757679422,
            0.10935311880075645,
            0.19636095896502317,
            0.04179383116353641,
            0.2012951627558154,
            -0.081387952929165,
            -0.2567810625598202,
            0.1182823651745532,
            0.165778188736135,
            -0.04949778322667614,
            0.030089046335477647,
            0.14816896562709841,
            0.33774990107968045,
            0.10918797886404942,
            0.1087983356691394,
            -0.1645859776800476,
            0.16034638538538729,
            0.3245460047513887,
            0.11782349368443745,
            0.23089727041302782,
            -0.21077697621359684,
            -0.27040919851584017,
            0.23633687689230887,
            0.1902179442766515,
            0.09288728103586551,
            -0.07064291947163855,
            0.2346140153621445,
            0.07807723269999825,
            -0.10160433624057298,
            0.07108677097443254,
            0.15633929320291962,
            0.3419516462211507,
            0.27658443157550494,
            0.5134512517574964,
            -0.02291291494799425,
            -0.16690592985876337
          ],
          [
            -0.015222052392555016,
            0.059820423000038904,
            0.13283376669484656,
            -0.09421885164157442,
            -0.017061856218676924,
            -0.1578484401026655,
            -0.287462996104441,
            0.3754687847009348,
            -0.11408704928376408,
            0.34979289344190817,
            -0.012862164206669682,
            0.015588312024109091,
            0.12809330738745447,
            -0.031096019855727478,
            0.17022404404993607,
            0.07365999369032478,
            0.28317026401741074,
            -0.2353392649292443,
            -0.24634255244761236,
            0.3898964064643326,
            0.0717400626584513,
            0.05713077399380376,
            -0.211157336495011,
            0.04161589457935488,
            0.2971142473274532,
            0.008278084595760642,
            0.14320128865136364,
            0.0127239030333833,
            0.16065021303127783,
            0.5021528478248349,
            -0.06985002300125497,
            0.19502781083406473,
            -0.03766205135232302,
            0.12730772329143422,
            -0.07582512916517616,
            0.2727728973687095,
            0.034158003919093294,
            -0.18912041769829868,
            -0.054444470828515765,
            0.06509426672958618,
            -0.07536057800055346,
            -0.10150200929856797,
            -0.33282259359675576,
            -0.059390776605100205,
            -0.018610344037157927,
            -0.17874586997596595,
            0.11654486217863251,
            0.10088954504243759,
            0.04138972514921454,
            -0.04161887442314826,
            0.24482287708924946,
            -0.11231383007588423,
            0.21406096751603723,
            0.07168965627656214,
            0.2555651598246206,
            0.13173230165288072,
            -0.18161852519507127,
            -0.28514106196876743,
            -0.2711312630319341,
            -0.10675258628021252,
            -0.13020941602473743,
            0.03596118806154204,
            0.06602739841957228,
            0.05860105035115505,
            0.17974241686559753,
            0.008859938257510455,
            -0.03333984829904925,
            0.30405484914150926,
            0.06577268731610618,
            0.2015429896670194,
            0.0437544013228408,
            0.12080828034381497,
            0.02430893359003246,
            -0.13722809866806956,
            0.18761688833594656,
            0.060991318017628866,
            0.07463576451893246,
            0.10657830382126242,
            0.22766082071783544,
            -0.06679360477767861,
            -0.0738063652421089,
            0.059997832738182454,
            0.05756137263423602,
            0.048528172143333735,
            0.2070841759335598,
            -0.06478814154674697,
            0.20436046765753893,
            0.237150358611686,
            0.46267068442414516,
            -0.066061914501726,
            0.02008555398336723,
            0.31400846491640877,
            0.1640168322501324,
            0.08999877492085297,
            -0.20602602834040834,
            0.04064766005679681,
            0.23320218374113752,
            0.045172493311702706,
            0.0893276217416503,
            -0.25532930286558564,
            0.003969507018758185,
            -0.2545695035347282,
            -0.13038583185008146,
            0.12182474076301894,
            0.11843245472962188,
            -0.028658283525243577,
            -0.02136530270064462,
            -0.3369677402089979,
            -0.152372286252306,
            0.001393268615232257,
            0.08014843077420723,
            0.041563410544811455,
            0.10211668188398426,
            0.37302697142023505,
            -0.25221563184578916,
            0.21808961682412395,
            -0.20512010345296988,
            0.06218210629557645,
            0.031819364910747876,
            0.048794080195883154,
            -0.12768594540753556,
            0.27076424654553455,
            0.03857200715662056,
            0.0740735252131168,
            0.23221317600763572,
            0.23371703739001576,
            0.09872813397820909,
            -0.01061934642769446
          ],
          [
            0.22090941981776124,
            0.39385061683508,
            -0.06874973449683323,
            0.0323155347928981,
            0.10823753060063294,
            -0.025660062179785725,
            -0.09621384220749234,
            -0.2549587627187056,
            -0.33089088595767246,
            -0.004866250902202524,
            -0.11116810948288064,
            0.2442133408994371,
            0.3397699897946875,
            0.1106301170469228,
            0.184671946283905,
            0.06229258339965273,
            -0.0029907999551998495,
            -0.09751727628961912,
            -0.5920474699252293,
            0.19973523669365453,
            -0.015003875331108118,
            0.08590385849060317,
            -0.2239754255250991,
            0.04712683916242157,
            0.23894208664846475,
            0.01987047267307503,
            0.13046797425952797,
            -0.1010779502072632,
            0.02396910516963029,
            0.10720960852396805,
            -0.31397103317732244,
            0.13911985665265048,
            -0.11974477552318893,
            -0.02912964277592852,
            -0.5432324684296334,
            -0.0466366088019066,
            0.1981021343245054,
            -0.23021416265304137,
            -0.23754994848502667,
            0.1559950209553367,
            0.04046946316857641,
            0.4728689163497446,
            -0.03298070400124687,
            -0.025706046338155215,
            -0.5084450631496733,
            -0.23434910503524395,
            -0.006379807339389269,
            -0.46155566259327174,
            -0.08026139193811076,
            -0.20301921812743992,
            0.0860708503189048,
            -0.012055308572913325,
            -0.15340847240091068,
            0.015057548120981996,
            0.3866521494796049,
            0.1402916891588362,
            -0.03851063043551245,
            -0.1368394731894913,
            0.12788366762404307,
            -0.2312866971191798,
            -0.3148025380995926,
            -0.5370108933910793,
            0.1162530296579431,
            -0.007488702806339562,
            0.08577748768653597,
            0.07792218446698197,
            0.2576026679614717,
            -0.1488768059531488,
            0.07954940318631741,
            0.34935096328380333,
            0.06054366572364941,
            -0.04433670236452719,
            0.35953089375492703,
            -0.0696394844864301,
            0.504294672035154,
            0.3090528604203091,
            0.2481720866939011,
            -0.06771952452015584,
            0.07905160328571853,
            0.04175888409556615,
            -0.14287426191283079,
            0.243223030486392,
            0.08247820647243725,
            -0.5016173462787872,
            0.15325925868633955,
            0.12320208611285205,
            0.3938135902427243,
            0.007245072315849401,
            0.20863860221794078,
            0.37658526981299767,
            0.027487128216612325,
            -0.10845354312610062,
            0.086797584012389,
            -0.3348927378363398,
            -0.2887123892989959,
            0.058001707605569254,
            -0.000409730157393528,
            0.1832236403821738,
            0.043924516469030485,
            -0.18663362190341556,
            -0.24471758521703516,
            -0.35667461750052964,
            -0.09510718233659497,
            0.03906687638323099,
            -0.12012589241597231,
            0.45104877408151967,
            0.052644030718889824,
            -0.019852669048925745,
            -0.14387378968190148,
            0.10661735578678622,
            0.1264275551245856,
            -0.244888175734173,
            0.13666433809035064,
            0.2870964364270806,
            -0.44510737290240093,
            -0.20534010424408797,
            -0.23896010499105894,
            -0.1940238208776274,
            0.13277028113070544,
            0.20702976344978755,
            -0.0491127674145721,
            0.02617241947426444,
            -0.2343746049052927,
            0.0832007118102512,
            0.13555354736362785,
            0.2732976842547598,
            -0.19615513861368103,
            0.07286100669695691
          ],
          [
            -0.43316060740586615,
            -0.30055234252317964,
            -0.19013352390324464,
            -0.05957026851595405,
            0.09534426039095663,
            -0.1376151590775792,
            0.16912646709907428,
            0.7748938342860546,
            0.19214161200819546,
            0.33475617144182507,
            0.11760925707046287,
            -0.0494142228534765,
            -0.10427247238426755,
            0.2573780282959582,
            -0.25899291109266265,
            0.2632582369148796,
            0.005774792709029788,
            0.07789619947015919,
            0.4591440289405053,
            0.01010571951722329,
            -0.1252402063372081,
            -0.2923968597723995,
            0.46750914478663536,
            -0.01965732264858003,
            -0.303226984594758,
            0.07783797846424974,
            -0.13846928908690734,
            -0.04972633547735128,
            -0.10726792267746628,
            0.2697400773208617,
            0.03915486053682184,
            0.009334914243669515,
            -0.11199853813472634,
            0.01041796911664127,
            0.9415759008516587,
            0.18106194174193288,
            0.20479022003527042,
            -0.20905375229819975,
            0.12005709370829085,
            -0.2602587977616747,
            -0.46919628819768966,
            -1.1565450381256916,
            0.18887007042400802,
            0.20640121303961004,
            0.6849453348163334,
            0.24710685487201167,
            -0.0008854028907451677,
            0.24697899841897325,
            -0.0019000346962394375,
            -0.07426691377900066,
            -0.11090252622002683,
            -0.3891289544536139,
            0.2423704489383165,
            0.08223608614646552,
            0.03364799126941453,
            -0.21888983647305824,
            0.18123528851996393,
            -0.09442693281741857,
            -0.786784218471182,
            0.204115083736476,
            0.5430235521721115,
            1.1662327650445523,
            0.15522411518002446,
            -0.24029293629394508,
            -0.2983416414633027,
            -0.27419756677059043,
            0.14654922206560486,
            0.3484278604918925,
            -0.1600752955346878,
            -0.4631140190824448,
            0.015645286283080144,
            0.061766457269618893,
            -0.1306629727552273,
            -0.0028858486389864366,
            -0.8929832388223596,
            -0.04399799110115689,
            -0.4721997597467965,
            0.29704697904854077,
            0.13999041628634729,
            -0.10359231147059406,
            -0.05293106473047436,
            0.0025991839670856044,
            -0.050109033601337206,
            0.9355189908231334,
            -0.31470193850459216,
            0.06233875572855416,
            -0.4182744042271283,
            0.058990502552094294,
            -0.10988074204588406,
            -0.63732783007926,
            -0.07507001285474535,
            0.5433853957377317,
            -0.18361615897319067,
            0.6731615651662464,
            0.129693681781035,
            -0.14968788329568095,
            0.013204027842848383,
            -0.05373991394260144,
            -0.3135620419452851,
            0.34388981795496154,
            0.018662476822040447,
            0.6799819017095856,
            0.2636504875824826,
            -0.3292822637516434,
            0.18785629421399686,
            -0.8060004545791117,
            -0.1040308233739295,
            -0.23878229224421582,
            0.16663790837200618,
            -0.11069963898697505,
            -0.0760488727079864,
            0.5949378412663651,
            0.2968036579620216,
            -0.001919014069981851,
            0.8691778306351893,
            0.15510139695061018,
            0.3557280099866027,
            -0.00044661638652159316,
            -0.6870357177413692,
            -0.5283649873229423,
            -0.3076049341649477,
            0.13647975848054558,
            0.3397688968391943,
            -0.17345420934680225,
            -0.02999586859437765,
            -0.07942822193403468,
            0.6381490899118226,
            -0.1417575960785495
          ],
          [
            0.020523441931639613,
            0.005121205225804665,
            0.046105662056844535,
            -0.060043477039873956,
            0.07965933134872649,
            -0.16290772550445062,
            0.049976007282782245,
            -0.0947477625587448,
            -0.21243854530475217,
            -0.2183770464264847,
            -0.2660764460777183,
            0.09649534811176358,
            0.1395904651029362,
            0.1718818123591909,
            0.17815473325769807,
            -0.193759993085114,
            -0.023952120503480476,
            -0.01594156983567488,
            -0.4165552271042318,
            0.27791715457020827,
            0.10789118495464939,
            0.23248875630290516,
            -0.2419825349653242,
            0.007058471991702,
            0.05116035647312352,
            -0.1786710627153505,
            0.05094455035121495,
            -0.07315768266510948,
            -0.12844386650962403,
            0.07275538290925336,
            -0.17857855582987314,
            0.0370620907056044,
            -0.059584974996864666,
            0.09918961437389272,
            -0.4012188523526281,
            0.17839145518391475,
            0.2064793938419336,
            -0.2882505599716213,
            -0.3150510321158836,
            -0.09501234629707174,
            0.22423370698519635,
            0.1915559880950992,
            0.08016675763267334,
            -0.011766036948779398,
            -0.3220935087089062,
            -0.1624744825906743,
            0.11967862666542194,
            -0.4550756329341683,
            -0.11201730315641302,
            -0.183834564700532,
            0.2258763065554241,
            -0.24421999130181435,
            -0.08826498265174376,
            -0.11737638962288721,
            0.39307903397540744,
            0.056389262122513766,
            -0.07496098927953507,
            0.008334319040080827,
            0.04542781949128798,
            -0.23829895914189816,
            -0.4170071884086758,
            -0.25597747696805095,
            0.08600125162140236,
            0.12018152414828394,
            -0.08750648225247816,
            0.24743649487155323,
            0.22515884444672873,
            -0.04547910281644755,
            -0.0031776481500737377,
            0.4384277980827715,
            0.07162126239192236,
            -0.08118397569666765,
            0.3650113761406357,
            0.16764073682587138,
            0.23996054051621793,
            0.18712661015474916,
            0.32212366170192874,
            0.04452489846227547,
            0.2260445423409809,
            -0.08222657232891563,
            0.019441955223847875,
            -0.001462271322750972,
            0.12213022531812086,
            -0.17466906766549345,
            0.23835681346159343,
            0.09369086838185549,
            0.1817141864874615,
            0.31272023024127943,
            0.08883979964943158,
            -0.023344388660958882,
            0.06280829567743436,
            -0.2903283624854489,
            0.34948727808204566,
            0.03169127526970939,
            -0.20952310281691722,
            0.0011770329344186318,
            0.08898659889572423,
            0.14547674803489755,
            0.3022706951999626,
            -0.1302221650434298,
            -0.31837324538383815,
            -0.27271068984698105,
            -0.17492991142406575,
            0.2667306614450735,
            -0.26696027969174535,
            0.45187099073023046,
            -0.026379157082743587,
            -0.08876841896964163,
            -0.0808321009272996,
            0.3495254376137324,
            0.08469085104019117,
            0.013886114506392194,
            -0.15848835788030852,
            0.11288326356139564,
            -0.4380216099279984,
            0.003207668517146915,
            0.03314390866889152,
            0.07477832132260005,
            -0.03418709056467402,
            0.06735819361201352,
            0.14468778887965997,
            0.21875378498558584,
            -0.37325989830694234,
            -0.2348582580098582,
            0.1622002304548057,
            0.20196880849836601,
            -0.16909320041725912,
            0.03837628159153233
          ],
          [
            -0.2582281533509312,
            0.04178526591779317,
            0.021844065801206347,
            -0.19512955816891275,
            0.12167907703489238,
            0.21045983454391165,
            -0.14045313318988153,
            0.44264315473279675,
            0.25680402426988375,
            0.05927873493087642,
            -0.08857839332106136,
            -0.005998174824111823,
            0.09146993522970545,
            0.17079995023120362,
            -0.21918870065810653,
            0.0605837341417276,
            0.023803242301452934,
            0.24144602529315948,
            0.5066736681199037,
            0.04841865602290909,
            0.02177730021455592,
            -0.27157432823747973,
            0.32061459959431476,
            0.13321266613273738,
            -0.13565169314421152,
            0.1293410776615773,
            -0.19974449102059733,
            0.011618301949870466,
            -0.226027398888199,
            0.23845160458382733,
            0.17441213843972983,
            0.15755341976354234,
            -0.0978415050770286,
            -0.020035236867147033,
            0.3878737314696087,
            0.11656249442090998,
            0.023948547380616695,
            0.11605210498799025,
            0.08110666123270621,
            -0.07589417981976176,
            0.05544176343858075,
            -0.35133375011320184,
            0.09137804074420244,
            0.04192622736562442,
            0.3360931491818506,
            0.0809884763124679,
            -0.060106025620496155,
            -0.017814307521124135,
            -0.039774695792836774,
            -0.05613022106659255,
            0.046110009193301875,
            -0.19865886114025857,
            0.017175545426282097,
            -0.11936805586789079,
            0.00710678998274964,
            -0.011220300074345095,
            0.06146852961637039,
            0.08604062263807409,
            -0.5134728462294278,
            -0.06764275363083298,
            0.42680082687104054,
            0.5461763163380864,
            -0.1779426236004658,
            0.16680983069652566,
            -0.20611908375315194,
            0.053356762074445216,
            0.08122224698658995,
            0.19922319005772057,
            -0.1037407010232251,
            -0.2630432687098012,
            -0.014019932687189728,
            0.2765536204434019,
            -0.09887923231102744,
            0.15257424790162008,
            -0.29798419940076387,
            -0.040166781753605205,
            -0.29061974463534174,
            0.10646398924697045,
            0.07041883991796573,
            0.010112828887055057,
            0.23197596711206261,
            -0.03631482176574732,
            -0.03259879210061632,
            0.3477840505361989,
            -0.12331586137710655,
            -0.017048464031916684,
            -0.26999658607796256,
            -0.25736531352964115,
            0.08182504848104655,
            -0.35505157642137364,
            0.1217593891053644,
            0.2698970868803991,
            -0.11986467464031972,
            0.25210531930586016,
            0.3329973079536039,
            0.12385776588924903,
            0.17771406969038653,
            -0.22499243160428734,
            -0.08299751066453707,
            0.3933465051626881,
            -0.010875204162229438,
            0.2441509038789156,
            0.06389435098799039,
            -0.14411923393450374,
            0.1073905778019995,
            -0.3500573396988061,
            -0.11728227338863198,
            -0.3523413783531517,
            0.3094885547224402,
            0.04739902703688133,
            -0.020027100041120058,
            0.32892247038246986,
            -0.08545396951018315,
            -0.08237339078419348,
            0.26650087068435563,
            0.06554268361264784,
            0.17184723289880738,
            -0.17290007298706428,
            -0.305180958058334,
            -0.05247499173775427,
            0.08098747294956332,
            0.12250283298957608,
            0.12552882098451848,
            -0.0034147117428450684,
            0.11165138363191622,
            0.08178328349246404,
            0.057585806598164146,
            -0.05473187965378757
          ],
          [
            -0.023309806210199027,
            0.16284739204417736,
            -0.09216630171534368,
            -0.10257045230037877,
            -0.08147891918742604,
            0.10772679898981202,
            0.3155537474723026,
            -0.21618932955610776,
            0.017223936911461405,
            0.06030400569255065,
            -0.21491225469926606,
            -0.08731920809440406,
            0.22255067388952252,
            0.06301251592510235,
            0.05959411602021163,
            0.14529642748930074,
            -0.2749669453873323,
            -0.0860604179770239,
            -0.5761859175466376,
            0.23897590388400788,
            0.15456283354464415,
            -0.0937880813600167,
            -0.20613868445344383,
            -0.04181599387974463,
            0.07005953183506604,
            0.07623913847086357,
            -0.028629667148497434,
            0.032654227673602244,
            -0.13499905600969167,
            -0.043391289375916124,
            -0.2333075117775729,
            -0.05108994031644907,
            -0.23051012625003034,
            -0.13828998645913235,
            -0.1617999702447803,
            -0.14446351529627594,
            0.2537639316412081,
            -0.15600282799061474,
            0.04110184257630943,
            0.025269804773268765,
            0.1586594497647874,
            0.3594973160181971,
            0.03269004415990994,
            0.017889084607158674,
            0.01798800632459356,
            -0.14414913354992406,
            0.22041530667226644,
            -0.5393885630426906,
            -0.309012701733603,
            -0.16384952085325089,
            0.14684324717432928,
            0.020380796199948852,
            0.13883779496370405,
            0.2876929246868052,
            0.14358774823195533,
            -0.15472046788001195,
            -0.05343621681062215,
            0.17445005445873463,
            0.04037575414438543,
            -0.05976941278454556,
            -0.43627639399523666,
            -0.0484738735306173,
            0.49649381781927504,
            -0.1381564418027627,
            -0.12194376943990012,
            0.15817279740540569,
            0.19956391265165854,
            0.0815761736342111,
            -0.07892840278915052,
            0.3354607145579321,
            -0.06864780009494399,
            -0.057776622690337294,
            0.3317605508019449,
            -0.09246859559464538,
            0.26354875531359434,
            0.13605672085731463,
            0.29695835576677404,
            0.14160367404841967,
            0.09827814634507892,
            -0.0671108435383098,
            -0.12760581179275038,
            0.12074529165718899,
            0.024577897216120286,
            -0.2329577488002451,
            0.25290857506812764,
            -0.04792148240865967,
            0.40886951113472897,
            0.1332311330096474,
            -0.125005177589597,
            0.0585139888474419,
            -0.07260247524264687,
            -0.06725442411535462,
            0.3322543742614936,
            -0.04591931188306948,
            -0.29876712911822617,
            0.2080467695838198,
            -0.05159401436813102,
            0.12511808058609825,
            0.2435974395545391,
            -0.158821809029975,
            -0.20803697760180492,
            -0.105871205935214,
            -0.12798615886023426,
            0.14850880149886433,
            -0.11593020677799652,
            -0.01905021800111945,
            -0.026910778555197353,
            0.17090664010026949,
            0.06564778760968601,
            0.11295447078576647,
            0.06312802519910142,
            0.08337505874142635,
            0.00642704574176213,
            0.3696601556542761,
            -0.3376203738814673,
            -0.02661995994136778,
            0.08111746639484484,
            -0.0760096173175567,
            -0.24448775844675513,
            -0.16363058944550812,
            0.13839438274345117,
            0.1534080762142099,
            -0.23843811254348707,
            -0.17441517655694416,
            -0.061776771337146444,
            0.30276673839170426,
            0.12740041072515998,
            0.06342017684115142
          ],
          [
            0.11260273295469139,
            -0.008687177790796858,
            0.016603920324580242,
            -0.1698068947581014,
            0.021504104236999378,
            0.16707184704303812,
            -0.40740731994795343,
            0.10605912346533009,
            0.22909397606153525,
            0.30053591584370193,
            -0.1342500198045288,
            -0.12416263644138045,
            -0.18133706635047211,
            -0.004226229309965794,
            -0.03286478434024483,
            -0.03858597922631545,
            0.2089623281205256,
            0.19272785441879214,
            0.24725335933478879,
            -0.02564433419236878,
            -0.12926130615520187,
            0.10002419132216651,
            0.26914812244179376,
            0.06806119625633522,
            -0.05376343439109538,
            0.15756584659496514,
            0.1160229899305709,
            -0.2800723327673287,
            -0.020995089938201976,
            0.12330366461799855,
            0.1773679336201352,
            0.21251562115742967,
            -0.16487069665315957,
            0.1491475179892249,
            0.1744587638150083,
            0.06931975766877851,
            -0.19948143220075445,
            0.06486019546640484,
            0.211066169148274,
            0.04579284523426127,
            -0.030593153025141998,
            -0.11718467005479079,
            0.08903097891812609,
            -0.041994452976407054,
            -0.004130460018058454,
            0.04330999731459723,
            -0.07728587645141141,
            0.22030854742945105,
            0.200132027142796,
            -0.030433468337241677,
            0.05068068797645278,
            0.09896724342728144,
            -0.17818705663152695,
            -0.16916359320546293,
            -0.20618020053150624,
            0.19441862437827734,
            0.07642903760435243,
            0.03861456930452147,
            -0.08227681812775814,
            0.04996649703410827,
            0.2429711931448342,
            0.3208814688918248,
            -0.24416332623316206,
            0.27985090008792474,
            -0.21699628181049638,
            0.0421732968624882,
            -0.04362503545422641,
            -0.11572872799099594,
            -0.15870878352503542,
            -0.24163817014880531,
            -0.16065062361196536,
            0.2041724638903008,
            0.112430430659526,
            0.060002464145018336,
            -0.22310628027987553,
            -0.15107350146682413,
            -0.08995646047404854,
            -0.06168484276517479,
            0.0094554552940247,
            -0.14318246159266393,
            0.2081471789584101,
            -0.20627090668139472,
            -0.023381237555682752,
            0.08013556287063925,
            -0.16810779558003464,
            0.0723468437027705,
            -0.20734041983577883,
            -0.14848135440409987,
            -0.07570437919813777,
            -0.14013486295953784,
            -0.18840599787194254,
            0.18263283874820008,
            -0.16726475262407461,
            0.04712029315515071,
            0.10855409474820778,
            0.05465152830507935,
            0.018976082934163842,
            -0.1930643170523843,
            -0.19258451977512173,
            0.06340497591882596,
            0.23498766098001822,
            0.012904698087018798,
            0.12229446925941026,
            0.1646774934485135,
            -0.03671795786412824,
            0.01942948992884431,
            0.08667597358024152,
            -0.19924366957680745,
            0.06301888939477879,
            -0.22534475852291702,
            -0.28827281850914555,
            0.1587277248910804,
            0.032178423848809264,
            -0.027940415734284664,
            -0.13887988138153362,
            -0.007491305672978682,
            -0.16591541845692176,
            -0.08291148855451676,
            0.03047161582290297,
            0.07893258970295582,
            -0.025171493406995475,
            0.045402369312355216,
            -0.1239952131784525,
            0.18060841454115345,
            0.1356971097980768,
            0.07980452494269763,
            -0.26470954706785094,
            0.01839632385842473
          ],
          [
            0.06857732997098628,
            0.016603361098533154,
            -0.11800602152594558,
            -0.2210985377677811,
            -0.11245716389073471,
            -0.19063573467679581,
            0.14825938031122846,
            0.08802493750004577,
            -0.17778319173208798,
            0.02297597691163845,
            -0.1895359160453364,
            -0.046301283587780004,
            0.3487597108654269,
            0.21589854185106744,
            0.13749846378790456,
            -0.14842239622132086,
            -0.3531728572202677,
            -0.22231007025052485,
            -0.2840280413884533,
            0.13905118437327693,
            -0.046556292029024664,
            0.15192933855123536,
            -0.21206593538519836,
            0.012221310365438415,
            0.14810224323054558,
            0.10130549184336544,
            -0.19146053511137973,
            0.3471727949712293,
            -0.23498386591257217,
            -0.16346841212950527,
            -0.010718279756359536,
            -0.15499986897611662,
            -0.22304425674975317,
            -0.23246928500183586,
            -0.038074607524342365,
            0.11735307724971437,
            0.2169142005005808,
            -0.33586532346569614,
            -0.1731450034495175,
            -0.12307560789769822,
            -0.059523049458751434,
            0.2522859469821315,
            0.032809493075077745,
            0.08956125732566003,
            0.033749974726763325,
            -0.16531826921534012,
            -0.060296922906866765,
            -0.30894730940197274,
            -0.24823712828550237,
            -0.08452589411324907,
            0.19818151552112326,
            -0.25089789700338094,
            0.22234823157073255,
            0.3440532573583652,
            0.3984243976170274,
            -0.022464228319807954,
            -0.006107509952009817,
            0.21783818953686565,
            -0.007815667192989194,
            0.11709573904797056,
            -0.2070912879353859,
            -0.11688859138815297,
            0.5242182384016012,
            -0.37806645014178725,
            0.07933727873253711,
            0.035979039598351546,
            0.15339065045729763,
            0.050336425052097795,
            0.11263182350022373,
            0.17753403355611672,
            0.05314708619779276,
            -0.13129250893414904,
            0.14968760707478587,
            0.18001523210546366,
            0.19855225625739173,
            -0.09425430267546207,
            0.27968297569280026,
            -0.0005891789002565751,
            0.3421955444873278,
            0.0488640765824986,
            -0.029904559508933337,
            -0.06590550636726247,
            0.06856085219162994,
            -0.1796839399777522,
            0.35456097718742113,
            0.00923343839831314,
            0.12748369479703506,
            0.18853770472773637,
            0.13193447986725637,
            -0.26354801641583986,
            0.015287052574677112,
            -0.023438788512649442,
            0.21641452151413187,
            -0.06858564646622461,
            -0.29714813056732764,
            0.026229500138284994,
            -0.32293866407979965,
            0.13064329759393845,
            0.06728001059590047,
            -0.1449759187178976,
            -0.33225692523919365,
            -0.26884339313884537,
            -0.3098868527247473,
            -0.20179411046779153,
            -0.20362526235689635,
            0.1814315057814318,
            -0.14032206008219542,
            -0.05243613613901867,
            0.016959248490853857,
            0.31490865663618794,
            0.04224656396227448,
            0.11346987635099312,
            -0.07828166768444085,
            0.4008378072390482,
            -0.26205383624767425,
            -0.11382211689164512,
            -0.065296884479437,
            0.09492336460344852,
            -0.281139784155823,
            -0.32543100494469457,
            -0.13225134227718044,
            0.034651943871417,
            -0.0725815451861651,
            -0.417920261820301,
            -0.1297124802127366,
            0.3114049633545558,
            0.0012356567439472848,
            0.055573515319346393
          ],
          [
            -0.06056408227223632,
            0.225137636544037,
            0.10457530711127778,
            0.10793275678070251,
            -0.07681810224827065,
            -0.017930040227187506,
            -0.21975793434374308,
            0.28048264233444564,
            0.07724623714089078,
            -0.07703395707442333,
            -0.18149890298951432,
            0.15785556713430848,
            -0.09384276562154908,
            -0.14495997508077416,
            -0.01380515331051294,
            0.013995859505672342,
            0.28716043332011204,
            0.15768283508501954,
            0.09507538488387382,
            -0.14462171806127355,
            0.1410241141020267,
            -0.002685260054783156,
            -0.15053693671321922,
            -0.0006579372929785449,
            0.11133388162550564,
            0.11753174839295395,
            -0.10576072404331494,
            -0.3366893570183017,
            0.1587548571278836,
            -0.06721141675986197,
            -0.1383116742854677,
            0.3408811273728408,
            0.09090876125752981,
            0.055749956895216994,
            -0.27303688616283933,
            0.20438175386517413,
            -0.3220448967146653,
            0.003858856109908469,
            0.030632812160476933,
            -0.11338545202876094,
            0.3176420907214874,
            0.13766387270143793,
            0.1344225559312213,
            -0.12131920458191343,
            -0.18942067211567348,
            -0.023321925301649157,
            -0.17488783012954184,
            0.33740426063083395,
            0.15328141704897083,
            -0.011247989288270524,
            -0.012976205735409982,
            0.09194053314015418,
            -0.20712310177414503,
            -0.3044699557799859,
            -0.2300054069270871,
            0.2531353282059163,
            0.1084783595461483,
            0.08206279001412184,
            -0.031815797092322844,
            -0.2153850433325772,
            0.0767132982678315,
            -0.12476082103893567,
            -0.2321508355702153,
            0.1194225677788359,
            -0.12920806957636483,
            0.19198923575363946,
            -0.05941192627379829,
            -0.2241013053616102,
            0.08466425035871968,
            0.10383122814495493,
            -0.1382412047037991,
            0.08473265311675654,
            0.10399209512652159,
            -0.07068679939309852,
            0.24226888626089482,
            -0.015515793618942066,
            -0.023418443782031825,
            -0.03656266245615908,
            -0.26615681679968367,
            0.09487461298421347,
            0.08153889377580713,
            -0.17251214873007112,
            0.2167373940701739,
            -0.06868589154595633,
            -0.3751343336579988,
            0.17043363019322033,
            -0.2028687504088935,
            -0.04368833140562947,
            0.12165318846395776,
            0.17687899130484627,
            -0.12902866849762418,
            0.01839582715180432,
            -0.30062884600253476,
            -0.009986617067621412,
            0.20647067277954953,
            -0.10568916500625307,
            0.25678140449195724,
            -0.02190516417347789,
            0.07907719522870087,
            0.15866260959585682,
            0.32332763071560155,
            -0.1904857043510024,
            0.0897399145882242,
            -0.05548648740290772,
            -0.08249241988382676,
            0.13159065366458247,
            0.08520869885300064,
            -0.11880292934844819,
            0.15229002822305968,
            0.07685313119250194,
            -0.18755914281926214,
            -0.11814729782276219,
            -0.0991388291396824,
            -0.27879298146509984,
            -0.036361430621600306,
            0.03364865315154119,
            -0.08512711871160808,
            -0.16493128165323445,
            0.11957474249014297,
            0.21742928151820926,
            0.13102994814119187,
            -0.269799927562816,
            -0.05737742022930871,
            0.18161450237866228,
            0.02657400994014009,
            0.0158600199626541,
            -0.5484847362178946,
            -0.1155940032939091
          ],
          [
            -0.12355940541477943,
            -0.15194793230324286,
            -0.12958217808499267,
            -0.005187366897384112,
            0.05739773852424409,
            -0.033690986079758116,
            0.273640973902163,
            -0.16564946043024334,
            0.03440928593297697,
            -0.04409717702798756,
            0.12773905284835554,
            0.09948810261274227,
            0.3936666845445647,
            0.060196500971626495,
            0.2522891608467874,
            -0.0815461014097396,
            -0.4086892310620432,
            -0.10616781661027545,
            -0.4029389282709772,
            0.15175746895391956,
            -0.13689160833535763,
            -0.11285981375700306,
            -0.05081505509942395,
            0.09185720770471716,
            0.1212647250063734,
            0.06875140057724277,
            -0.0978261345818167,
            0.0680156830953597,
            -0.3182705150056064,
            -0.2154991461617937,
            -0.28534626464876894,
            -0.2812264771030606,
            -0.12233670907137575,
            -0.16927907971879988,
            -0.1058597868981929,
            -0.23029009153341626,
            0.46898484497098214,
            -0.34692620841105287,
            -0.06629815921969724,
            0.07050850716979755,
            -0.2574867070681962,
            0.039302364142404074,
            -0.0881136639318616,
            0.19159721276583097,
            0.2550348493794227,
            -0.23194684197448878,
            0.07892549085097604,
            -0.5485643632555552,
            -0.23799479221410594,
            -0.027468093773191246,
            0.14804195427906805,
            -0.34685280201138047,
            0.22026894126590366,
            0.4130909708017613,
            0.4555640326854365,
            -0.27315933254802877,
            0.052187978142054975,
            0.12381540085015605,
            0.03590456619724615,
            0.07329368975960447,
            -0.28202208457633604,
            0.09891939570669485,
            0.6024598155773365,
            -0.3974507409556268,
            0.097804135171482,
            0.048147466319288144,
            0.16236536737048418,
            -0.031378146274800595,
            -0.10909680814571081,
            0.043834513645166086,
            -0.032021768183047174,
            -0.21889210651924929,
            0.27329081522674,
            0.1119690867273942,
            0.07458452000104226,
            -0.16785516455667465,
            0.14424562394191526,
            -0.13825921950502187,
            0.17974491669397646,
            0.07404110342292806,
            -0.13087432295292217,
            0.07748976387377943,
            -0.25182702879278973,
            -0.09687330419238765,
            0.43134066691093764,
            -0.0783046432297243,
            0.41927281231472807,
            0.3540787807540637,
            -0.20109159267727184,
            -0.3477917864726288,
            0.04167579930403173,
            -0.20224854427076172,
            0.3512459247523702,
            -0.11860146613303175,
            -0.18330289568803854,
            0.0452395885021421,
            -0.3008346964114774,
            -0.015494562857061179,
            -0.002559367697429602,
            -0.2934730483119903,
            -0.1593202377458703,
            -0.13682404069074655,
            -0.045088518652059165,
            -0.2123883696068066,
            0.036353696467884694,
            -0.12030151664126754,
            -0.22605039751698497,
            0.2936468676714436,
            0.08142567123288708,
            0.1522855306341132,
            0.289389517459099,
            0.023431131057061995,
            0.0970980317538835,
            0.13455686253305088,
            -0.10714782973486801,
            -0.1590965333784146,
            0.03437209984661491,
            -0.005324314742748457,
            -0.13075137411884666,
            -0.36684571570083035,
            -0.10754145611236289,
            0.26721304972796733,
            -0.16135768813934362,
            -0.37729523519665237,
            0.12445217212286934,
            -0.041864625216389555,
            0.33190711143991825,
            -0.10206421195092068
          ],
          [
            0.18206786743963205,
            0.2908392178242983,
            0.3271865613670953,
            0.09467956485462531,
            -0.06254172078695039,
            0.05508243702277973,
            -0.4435821635090552,
            -0.07470186988972097,
            0.008007741862494368,
            0.1866088068288365,
            -0.305034189473329,
            0.076274329593994,
            -0.15993145328129485,
            -0.1522852185772698,
            0.0718159294120336,
            0.11266647441465905,
            0.2553280495171214,
            0.124285142716756,
            0.13126715062660232,
            0.0036836745689759485,
            -0.03300728918849303,
            0.04439979566629029,
            0.08098563614925644,
            0.1384676052416472,
            0.22168664114523104,
            -0.05273487219577944,
            -0.05007137657186831,
            -0.16272516744266,
            0.10433274856341467,
            0.03279903529557744,
            0.07703003446617626,
            0.10831422849522575,
            -0.09135668051810512,
            0.039758934736674155,
            -0.2519811690039553,
            -0.04169757837274246,
            -0.3188952437816422,
            0.3044474915024167,
            -0.02429902299419038,
            -0.04064011689040516,
            0.29626144854317843,
            0.07353081605950333,
            0.14572835241590737,
            0.09271985501931673,
            -0.05760461055673327,
            0.06336736394638133,
            -0.09419961005166429,
            0.1910686109414463,
            0.21155422830054094,
            -0.1400439317470026,
            0.002225139020891659,
            0.26879970439834955,
            -0.19128975900879033,
            -0.32153307288560273,
            -0.22126212674673829,
            0.06172875830775614,
            -0.1680229517028108,
            -0.12739008093913443,
            0.06333948089385544,
            0.08346207453979304,
            0.14386613501665682,
            -0.10677833002189192,
            -0.6068035070051755,
            0.4216607278434944,
            0.008332789272894917,
            -0.04863772501781967,
            -0.10635622774642867,
            -0.09886429154326264,
            -0.030406042010628333,
            0.10741703519547201,
            0.04051343054990617,
            0.1695553984759287,
            -0.16997957779083517,
            -0.08145202594614279,
            0.098031218359999,
            -0.05840938330410602,
            0.2863586403524298,
            -0.0028531320092805667,
            -0.2903273017761774,
            0.10139869329403198,
            0.14609300898848554,
            -0.12228758483739938,
            0.20348602024270934,
            0.14398502366081448,
            -0.29697173227891915,
            0.14029566776434974,
            -0.16378757933951768,
            -0.17686451326889796,
            -0.046804588127633884,
            0.14948523229522975,
            -0.0926956795489426,
            -0.036697185601074205,
            -0.29861361765007793,
            -0.03023203727027741,
            0.11793942065907705,
            -0.20232465450822013,
            0.3685743094878916,
            -0.02332497170306725,
            0.008719535611387514,
            0.06619803672611765,
            0.14963542258508225,
            -0.030357909860338483,
            0.05732171233185391,
            0.3295733693216918,
            0.13639856407408796,
            0.15087692700018676,
            0.23578860147542804,
            -0.32587288802761255,
            0.12762737587758086,
            -0.16737953080575443,
            -0.10415884095237629,
            -0.24336053854255632,
            0.06792801138623544,
            -0.26383456157157936,
            -0.08797154420022019,
            -0.021214065326901104,
            -0.17956625934657472,
            -0.1592590315718086,
            0.4405214967195027,
            0.28395597255986627,
            0.0065691555277774295,
            -0.05222782899850306,
            -0.04135422425579704,
            0.3035160724059714,
            0.2620027131209694,
            -0.13379681468282106,
            -0.5196508515594827,
            -0.01873908769448351
          ],
          [
            -0.08703479992341182,
            0.192548695213771,
            0.19190717190555812,
            -0.12556169367453587,
            -0.06405847603044751,
            -0.07455403959964194,
            0.2138629233036958,
            -0.36154863380958735,
            0.07241846309227458,
            -0.2739253459283147,
            0.10412097002575715,
            0.0013989801313293298,
            -0.0020035613344764496,
            0.24955143923937695,
            -0.14719207397773787,
            0.07244156251114187,
            -0.2488233352114443,
            -0.1028134913138452,
            -0.34446400659760923,
            0.07495039024020984,
            -0.08919503586385016,
            -0.011112830321005822,
            -0.0903463636209884,
            -0.046594112349431255,
            -0.18054125291528905,
            0.10491154949896123,
            -0.182201077709629,
            0.29879217498352106,
            0.06665057682273208,
            -0.15497846493463593,
            -0.05200506512515124,
            -0.13049777534139512,
            -0.16232334017028624,
            -0.013080163667768145,
            -0.19117176241185596,
            0.12974347352995563,
            0.10496647066638415,
            -0.17367277639537582,
            -0.06825654231356712,
            0.05516783202767373,
            -0.015641150455276767,
            0.15051486499894454,
            0.13403432641154348,
            -0.20972971151820724,
            -0.23032594581773266,
            -0.21058289977177744,
            0.06559728462433234,
            -0.16925508259450214,
            -0.23261152342209732,
            0.1939520264989361,
            0.1829777047980136,
            -0.037280162814297205,
            -0.012119073881336343,
            0.26480607425851677,
            0.12465317663877684,
            -0.0059601873119650775,
            0.11539092665748162,
            0.050141746934282194,
            0.036989549960286035,
            0.06290411169290511,
            -0.12056713540833952,
            -0.47526680635667473,
            0.518651026827336,
            -0.2428362969752529,
            -0.13715776394781437,
            0.06559855625494386,
            0.24597221543569145,
            0.07160203920156279,
            0.018177369675438027,
            0.3573634757747689,
            -0.15699928629288876,
            -0.21096178021256148,
            0.09462851566994145,
            -0.05423618435951575,
            0.16493419975136203,
            -0.16707755724008527,
            0.26675792767400763,
            0.1517088818603528,
            0.021722946838399863,
            0.088835393403402,
            -0.19745642928069412,
            -0.10876003343271569,
            -0.1884712735405397,
            -0.08058618544735469,
            0.3585515334021064,
            -0.13412482857904415,
            0.2651688213560822,
            0.13666502950534143,
            0.06743677789911727,
            0.045805324194045614,
            0.1765226417949824,
            -0.34344755651816417,
            0.1313888017284884,
            -0.09231340641303122,
            -0.38369535943363464,
            0.25068535032315165,
            -0.3203748291853396,
            0.19079679645472983,
            0.3089506345183593,
            -0.19653206793790576,
            -0.3195464742037499,
            -0.2840855157594742,
            -0.3225623763581999,
            0.008309495971101519,
            -0.11206343907383065,
            0.39622888006202744,
            -0.11848358210943144,
            0.21117236311691673,
            -0.15008732601242902,
            0.058219734830817105,
            0.03632818871037858,
            -0.18342014052945282,
            -0.016663128219479784,
            0.17682067307267457,
            -0.26908249131281736,
            -0.07813616306205635,
            -0.17182088621079997,
            0.018528434377532252,
            -0.09046925169385371,
            0.12021221124276513,
            0.16275579505420662,
            -0.07770059155443641,
            -0.3612865096246379,
            -0.38477501516353113,
            -0.22116062897998306,
            0.07250767628830544,
            0.12118915154874821,
            -0.04837680144228062
          ],
          [
            0.14778165797128842,
            -0.1689369750704362,
            -0.1440614184518995,
            0.21086806558356422,
            -0.1034674439965917,
            0.15614035906921836,
            0.10074575653551768,
            -0.0642965019961985,
            0.33003682975206566,
            0.03988011305275444,
            0.2874928139629506,
            -0.2144845451139053,
            -0.23353435133890024,
            -0.11346788330686135,
            -0.06694549918631948,
            -0.044009250871160914,
            0.19321893165270082,
            0.1475621237176639,
            0.4043508703595557,
            -0.0708648890143597,
            -0.01895183415215286,
            0.13625606638242996,
            -0.13819423977944095,
            0.12637840361871586,
            -0.19984443801307242,
            0.13374737329373318,
            0.15946685522869583,
            0.11291606032060575,
            -0.08944354011375565,
            -0.09043574220913161,
            0.135751036798834,
            0.015412665672170983,
            0.14323387275021265,
            -0.19445034023238508,
            -0.06512508977067606,
            -0.24006057798833524,
            -0.13752946818559986,
            0.2782824312028812,
            0.0825097060885901,
            -0.15414950156255056,
            0.09831501727610258,
            0.10406862952476605,
            -0.03565079226136186,
            -0.0810832189766119,
